{
  "input_transform": [
    [
      -1.663980400362485,
      -0.012043948566615288,
      1.0476811188219852,
      0.8536633899479381,
      -0.2610191994634483,
      -0.94274856777429,
      -1.6158443288772335,
      1.7347949727003555,
      -0.4915739041143128,
      0.6559848262577144,
      0.9376809799443294,
      -0.24807266856072552,
      0.11413986243233573,
      1.3505563419285835,
      -0.4060743892497032,
      -0.832399818360633,
      1.185025507480844,
      1.0468573082554269,
      -0.878700130205148,
      1.1024544793399513,
      0.15969531728823008,
      -0.4897346910098849,
      0.6722844979118583,
      -0.6352459195785773,
      1.4290476134956032,
      -2.747722010889971,
      0.9986246991542713,
      0.2874122586756951,
      -1.5721933846658023,
      -0.06095183714412078,
      -0.4559312484097503,
      -1.677151348585268
    ],
    [
      1.841373919822376,
      0.7749167294354461,
      -0.7266160927859248,
      -1.2059643813900822,
      -0.0907845288440883,
      1.0633158679575063,
      1.8464735534538594,
      -0.33659313491910586,
      0.3611380244805396,
      0.7251870995488179,
      -0.27417075384670314,
      0.8655959119417315,
      -1.3567166705272147,
      1.9055446354748475,
      1.6381298069391208,
      0.15626839116196237,
      0.12674131171837114,
      0.1859187788045541,
      -1.3586209974875638,
      0.7216178447078675,
      -1.8649203627108633,
      -1.030338464987282,
      -1.3594720454138285,
      0.30324251728296264,
      -0.44104022345508004,
      0.20102294394872813,
      1.241271977527992,
      -0.9197533653841043,
      -0.26346065343030906,
      -2.4931131715164656,
      0.3960072218325429,
      1.920193251822466
    ],
    [
      -0.9722929760663069,
      0.7994854842586175,
      -0.43560384277227787,
      -0.1651940444924917,
      0.630027141412546,
      0.24557273208236866,
      -0.7905097143228166,
      0.7794973751393687,
      1.3411288594345396,
      0.12967390513515578,
      1.5416187899237355,
      0.3245393519226304,
      0.2103611042574569,
      -0.5434620743112039,
      0.8063006943952886,
      -2.38088445342524,
      0.3441323934350205,
      0.022466128964526016,
      0.32152839984940906,
      0.43236505174472867,
      0.07821569263731726,
      0.6519095476939808,
      -1.298659116618507,
      0.39693367798545,
      -0.7314727013780041,
      1.7665604470446876,
      -0.3660795010139775,
      -0.3349667640729669,
      0.3236930049794657,
      -0.5769199358809706,
      -0.9256817215534122,
      0.2892094515387473
    ],
    [
      0.12054241475175945,
      -2.17819137041543,
      0.31068211766300063,
      -1.6167683599505946,
      1.6990201408367107,
      -2.289286709138752,
      -1.0117688104440197,
      0.20485232559870997,
      -0.5987275992750581,
      0.40811791352213334,
      -0.19697388546062744,
      0.5591354740866338,
      0.15306750677162853,
      -1.8896728713875615,
      -0.2675367851623174,
      0.6921674397289438,
      0.7665091176452641,
      2.0567400327602283,
      0.5770012982330921,
      0.09359283070645369,
      -0.548664582217163,
      0.9544171159498654,
      0.10216428869605614,
      -0.1759960565430829,
      0.9182116681326745,
      -0.724317910055348,
      -0.18135710230959798,
      1.342486213562109,
      0.8574975607746392,
      1.3353641498736075,
      0.7958203776001307,
      1.8280860751297618
    ],
    [
      1.2552927215232572,
      -1.3250433205861196,
      -0.5248761260548911,
      0.4628192802684382,
      2.853795588487919,
      -0.4933694714471063,
      -1.0900197225148824,
      2.3086423808152325,
      -2.0148756997911645,
      1.2526508091329447,
      2.4024182846125957,
      0.10592446530001517,
      -0.36750397757670167,
      -0.14243379487780572,
      0.384266124920932,
      -1.2981061405583438,
      0.09446513395361952,
      -2.00678098764554,
      1.5299223404483429,
      -1.472209114027444,
      0.6619029375296063,
      1.2498385293061323,
      0.7864819254742986,
      2.0191192685457553,
      -0.44336376953362444,
      1.395153296270071,
      -0.8968944549775552,
      1.4516261290115866,
      1.2504029761109878,
      1.5133635341614209,
      0.8683622701589196,
      1.511887820296728
    ],
    [
      0.6956347428590742,
      0.3531212267813111,
      -0.1534937891850149,
      -0.26601937765330186,
      -1.1899324362132981,
      0.005329664326101182,
      -0.5443196142752337,
      0.02290661489687711,
      1.1792989235987088,
      -1.8176059726478342,
      0.2787453937930532,
      -0.6640909568612098,
      0.3771327936740167,
      -0.6870472512001375,
      -0.05368807475908284,
      -1.1961712702596414,
      -0.9272059934587912,
      -0.5946783136545808,
      -0.3510533999847124,
      2.277716118769387,
      -0.14168627012192883,
      -0.8733495761628493,
      -0.40741541870495607,
      0.7889405004435721,
      -0.18748594160610382,
      -0.34227859173340525,
      -0.8842248057664172,
      1.5522545999726873,
      1.353035325653494,
      -0.6917234525357288,
      0.8592355596533163,
      0.5194371260697102
    ],
    [
      0.11871146301100467,
      -0.6910288813572905,
      -0.6354348641716361,
      0.025458906965105232,
      -0.4656818497911795,
      0.2668663371091208,
      -0.18404925685979306,
      0.6113241209859693,
      1.7581188741170597,
      0.7664831128856283,
      -0.3347439422218217,
      0.4832617436496337,
      0.7632972691453129,
      1.331247448211594,
      -0.7649795078375594,
      0.14950140207149146,
      1.0307659694674778,
      1.6392073532732365,
      -0.6265388752836284,
      0.2297344441680896,
      1.1687531667585553,
      -0.09265946115508358,
      -0.7237745232969185,
      0.2695391361601466,
      0.9095536170826848,
      -1.113896780971277,
      -0.7177234450148403,
      -1.07291834074142,
      0.229204525082688,
      1.161754257687639,
      0.33571889917836795,
      0.17168459667508404
    ],
    [
      0.23922011393918904,
      0.2419456253515913,
      0.9480949249520134,
      1.4546054136909783,
      0.8116072217131985,
      0.31838919447602776,
      0.5640630402933068,
      -1.1392697509003211,
      -1.317007733132578,
      0.011435778376798942,
      -0.6563505590179871,
      1.2708995190072165,
      -1.1165379854231205,
      -0.5688924928298957,
      2.3329879075662934,
      0.28139192174639815,
      0.727607950035571,
      0.4460805016532144,
      -0.9032180455540776,
      2.6957262949075256,
      1.643298736538149,
      -0.06220014808254087,
      -1.4551952984264025,
      0.7504758036808529,
      1.0192492578228605,
      -1.0719466618750613,
      -1.4955169899849075,
      0.5029776191441035,
      0.5379511793849993,
      1.542470874503884,
      0.6554017405056111,
      -0.5512418888696096
    ],
    [
      -0.34940554455951467,
      -1.1481782031608276,
      0.32790262673236564,
      -1.1260934863695424,
      0.23200435176716203,
      0.06598987814112023,
      -2.631226848091439,
      1.0786745769891377,
      0.9095528481749471,
      1.7037739427537226,
      0.3905521476514628,
      -1.1602772797917493,
      0.5655684730557383,
      1.880090319243275,
      1.948980016725478,
      0.8277203163821685,
      1.5650371343125657,
      0.38413810118349795,
      0.18553286211375825,
      -0.5620643527705736,
      0.1376938943282672,
      0.004415330579144224,
      0.9788441567279209,
      0.24670530867894508,
      -0.10417490509186396,
      -0.5770622610864967,
      -0.4635426177054316,
      -0.30934222263097244,
      -1.8094963528137398,
      0.2790786065915734,
      -1.2813088887896724,
      -1.0732244942188045
    ]
  ],
  "hidden_weights": [
    [
      -1.2669009820523518,
      -0.6836002215179383,
      0.06003523094517126,
      -0.45344545195528774,
      1.389797646921585,
      0.8749484258000823,
      0.7385561060034554,
      -1.7175810683770403,
      -0.7802886146160058,
      -1.2333575347785002,
      -0.7237549182922536,
      1.9321472592316216,
      0.4272860194242758,
      0.006671264722347389,
      -0.34685676445662345,
      1.9051044764639407,
      0.8751214094474907,
      0.46333398870247977,
      0.7603180544063286,
      1.527751198467817,
      -0.6033565148410782,
      1.1805803480918846,
      -0.29177252886274563,
      0.17626158698817052,
      0.6225284324137679,
      0.5681404916443094,
      -0.31802048351670503,
      0.28016878693183617,
      0.02130791251905824,
      -0.16486198704120178,
      -1.31542780889915,
      1.2421197629710183
    ],
    [
      -0.8651219493064336,
      0.1839381586417825,
      -0.17882143547570511,
      -0.4883704255387123,
      -0.20598182696286388,
      0.42975203646879806,
      1.1564291492635401,
      0.3780348840565176,
      -1.1280712995803486,
      -0.9614570466783721,
      -0.5826620629422572,
      -0.7496538930592409,
      -0.09564090509921695,
      1.2632975215315585,
      -2.0056895393579035,
      -0.3494717492041759,
      -1.250023798727086,
      -1.7715568422977381,
      -1.4155945171826723,
      -0.1070498713974858,
      0.05931558301717961,
      -0.22939988964869368,
      -1.3998921307053618,
      -0.3241073596483158,
      0.6671688339018478,
      0.16079955623482456,
      -0.5055266182787032,
      1.0904626430157192,
      -0.8780499715806843,
      0.9351119327928967,
      -0.582923010409263,
      -0.2575724380958975
    ],
    [
      -0.13576793962987177,
      0.3057205909918593,
      -0.0769105693504729,
      0.24502775608417682,
      -1.4455651994065655,
      0.10534831805606025,
      0.31251215516131986,
      -0.8297185526303255,
      0.0792600554148667,
      1.4754108179507104,
      0.37726560144756294,
      1.3162581581050234,
      0.6017706475970868,
      0.7366708675029088,
      0.9343069326481367,
      0.618547939844764,
      -1.4187191705907276,
      -0.26867271402641074,
      -0.4666927695717479,
      0.12133502561675324,
      2.480755560891174,
      -0.40016012460700134,
      0.06327178660861313,
      -0.07778246186330855,
      0.19430549205842523,
      -0.08599695251782499,
      -0.6052737489006855,
      -0.2824739900526065,
      0.6570547245691234,
      -0.5333710919697019,
      -0.4520583040509617,
      0.13998546427040548
    ],
    [
      -0.9463932761086961,
      0.7285799704259869,
      -0.8847298852684768,
      0.1793251396410353,
      -0.36322792411301197,
      0.17694484052811657,
      1.1849793341414687,
      -0.9642565045184425,
      -0.9414209685308622,
      -0.0541724341365744,
      2.588847947378578,
      0.239515766665662,
      -1.345197307845209,
      -0.7874614005629385,
      0.29147616413931854,
      0.3756375300126822,
      -2.4076478700742223,
      1.4603078048866978,
      -0.7226365560948338,
      -0.9034014893577074,
      0.16110369913549674,
      0.8892703903631056,
      1.2416141484297314,
      1.8733608950192842,
      -0.9072818013087959,
      -0.421777471349314,
      1.2362007156929438,
      0.31222144886325265,
      2.378427481186577,
      0.3516628405776669,
      -0.6284008889772712,
      0.020862997977753032
    ],
    [
      0.30044280083200975,
      -0.7784844982300153,
      0.7703475056248782,
      1.821189163409893,
      1.7909420191629952,
      0.6454180776118967,
      1.563314496567239,
      -0.04960318597590068,
      1.6916880529910416,
      0.9960524624856393,
      -0.25320733857212063,
      -0.6411096901622777,
      0.9704564928053941,
      0.395221520392476,
      1.2516672017831365,
      -0.4980677716036252,
      -0.8778145351167143,
      -0.9781698750128666,
      -0.9580409592325005,
      -0.6681858282304041,
      0.25456790296264403,
      0.10710677881590187,
      -1.520177345761587,
      -1.021586829023811,
      -1.8512309956962547,
      -0.8658482371213139,
      -0.20594658717469888,
      0.11958888372729298,
      -1.828915067880608,
      0.24876837878051367,
      0.4166275434269625,
      1.461122479094921
    ],
    [
      -0.06477289614002837,
      0.054523453477205976,
      0.1308975235287983,
      -0.19170726259254064,
      0.13503392439146922,
      -0.11452214934587487,
      -2.0460414213266294,
      -0.140377819782408,
      -0.9178664157379972,
      0.5175130614641081,
      -1.2568663861114935,
      -0.0900472228668444,
      0.5337787410363792,
      0.6611779257270376,
      0.8250510768325268,
      1.0291833310734213,
      0.8160243201130207,
      -0.6622500651075326,
      -0.039640517405660915,
      1.0252580973202357,
      -0.3121460239017448,
      2.0736105310669006,
      0.3159665228494899,
      0.16618101493799967,
      -0.6027649941677002,
      -1.7517430955951725,
      0.9759593527150026,
      -0.11994740751063704,
      0.5843316921453965,
      -0.8383887404539965,
      -0.6487988476411773,
      -0.28389395071730933
    ],
    [
      -1.2957886819138973,
      1.3992922742746081,
      0.6218781622572995,
      1.9044238943435128,
      -0.1988090064483488,
      1.4130910176179492,
      0.00814179962704773,
      0.845174584505678,
      0.698262415128195,
      -0.22472776214176182,
      -0.9961922688116849,
      0.7604472249996483,
      -0.5777417673429709,
      1.1127264630061473,
      -0.2771946846476821,
      1.2611579359793283,
      0.10469519315331698,
      -0.21172795227461685,
      1.7097722160956397,
      -1.7815680267446192,
      1.511810340468285,
      0.20247662796797555,
      -1.025001886904749,
      0.8615199403146535,
      1.3242655155240106,
      -0.1157849311611299,
      -0.9259841271553912,
      -2.061280013193345,
      -0.322619791124311,
      -1.997450760385954,
      -0.519553686113997,
      0.6482121272565893
    ],
    [
      0.9540337702495679,
      -0.8094360939352973,
      -0.5383520009801911,
      -2.3663587410184794,
      -1.3301109848379546,
      -0.9014935047950079,
      0.7208573155601488,
      0.48341543341207377,
      0.6171199825417885,
      0.7985120108403657,
      0.21961625040318342,
      -0.8646651898684233,
      1.0854814147171874,
      0.15200015460944535,
      0.5566906739459357,
      0.8118870617305894,
      2.29882383936655,
      1.3868930608351593,
      -0.5954757985727378,
      -0.6358694057774075,
      1.8361681308967361,
      -0.9202680106181828,
      -0.1370433377359832,
      -0.801189253767361,
      -0.3761753858469034,
      1.3440103575098032,
      0.0021528419469477116,
      -0.8676218391474187,
      1.4681820722562045,
      -1.6302136883600853,
      0.945729350165905,
      1.5885406353848261
    ],
    [
      -0.2681243953888519,
      0.7180932302603995,
      0.9820768351348942,
      1.9436762414714792,
      -0.6251060669653723,
      0.06847645703894321,
      2.5044953795890943,
      0.47697116805657414,
      -1.0154222736573055,
      0.06710564189625418,
      1.4760924365444552,
      1.3232735260545234,
      0.7664538233740613,
      1.2066259750723063,
      0.24326630315566627,
      1.2710445082956692,
      -0.5027565529290645,
      -0.40243900750684236,
      2.2077531589015336,
      -1.5786737450885524,
      -0.6878908345240192,
      1.9422139592762722,
      0.7577001298543563,
      -1.1659903913713627,
      -0.5759577815460231,
      0.31330507135922875,
      -0.39506267442306653,
      0.5765994839879679,
      0.24893396949992377,
      -1.8179258242202234,
      1.0608453378906866,
      0.41857691873804226
    ],
    [
      -0.08924423353008237,
      -0.47194608297140234,
      0.2936060580586036,
      -0.43945436038308816,
      1.9041455337299296,
      0.9570854488044193,
      1.2887984413712466,
      -1.9188969741687008,
      0.7847148875772095,
      0.16311933349997346,
      0.21581190015072108,
      0.7455432402124981,
      0.29508938410926516,
      -0.6293695685749924,
      0.07207008930638174,
      0.5980287494030043,
      -0.11060986148961863,
      0.3425968656808931,
      -0.6335174730614669,
      0.5597556410850019,
      0.22728604138502964,
      -0.8893227422093544,
      0.8826503647229349,
      -0.32446397083053674,
      0.062351104869791,
      0.8765837858160929,
      0.16642631220502108,
      -1.9436348814249442,
      -0.5637940611656874,
      -0.42314508888573893,
      1.2104614320962812,
      -1.7016385618612846
    ],
    [
      -1.1042787668172316,
      -1.0462436947396563,
      1.0009832012746358,
      -0.22018535060458264,
      0.40386992147641754,
      -1.373193204892438,
      -0.8515779713707171,
      0.7617281423435276,
      -1.4186224443754982,
      -0.7199022531008037,
      -0.2778594684192218,
      0.25403654085467026,
      0.7817765920438149,
      0.4298538743112127,
      0.5739360316172841,
      -2.2747102788054168,
      0.10590143238207043,
      -0.3451339953961452,
      0.9544859437807238,
      -1.5841079498565953,
      -1.251370690013448,
      0.7232267976398004,
      -0.7180363909450382,
      0.6923917661473603,
      -0.777743932464453,
      -1.1868357410866595,
      0.252256449108471,
      -1.685063878515321,
      -0.6106511294280983,
      0.11073044182671289,
      -0.2698343330715678,
      0.07504761123196642
    ],
    [
      -2.538193426030472,
      -0.46824830220761465,
      -0.668341924625946,
      -0.8537141240275135,
      0.19970438860909254,
      -0.4626411603148808,
      -0.1499302111326186,
      -0.27733522483753803,
      -0.053728549455033754,
      0.15383231728180366,
      -0.8129302706999969,
      -0.818264267889133,
      -0.133824875264117,
      1.2530149523770961,
      0.47661871357808977,
      -3.5488914929223583,
      -0.2575179398699461,
      -0.7369192728296037,
      -0.16636433829741068,
      0.07358751278786149,
      -0.4160818300323035,
      0.2709986462860327,
      -0.4633000956142675,
      -0.3610773034944003,
      0.9476266957802925,
      -1.0732348307577577,
      -0.7981968916273198,
      0.24155767312164417,
      0.6367983744568282,
      0.14461870599799637,
      0.3576071341819663,
      1.0382893192575593
    ],
    [
      -0.27554088304373864,
      0.09487298389561878,
      -0.17184241494928096,
      1.6534860020551636,
      -0.41317447909726535,
      0.5981142107092802,
      -0.4112552298966666,
      1.7267459842614061,
      1.2309738396726202,
      -1.8893060910242312,
      1.6225757418968245,
      0.9052514529964113,
      1.091127218507659,
      0.5931215515013377,
      0.15766141584857032,
      0.8686599304903676,
      0.2409867261674079,
      -0.04742795439586914,
      -0.28018323163835773,
      1.1161961661777093,
      -0.40765349188310396,
      -1.2862614484780037,
      0.3231032650944996,
      -1.548946211590117,
      1.7632013598370713,
      2.26970737716855,
      -0.7459146524730629,
      -1.3538035372066863,
      0.3940745924368601,
      0.6031776584306887,
      0.7860481500329969,
      0.45184860402078564
    ],
    [
      -1.4449985880908915,
      0.2135486494935792,
      -1.1141522418917695,
      0.8454470616234375,
      -0.9761837572063636,
      1.217201819754467,
      -0.08625182335856561,
      0.44378229324604707,
      0.793564771796755,
      -1.3700996817946374,
      -1.2001215041027467,
      -1.4225356073660458,
      0.4130189537199007,
      1.1470744980504262,
      -1.91979771728644,
      -1.190241882835957,
      0.7608088262009532,
      -0.7895333214480649,
      0.9897099914077334,
      0.7320820690972314,
      0.7807335769655978,
      0.8700545759647305,
      0.349203976026806,
      -0.45879228501797814,
      0.6339335976564827,
      -1.2165330409405324,
      0.06744645728740914,
      0.38886624632842093,
      -1.5912215644471708,
      3.09484755103992,
      0.5299818307775316,
      -2.2935567059166257
    ],
    [
      2.2531185584129925,
      -0.9439674764356459,
      2.744436529262349,
      -1.1103078825068569,
      -1.187734177885108,
      -0.3208957365235994,
      0.18418000019790468,
      0.39563009418070116,
      0.165909304842341,
      0.3947383581249763,
      -0.1187085110700513,
      -0.08921102447417609,
      0.9798476315423703,
      -1.140445843842347,
      -0.6204202929550852,
      -2.274826125573574,
      0.09823454441684691,
      0.7628315679462233,
      -1.8134089235944117,
      0.9570352934511477,
      0.7464452267585739,
      0.7913670033411865,
      -0.5654978054629339,
      1.6387315656997892,
      -1.1368800896258653,
      0.5454676156657812,
      2.1957341385898776,
      1.4026672905429727,
      0.5049454151092679,
      0.3392568864885349,
      -0.9444808752507753,
      -0.4617568680720589
    ],
    [
      0.7897491654282922,
      -0.09173795357231511,
      0.03911536901545536,
      0.034190170011926764,
      -1.4023382674567275,
      -0.555732046033405,
      2.0476937319244746,
      1.6737675181001932,
      0.9006419884677163,
      0.611734088414025,
      0.057578021740644234,
      -0.5999380137274268,
      -0.9445122728337616,
      0.5572387157831286,
      -0.7764121562271572,
      0.33649641529585606,
      -0.04014168520471422,
      0.4196211361228231,
      -0.8126217938004772,
      0.26739956259417785,
      -0.7863212987395582,
      2.1889630950752115,
      -0.07316092934183169,
      0.17624936952753778,
      -1.0664708286694198,
      -0.3486897085485222,
      -0.22429120308290257,
      -0.7017201808036496,
      0.5361058414474051,
      -0.9721108283932374,
      0.12536901581515877,
      -0.9060666117043982
    ],
    [
      -0.00794909326188096,
      -0.8205827718664406,
      1.0349656980675275,
      1.5812730085657756,
      0.6268232934509537,
      2.3204868543787174,
      0.13745834387840547,
      0.3622755572392649,
      0.3317160210422704,
      1.5309317171884604,
      3.2887577416644342,
      -0.3247104206959922,
      -0.8687000906847164,
      1.7928075602310476,
      -0.34234505851500113,
      -0.01735212166120562,
      0.11056548113465046,
      -0.8141497533728265,
      -0.8859057288649976,
      0.09294608291916127,
      -1.5931058558012192,
      1.4240285090229559,
      0.8233949063388016,
      0.25328140859492027,
      -1.5235673940263674,
      -1.9817043739733275,
      0.68861326038874,
      -0.6735006970807574,
      -1.0828097660224945,
      0.015173300057194982,
      -0.6775638402322228,
      -0.3021672827206276
    ],
    [
      -0.15697113002418964,
      0.023358934674989416,
      0.9980635560565551,
      0.2350544466640953,
      -2.6201814848772913,
      -0.20119161996415608,
      -0.7689798878483158,
      -0.6364980346320794,
      -0.31013716727069107,
      -0.2782592999467403,
      1.2448048475777058,
      0.1805534933285837,
      -0.8796948426909482,
      0.13644690656943068,
      2.3794412264638978,
      -0.04733433503034683,
      -1.5989496547950781,
      -1.4648586764128768,
      0.3892216785643164,
      1.391812859088932,
      -0.36728937955280755,
      0.1455223994789054,
      -0.42338404152941705,
      -0.3564608213852263,
      -0.6294008301530033,
      0.8384139801587991,
      -0.915865404008752,
      -0.9076193199478206,
      1.4741434459212308,
      0.0017187404398116622,
      -0.6921378060503394,
      -1.8363202824770135
    ],
    [
      -0.1921316682112338,
      -1.574062260778408,
      -0.15616313557837017,
      -2.659650075309174,
      0.007599778275441528,
      -1.0447739323851475,
      1.0388309514395213,
      0.28628347341399,
      0.03796035257072495,
      2.489378930272067,
      0.8770862997031437,
      0.2998589575041284,
      1.0778563495182567,
      -0.06927019569971399,
      -0.7766067628486949,
      -0.284832668816898,
      0.7858054986428415,
      -1.196326663140167,
      0.16416943879746765,
      0.8845210327975743,
      -1.1096573791580289,
      1.0290176883910105,
      1.0584331066816939,
      0.699033669450973,
      -0.7770359187993722,
      0.8893236201091625,
      1.0666157515032335,
      1.1795172287763085,
      0.06794548807806897,
      0.9890636305690361,
      -1.6368796118747249,
      0.5088666885253783
    ],
    [
      0.6933853674173168,
      -0.02902162656043829,
      -0.5035181506323804,
      0.87785931068244,
      0.8456670852997795,
      -1.712704551483494,
      0.5555554271425336,
      -0.013468607215315133,
      1.482276291212148,
      1.0852535942493153,
      0.26951618806241806,
      0.43451344344135523,
      1.0994496203310085,
      -0.4821066568381281,
      1.2757667952980125,
      -0.29060393048408273,
      -1.5687565859864487,
      -0.06216570461461318,
      0.4034723408317301,
      -0.13182863688766783,
      0.01146421137226652,
      0.16595356738020922,
      -2.078289782474536,
      0.02994372660958002,
      0.9939117920419943,
      -0.11535693278930884,
      0.07452201637719331,
      -1.2935405566189864,
      -0.2081988291852756,
      -1.1273917379494003,
      0.4845835452098626,
      1.7155997310797468
    ],
    [
      -2.0617214967872233,
      2.0770940874285997,
      -1.3940947630079858,
      1.0262683554810135,
      0.10253932959217264,
      -0.4706834183622995,
      0.9272930501176732,
      -1.4785758991574072,
      0.5201708670773404,
      -0.3092334621018833,
      -0.07319442090197574,
      0.6221223231384654,
      0.7073290971593192,
      0.31213389644027356,
      -0.2404631502400876,
      1.2362693965894531,
      -0.9369794027631972,
      -1.4812300168828447,
      1.099129066646409,
      0.5322097728298189,
      0.12710809672178938,
      0.8719269499704219,
      1.869430566972317,
      1.3773951967981215,
      0.03775941291096749,
      -0.37128883897497394,
      0.026444585042309916,
      -0.44119032414855563,
      -1.7965070089137944,
      1.3760350625980655,
      -0.22202941519951683,
      -1.9736022666953403
    ],
    [
      1.3286879835800625,
      -0.8258451959145321,
      0.2917310884824298,
      0.6285708583758733,
      1.73788277392336,
      0.6689762292722562,
      -1.4479661508115331,
      1.2534961044724353,
      0.2461478564531452,
      -0.9977285227183982,
      -1.2509257610672657,
      -0.17271577536728924,
      -0.8434905495106738,
      0.9355977272443563,
      -0.8999129152142974,
      1.2619859311783148,
      1.2109457153827132,
      0.2978085430983309,
      0.03113754179844651,
      -1.2087793738165111,
      0.3271511066681851,
      -0.7810602525696707,
      -0.31499314124210676,
      0.15026186761244764,
      0.9891558597183945,
      -1.0247799152499275,
      1.0534115481009911,
      1.0258200198315284,
      -1.7495876969686042,
      -0.29619747819339864,
      -0.7915730821824399,
      0.8780457090436836
    ],
    [
      -0.6937283797985548,
      1.0542611555093917,
      -1.7845742046730775,
      1.840553028498454,
      0.0874793981158764,
      0.30444689840716993,
      -0.4224461859663,
      -0.5592772838467323,
      0.3905417225318116,
      2.0040775350327995,
      0.2635235134162199,
      0.032866334855959224,
      -0.6233334428153866,
      -0.9240598684466128,
      1.0343100479509746,
      -0.04729236353224973,
      -0.6095370482478979,
      1.9249419106729013,
      0.27716876800375134,
      -0.2929347369643912,
      0.3117852970336998,
      -0.837706450872589,
      1.1629921898907365,
      -0.22112531165554875,
      1.1481687437553747,
      -0.47465084369966565,
      0.17696082637976734,
      -0.6821595773738156,
      -1.3330130017852784,
      -0.06582333157062964,
      -1.031964273052008,
      -0.7995343665103554
    ],
    [
      0.8730299894308355,
      -0.03325988656850508,
      2.0193670082224386,
      -0.13128811929104198,
      0.1325732980117469,
      -0.5291977037970163,
      -0.9534879900961157,
      -0.25517878906536334,
      0.5330409336634854,
      0.9829393806929789,
      0.12682277331528577,
      0.21522913450709008,
      0.9425557783967836,
      0.7328763560983114,
      -0.3182558257577527,
      -0.7111630811871705,
      1.3761499559400943,
      0.5828540826606813,
      0.19848691737451987,
      -1.3326947476416913,
      0.10998990342123055,
      0.6324468446915504,
      0.44611556068275743,
      -0.2500685538178721,
      0.0940907928836068,
      -0.2704465870306994,
      0.2656058978006397,
      -0.8356331823761508,
      -0.7286212482518554,
      0.06144108199435446,
      -0.24440726759276796,
      0.025614092188120656
    ],
    [
      -0.11790496859596758,
      -0.3950993991205864,
      -1.6553458707501605,
      1.2080859177331513,
      0.6475988154605137,
      -0.7075783126334556,
      2.211343721503256,
      -0.12218755127351204,
      2.556310743325919,
      0.19159254790465352,
      0.6657331564126414,
      0.6433147304745066,
      -1.8875499230526918,
      0.10294667584493312,
      -0.8280967487753395,
      0.3699406890486731,
      -1.3972103423237294,
      -0.41769225347480826,
      0.3254744305018803,
      1.3221020393761627,
      -0.880227222362603,
      -1.2101112597515695,
      -1.0700314776480133,
      -0.5262832861886859,
      0.13449602559558058,
      -0.06684806031700843,
      -0.05940044894024283,
      0.585607549264124,
      0.8847331560234049,
      -1.3957288765858211,
      -0.3320030046468244,
      -1.374201814978597
    ],
    [
      -0.18324466428300556,
      1.4061554436484263,
      -0.054195405627199066,
      1.4761463339480518,
      0.04837474479390102,
      0.9653387221973175,
      1.8283465671657368,
      -0.9253113991057457,
      -0.6089630960893396,
      0.3425361892834031,
      1.21065047447373,
      -0.7255141063790135,
      0.9299165644759125,
      -0.4863926875781919,
      -1.2312697044074405,
      -0.3078691805432574,
      -0.9276796812153222,
      0.45383146881301406,
      -0.7197599367678766,
      -1.2932533538627071,
      1.5007590014089784,
      -0.37163896668535495,
      -0.4873632085926293,
      -1.3956628541331453,
      -0.3220365282287966,
      0.17683067203494057,
      -0.7100669000708204,
      1.597946853274675,
      -1.3702848000771575,
      -0.721651475029692,
      1.609255020571274,
      0.46174754613097396
    ],
    [
      -0.9335586468344076,
      0.4162262665031695,
      1.3670865489384723,
      0.11831769517537623,
      0.9688137393745967,
      -0.06336955778664312,
      0.39665584215174665,
      -0.24813008308309736,
      -1.0666006718399215,
      0.9096253256535486,
      -0.050000398534420905,
      0.4585396651419977,
      -2.5176786397549065,
      0.012707377369958235,
      -0.3163668683687637,
      -0.12013672188872164,
      -0.4206869043241652,
      -0.756411483300701,
      -0.4577226156250762,
      0.6188490001193888,
      1.9296018098024015,
      0.8546457486414039,
      0.13246179981742046,
      -0.6267692531167434,
      -1.5273489207967414,
      -0.5796201749411015,
      1.5376015336013586,
      -1.8447348356194286,
      -1.0576626553555215,
      -0.6577341931669035,
      -0.38598500157030924,
      -0.5221945621725982
    ],
    [
      -0.7666060328320519,
      -0.48862823595736776,
      1.1052546602777564,
      0.40558787904473187,
      -0.5532816624885898,
      1.9255072171666274,
      -0.14542508991730593,
      -0.348863718090687,
      -0.5754237865413627,
      0.783315959686162,
      -0.08400004120538439,
      -1.703892236853799,
      1.2682317186213274,
      0.6382620200709632,
      0.0909507684154079,
      -0.24177896557874543,
      0.9579013210051684,
      0.465512515673725,
      -0.6632380308288488,
      1.9744663184634113,
      0.4525039798720457,
      0.15673520032538701,
      -0.8420119652283624,
      0.21052547342919464,
      -0.792121150001146,
      -0.8814133440837558,
      -0.012727503028860433,
      1.7227960150224073,
      -1.2905088967246043,
      0.3704178820583668,
      -1.069618967921978,
      1.995506344877019
    ],
    [
      0.6058364853615279,
      -0.7218899097721104,
      -0.7225741379454348,
      0.40952908275188304,
      -0.6577351498980764,
      0.12456553083791563,
      -1.5379191070415215,
      -0.047287158126260616,
      0.3196601189550625,
      -0.9488041693479804,
      0.03248416436661171,
      0.6278427662188778,
      1.478674784560152,
      -1.277722878152646,
      0.9757732574457003,
      -1.9051125804058742,
      -1.1293478002285304,
      -1.179842325446448,
      0.2042586549926587,
      0.42970028042838965,
      -1.767718569635269,
      0.5358271709026813,
      -0.45345941777336213,
      -1.3905070787522453,
      0.5074699122778557,
      -1.0647921264885072,
      -0.047052169445011484,
      0.1603282324802233,
      -1.4133650771592154,
      -0.015623992402222073,
      -1.0265612293583033,
      -2.058001799198954
    ],
    [
      0.4830439988038092,
      0.7144728526796306,
      1.1511627510655809,
      -0.2069642254116917,
      -2.407513833089866,
      -0.8061340447183752,
      -0.16330241599535217,
      -0.45062105106271544,
      -1.6520364962866643,
      0.8534548740301391,
      -1.5705117017665318,
      1.2518951154614977,
      -1.2631153960840151,
      1.5641913957421043,
      -0.26729393192093603,
      -0.7581719085444374,
      0.49676173636378557,
      -0.1331245189363947,
      1.102247668191761,
      -0.6806383312354956,
      -1.248541040983372,
      -0.35452967651100725,
      -1.3785548450904854,
      -0.3781607020180288,
      0.15947442345468968,
      -1.2226165313751371,
      -0.06104133076621411,
      0.4414954252370487,
      0.858379146589534,
      0.2065226949366748,
      1.0105727915688578,
      1.3690295164942905
    ],
    [
      -1.972025255154445,
      0.5254693663558099,
      0.9706686571160839,
      0.7122462850556718,
      -0.7943398580417289,
      0.3884039361663846,
      0.5820685820275123,
      -1.9552044696946187,
      -1.1371500863163413,
      -0.5100854871775052,
      -1.4475120775342707,
      0.295051940817632,
      -0.3938702531543287,
      0.2896588229051564,
      -1.1202579816650535,
      -0.9925356180253683,
      -0.9594905711630823,
      -0.028719644187403602,
      -0.9941373302205836,
      -1.1375936859386535,
      0.7686471255578748,
      0.4823322299413755,
      -0.5839920560624294,
      -0.812113932573782,
      -0.22576154721171587,
      1.0355879499927325,
      0.18242099732095976,
      -1.0987302455012669,
      -0.09205441708053251,
      -0.3829742822739857,
      -1.200741207112463,
      -1.4725615208197669
    ],
    [
      -0.5156451636465041,
      0.2072922623376126,
      -0.505632248683965,
      -0.2081030594107761,
      -0.038479383352059006,
      0.5971745660638252,
      0.5608183716146631,
      -0.057809858333869396,
      -0.053583242786685525,
      0.783590287774367,
      -1.6862167977698794,
      -0.754701023398119,
      -0.35632179575076856,
      -0.3571047623220396,
      1.5397051165901388,
      -1.0563925439539141,
      0.04173191663488813,
      0.766528657203354,
      1.4608085643810638,
      -1.5976186937975876,
      0.5451597748064178,
      0.6540019692939159,
      2.004067384508,
      0.11060441173649938,
      0.49621897381528846,
      -0.6685087996783315,
      0.30800769155632934,
      -0.01926275861710184,
      0.37199360286041716,
      0.5235554356421421,
      0.46743005778936997,
      1.5542199093372462
    ]
  ],
  "output_transform": [
    [
      1.9609368488270507,
      -0.46910113689585853,
      -0.37474893980576557,
      0.28324334599257267,
      -1.46387315684656,
      0.7445810650753496
    ],
    [
      -1.6357066953813693,
      0.7108562387997859,
      0.27851475769122525,
      0.26306632049525314,
      -0.48650309800076497,
      1.1562398373645004
    ],
    [
      0.11095067306127812,
      -0.5434598660114812,
      -0.5437474931631691,
      0.4930379542795126,
      -0.7213806701869185,
      1.0804203591121706
    ],
    [
      -0.7639157734334411,
      0.7599872957196275,
      -1.602485999920687,
      -1.1973700609153333,
      -0.0043603394593108805,
      -0.27271220373158084
    ],
    [
      -1.0343366510058556,
      -0.7191780096392812,
      -0.15345444244389442,
      -2.221918334111652,
      -0.1658000003277942,
      1.6312969394336692
    ],
    [
      -0.7503146859784362,
      -0.275149432065396,
      0.955186906334606,
      0.19329195240603927,
      0.9586644397913436,
      1.4849266954001459
    ],
    [
      -0.6296693213180481,
      0.8211264814983924,
      -0.611595516730046,
      -1.1214909104062496,
      -0.39496432347054883,
      -0.11743061742550202
    ],
    [
      -1.2410548656479123,
      -0.709146029121328,
      0.3274155477155575,
      -1.798583109556901,
      -0.09863439605746324,
      0.06668909557658899
    ],
    [
      0.16314333697022013,
      0.5399746268577467,
      0.09468213007385945,
      -2.7257532292634674,
      -1.9101147052083294,
      -2.324066599664945
    ],
    [
      0.04858654459237636,
      -0.5313229248699117,
      2.3000487967422845,
      0.09810456647658894,
      2.0385815400953557,
      -0.06263201639353998
    ],
    [
      0.18130689113297388,
      0.29484826014593374,
      -0.12760230631247438,
      -1.2045120410161636,
      0.7249455366593429,
      -0.7468029297083679
    ],
    [
      -0.3550608333165217,
      -1.0346333374457901,
      -0.5032337622782349,
      0.5090974439788832,
      0.4270590726637871,
      1.2354446447507847
    ],
    [
      -1.0450095004185245,
      -0.5760371930615681,
      1.1818753185132802,
      0.24249366118188825,
      -0.2682389588924399,
      -0.8029484925717875
    ],
    [
      2.3939328656259544,
      -1.4293391159998283,
      0.23340982351684686,
      -0.17174797776539072,
      0.0747308781962282,
      0.4236240026054751
    ],
    [
      -0.7982813051148104,
      -0.4262354728429654,
      0.6457750619146679,
      -0.7929352993133931,
      -0.8451349282373155,
      -0.7212797416175285
    ],
    [
      -0.5002886574922064,
      0.24726172109312977,
      0.6850847135153239,
      -0.16963054599835128,
      0.8626061817534127,
      1.962269713820961
    ],
    [
      2.2387121237563945,
      -0.2383228263309578,
      0.177276568265568,
      -0.9814400251780393,
      -0.11789280007019755,
      0.7671164785164605
    ],
    [
      -0.142208296590166,
      1.8997184045911257,
      0.7371136431577859,
      0.03240509572072003,
      2.496870929812485,
      1.5455523455470779
    ],
    [
      0.29572689836064897,
      -1.338594229982029,
      0.46348824555766505,
      0.6091084147160776,
      0.4922558588390113,
      -0.5950425621464907
    ],
    [
      0.5858349688971219,
      -0.3905288230619788,
      1.5177645009152563,
      1.1460116483110647,
      -0.16948510618323898,
      1.33960745975224
    ],
    [
      -1.1458313233091824,
      -0.907782882180655,
      0.027141429928736784,
      -1.1364325734539211,
      1.1680983361546275,
      -1.022975601400502
    ],
    [
      1.0987092804061487,
      0.10849477410357258,
      0.942422550384551,
      -1.184096034057846,
      1.3721767220208807,
      0.3725413230918719
    ],
    [
      -1.298323203607209,
      0.6520602634705019,
      -0.8858345165734633,
      1.3010877214234522,
      -1.8355071109167123,
      -0.17452465718152915
    ],
    [
      2.488949840531346,
      0.11111815660684479,
      -0.035685395478018384,
      0.27981061367432614,
      -0.949648729631627,
      1.3387735817553916
    ],
    [
      -0.2632413678358958,
      2.4723499182957647,
      -0.005531647474496841,
      -0.47816379656758967,
      0.17033744482678068,
      -0.20596505052491504
    ],
    [
      0.44197201363698685,
      -1.396660061358679,
      -1.6573478268520356,
      0.5871826451499599,
      -0.051515433901241296,
      2.459560669738881
    ],
    [
      0.8351253009874079,
      -1.1852535847719767,
      0.7711779389568563,
      0.730830543421955,
      -1.5627822599809018,
      -0.5297336146450876
    ],
    [
      -0.7836725692371614,
      -0.5097101447634155,
      -0.6989199645467693,
      0.41062049987305305,
      -1.7726137090135634,
      -0.0964142063999057
    ],
    [
      0.060375727353635736,
      0.2452443330747398,
      -0.41071072043890716,
      0.00756495085408487,
      -0.1484277342773258,
      0.46767111498020875
    ],
    [
      1.808238997871305,
      1.1141717683268715,
      0.08883432187977358,
      0.9218741807495301,
      1.647412950944226,
      2.748733540078567
    ],
    [
      -1.5138764005291137,
      0.3740584255986368,
      -0.5840094325355649,
      0.5733643543983103,
      0.680220661152827,
      -0.6724220535588472
    ],
    [
      1.1816689088182017,
      -0.26180312834097613,
      -0.787633349707654,
      -0.3143060006162756,
      0.3577792583461683,
      0.5828521840542202
    ]
  ],
  "bias": [
    0.7714106736227819,
    -1.2626215177441318,
    0.8231984805545122,
    0.6865058339279718,
    -0.36150818562656606,
    -1.7425913229663197
  ]
}