{
  "input_transform": [
    [
      -0.2532133403725335,
      -0.29611769525252346,
      0.22343316388847714,
      -1.3541681734150566,
      0.9692782529818011,
      0.5407618589022738,
      1.6758237259029127,
      -1.4743191185310662,
      0.4047969656835006,
      -1.6240330723007974,
      0.5755198023552973,
      0.12478510009983503,
      0.7221507333994605,
      0.1723607450098545,
      -0.142906883258916,
      0.5233119169049916,
      -0.678654942360465,
      1.7570550586068998,
      1.0004101668166703,
      -0.23921116425270844,
      0.7160360740657874,
      1.0561315635834314,
      0.5155936501304444,
      0.9281471451106491,
      -1.5443111871437007,
      1.0179169698172148,
      -1.6282998455828979,
      -0.36619725157663774,
      -0.6702916618529002,
      0.5531663775861541,
      0.1434373051669792,
      -1.0032527044133306
    ],
    [
      0.1855408473943509,
      0.18139579763786332,
      0.9904458127295452,
      0.2568975099159931,
      -0.4540428649381712,
      -1.2049098692115026,
      -0.04164161422631234,
      0.19068857185821114,
      1.0728137328234808,
      -0.8600020382277642,
      -0.20076691860747406,
      0.4956710663380913,
      0.814645706332914,
      -0.40658143718550693,
      0.8545192909971806,
      -1.8873136200650722,
      0.5118189136092428,
      0.06354747372399443,
      -0.8239596052060968,
      -1.4212912085964853,
      -0.13394104897433018,
      -0.7454660911143404,
      1.1822718847765392,
      -0.0017764878848824399,
      1.0434215033728083,
      0.4691912865319589,
      -0.2363033202573205,
      -0.3188702438223838,
      -0.5353462575632805,
      0.5029898521751738,
      0.041605730176601616,
      -0.34920747853203726
    ],
    [
      -1.867800049310684,
      0.62444827896067,
      -1.2817691003520237,
      1.3450830397990539,
      -1.6110571073558897,
      -0.8518796855600317,
      0.5886071124155254,
      0.17842817790765533,
      -0.2649624919979013,
      1.2328230797051392,
      -1.1154792967363067,
      0.9851982014958609,
      -1.4628124665474054,
      0.4415197329736532,
      -0.5507197155908233,
      -1.6338191672201934,
      0.033983671666525724,
      -0.9200289075034694,
      -2.306968744494845,
      0.5696470052494302,
      0.8154573001978636,
      0.05919947003201529,
      0.5224694225620645,
      -0.5587596875400552,
      -0.4493433362988376,
      1.223420550443805,
      1.8238382629448349,
      0.5099883318472384,
      -0.5005073513714714,
      -1.0383984300527598,
      2.291380744669775,
      -0.07447525907896407
    ],
    [
      -0.037808746808813166,
      0.4724422343343392,
      -1.8740797255956567,
      1.2431218319383759,
      2.983137511352827,
      1.2910020951052146,
      0.6043402991695617,
      -0.3915252227022715,
      -0.14565929052399446,
      0.8127280477188283,
      -0.4244534576053952,
      -0.6970494928956773,
      1.7770002541767274,
      -0.35076053653910294,
      0.017723004315359944,
      -1.2292652930905172,
      0.7783459045005281,
      -1.7662635684650192,
      0.3669546849895509,
      0.12493944336148582,
      0.5368620227329375,
      -0.33619193917555873,
      -1.5257824371051687,
      0.155636478578697,
      0.10025705417486311,
      -0.2575437317922912,
      -0.050999741377857406,
      -2.1186284352607805,
      -0.014418676290946276,
      1.3332998749080611,
      1.1658758217912104,
      1.292011620666431
    ],
    [
      0.1812233327659209,
      -0.7233245963197559,
      -0.4511859792311688,
      2.0332727464723455,
      -0.6225308433606278,
      0.5243857802721018,
      1.6309346343996525,
      -0.18996692440143959,
      0.03260459088756028,
      0.3270707381431209,
      -0.13882468598138958,
      0.15013184175411895,
      1.553393418191134,
      0.505382500021115,
      -0.06314522730946605,
      -1.2216463414546985,
      0.8686098716206253,
      0.43032495712775926,
      -0.8571404594112934,
      1.5491804757302752,
      -0.20132344299118576,
      0.3894051966889414,
      1.2375375141983749,
      -0.611569136322238,
      -0.30151317942921,
      0.06950063549650454,
      0.727695168667451,
      -1.1241308352520158,
      0.8842786011797242,
      0.18291355054941288,
      1.6807758159240345,
      0.7536334925269323
    ],
    [
      0.5361969888860525,
      0.1485657131081425,
      0.6053955042956433,
      -1.2087043090461016,
      -2.8798133745555785,
      -0.44200824679905837,
      -0.40510057427263263,
      -2.032904227438455,
      -0.5494755737157594,
      0.3969224168499172,
      1.984542102710947,
      -3.17517409979977,
      1.189594283566966,
      1.3325234484825734,
      -0.1710860974093294,
      2.327809370371245,
      0.6148236578057023,
      -0.7195915207611204,
      -0.29853574923255854,
      -0.3731161557409453,
      -0.6666942237178318,
      -1.3236780434010438,
      1.8011512586084568,
      0.6700012077811249,
      -1.6997982255627209,
      1.3993223003860766,
      -0.5276293437323399,
      0.6447042387972365,
      0.2496555161319486,
      -1.2309204677771923,
      1.9835993306627935,
      0.26729912347593526
    ],
    [
      -1.3177546486303156,
      0.7172659276167644,
      1.0683263141638153,
      2.4956402114698606,
      0.9987394036874713,
      -0.6504269075664708,
      0.5228267324790367,
      -1.3867167629373083,
      0.55507539060178,
      -0.24495433039409278,
      -0.10618777726479173,
      -1.159611112686476,
      2.491545687117285,
      0.6851367330095628,
      -0.611094627671792,
      -1.1577026439568472,
      0.09688989652557409,
      2.28133027191186,
      -1.67693318120704,
      -0.523739273362251,
      -1.5399130709169468,
      -0.01905280679153818,
      -0.3719559246791817,
      -0.3543717603630155,
      -1.2947434905686581,
      0.41550222296375783,
      0.6459470684150136,
      2.1317458986795677,
      -0.16312528253372655,
      -0.9069328801021073,
      -0.7627699595230997,
      -0.5624311117030417
    ],
    [
      -0.10451371368680432,
      -0.5361876294078665,
      0.11374626048408282,
      0.6947930150550606,
      0.3194329979996559,
      0.0616783212389447,
      0.4457111064450536,
      -0.2807758089203151,
      -1.0521480960635339,
      0.14996858852260012,
      -1.1433401317330176,
      0.2484900195718446,
      -0.6410187908363842,
      -1.1411353614466027,
      -0.023586443638379848,
      -0.74755502898979,
      0.6170283104544916,
      -0.6514937649992242,
      1.073239876823862,
      0.8388368645221583,
      0.45022664602164747,
      0.2617580456866545,
      -0.00840433657144084,
      0.2576542156618396,
      0.8635977217631985,
      -0.2452710999752205,
      0.7556757594089233,
      0.3531523504837944,
      0.07412494269839309,
      0.6217699119568573,
      -0.05790670437214979,
      -0.7000484813757752
    ],
    [
      1.6381283279572276,
      -0.0864552966853029,
      -0.33393164737612147,
      0.4204410484966229,
      -0.3776452017696445,
      -1.9533609928247795,
      0.6377439731493455,
      -0.1773558647830635,
      0.6384134708722458,
      1.3852370475300475,
      -0.47788308458023315,
      1.0218941365203094,
      1.9068835576955399,
      0.9391108027514699,
      -0.22068726896396615,
      -1.5283021837340391,
      -0.2511021380278544,
      0.8547175146043365,
      -0.17879042727686223,
      1.6134091358822495,
      0.9821521558536809,
      0.6127827559851555,
      -0.382483956972056,
      -1.1113499060329868,
      1.441044327943935,
      -1.7309664642057818,
      -0.19948194385987023,
      -0.4332835821470507,
      1.901049668902304,
      -0.04524265158005954,
      -0.1216304045302881,
      0.5245852484967201
    ]
  ],
  "hidden_weights": [
    [
      1.0793672459329082,
      -2.3671536799513895,
      -1.1968162730236864,
      0.5359723834161152,
      -0.23032527911127573,
      1.2246271653272107,
      -0.6124125263254357,
      -0.2778414096241067,
      1.1296392787698475,
      -0.14133419794092583,
      0.016835717162940123,
      -0.4510125161101933,
      -0.45480822022834866,
      1.2080479539808116,
      -1.2766854255105788,
      -1.130366808481957,
      -0.42185955359663163,
      -0.17662098429630985,
      0.5629069446548977,
      -0.9274353581752958,
      0.726939061273691,
      -1.1063882353026635,
      -0.05574627528800928,
      -1.3979861337661432,
      0.7798617665037978,
      -0.22185132359520782,
      0.27665896008258406,
      0.13343730257520345,
      -1.0053019832659114,
      -0.4393489500994819,
      -0.45415005604969,
      -0.13237836077421075
    ],
    [
      0.1464523250135215,
      0.5231946512277394,
      -1.324279483294231,
      0.6589390775208787,
      1.8994364798235344,
      -0.3005818711709027,
      -1.145031182438795,
      -2.1683028716726027,
      1.05834747180666,
      1.2092311946979615,
      -0.06329257517295829,
      1.0898680656813358,
      -1.159901959026198,
      1.487613104242428,
      -0.0970268688710101,
      -1.2751023023737404,
      -0.4223338353150633,
      1.4744489372947447,
      0.6680839112471689,
      0.8158025571295151,
      0.47893857212289487,
      1.5835207583809527,
      -1.6903366444925756,
      1.1588883670910297,
      -0.5906713988778629,
      -0.13489080903164227,
      0.6684734359673488,
      -1.1041487351384327,
      -1.827912702132742,
      -0.6367965202133785,
      -0.8526230868745442,
      1.3364194294868688
    ],
    [
      1.816576037274692,
      -1.437178440098285,
      1.4927634336258429,
      1.5094265382642422,
      -0.5040644884440714,
      -0.13224432239273207,
      -1.1476174403728283,
      -1.885142963143557,
      -1.0710332200976531,
      2.0841295635848405,
      -0.7999393488073353,
      0.33429810010999006,
      0.1556877857644289,
      -2.065341092493422,
      0.4940506263920112,
      1.5920959414169031,
      -1.071271034002271,
      1.380539035575639,
      -0.015078525195864539,
      -1.1880272406777972,
      1.2070007958094806,
      -0.3873181208504147,
      -0.7204577225883394,
      0.6082509961156901,
      -1.61769300995634,
      0.5240256521455824,
      -0.3156240878593673,
      -1.1885318330330883,
      -1.0899033748389875,
      -0.7557576201377383,
      0.8752324739272715,
      0.416898790210149
    ],
    [
      0.8241999482788552,
      -1.012338573518133,
      1.1478081829957314,
      -0.35817348612430894,
      1.1741846931708422,
      -0.2673454872293725,
      -1.3036295119677839,
      1.1411307213574728,
      -0.16457542487756302,
      0.02493367254128626,
      -1.8118561976458316,
      1.4428552716259548,
      -0.9469918145657992,
      1.9649258831260827,
      -0.5155032421070065,
      0.49547582916061644,
      2.177762266898423,
      0.15166740939279363,
      -0.49018648370897716,
      1.228096715457047,
      -1.832568838029591,
      -0.4549575926870245,
      0.4765810243089865,
      1.534891876372522,
      0.01883984667995038,
      1.820723573374006,
      0.3001587705536837,
      -0.8668699550541618,
      0.5677813270069448,
      -1.0395220246107524,
      -2.3511453348735976,
      0.31319235196774536
    ],
    [
      -0.15550849792376084,
      0.408058962314747,
      -0.14787361645200306,
      0.4725039410008392,
      -1.0670346624425464,
      0.9245454819916117,
      0.030271763018268515,
      0.10388585097302278,
      -0.6403205018648918,
      -0.22809234823259303,
      0.0812973316349181,
      -1.2453480240845962,
      0.6619807253000256,
      -1.1060783312141627,
      0.7053566981797654,
      0.5964708574539367,
      -1.8324954870099146,
      -1.733082340887943,
      0.08421247543171288,
      1.103002612208515,
      2.0201188839963393,
      -0.25662837995644755,
      -0.3646453628707451,
      0.29251105497176794,
      -2.0818298852754062,
      -0.15860181681143717,
      1.4888178450315832,
      0.645904022946893,
      -1.0036549085656052,
      -0.018469337405377345,
      -0.4154088180513596,
      0.6463905372243458
    ],
    [
      1.3956075397733707,
      0.4401777116126051,
      -1.0196231154516873,
      0.6984884600886416,
      -0.8438188653980762,
      -0.3555361649351615,
      0.8711380654740974,
      -1.501628403973402,
      1.1515520046364753,
      -1.2132256734038331,
      -0.18560633153677206,
      2.0465728404436545,
      -0.25136727046079427,
      -2.435932015410835,
      0.6563181005411411,
      -0.8241999765893321,
      -0.06890873512185382,
      -1.5257489966393172,
      2.5663054289322855,
      -0.19006180827861419,
      1.8562961762122414,
      -0.5356523600653095,
      -0.9930502166051476,
      -0.08963276230064043,
      -0.669079705821299,
      0.25671871038491817,
      1.368605923925726,
      -0.22351202883786084,
      0.4008197700921725,
      -0.6984292377356324,
      0.463238771908736,
      -0.6157968785213391
    ],
    [
      0.06256269054163068,
      -0.9747787846947025,
      1.0335012672174442,
      0.2907912327887202,
      -0.19037446642312933,
      -1.0366102798890815,
      -0.04209032622045917,
      0.3001228871306024,
      -0.18145599891599581,
      0.2752208828639486,
      0.2526177839133865,
      0.917147105907659,
      -0.6639939037859329,
      -1.785632914155564,
      0.5400842651016828,
      0.7949475891585831,
      1.3708588591591233,
      -0.3778666897576312,
      0.3227771473985423,
      -1.6191693283375996,
      -0.22671290748281883,
      0.4882455498138188,
      -1.5340443610105694,
      -3.165742944563034,
      0.6169933714316683,
      1.6354624420946893,
      0.9131828894754823,
      -1.6559091025629982,
      0.3067084407236959,
      0.1514696181581248,
      -0.8664165160156694,
      -1.9222399193341833
    ],
    [
      0.2945134065626356,
      -0.51293322809507,
      0.8671628324707632,
      -0.11507146559622579,
      -1.6692384592333576,
      -0.5740691646867617,
      -0.2842461848946445,
      1.0707871348143774,
      -1.0307419861711202,
      1.6299321997580336,
      -0.5566387816680178,
      -1.2939260288883925,
      -1.1787235959432631,
      -0.35030876122585325,
      -1.1778921802752667,
      0.3889267598709529,
      -0.045537814674510686,
      0.7557104293807476,
      -0.6003604188023868,
      1.3589429526461732,
      -0.10073717668915606,
      0.0019745450734030465,
      -0.517304077392776,
      0.24681023221545387,
      -0.3020928810541387,
      -1.652241085720165,
      -0.9333642446818248,
      0.5826385295016528,
      -0.710475802956088,
      -1.5744030774536761,
      0.2575974868828744,
      -1.1737598747894202
    ],
    [
      -0.14049634191477672,
      -0.6126306239155964,
      -0.44818005870530936,
      -1.4592728575903795,
      0.348598084263131,
      -0.34121277527974836,
      -1.2618499945136215,
      -0.39044559051826716,
      0.03851582031412717,
      -0.7310051653022336,
      0.44353408987104154,
      1.1088478452108086,
      0.559212030652195,
      -0.5323273569701986,
      0.24283342153954268,
      0.7658705349156132,
      -0.5555449773698248,
      0.8676007464867556,
      3.609339479342311,
      1.3894887792496045,
      -0.32263476965747223,
      1.0287903784130148,
      -0.3699443535141395,
      -0.4717302180320604,
      -0.8330985340149358,
      -0.09590092099082272,
      -0.8702971202373275,
      0.5493063401054986,
      -0.5783898469564825,
      1.1565235353544605,
      -0.9388207462330656,
      -0.7627848835964472
    ],
    [
      0.24434134230384738,
      -0.22907517248517764,
      1.4149137409368124,
      -0.13417644089483086,
      1.0206810556648123,
      -1.0746046358388004,
      -0.2854496254999378,
      0.9200995762730217,
      -1.2136578551522839,
      -0.10753737462690321,
      1.028413137475623,
      0.1614890584829522,
      -0.4651941708497166,
      0.9141771125327562,
      0.06690776604057887,
      0.6131477858681115,
      2.1010836816590306,
      -0.30403015829244134,
      -0.8732648213575496,
      -1.299081199441209,
      0.0014775064164876956,
      -0.04966093529307668,
      -0.475869895245562,
      -1.2976890964474197,
      -0.06651903185880495,
      -1.2060020571639452,
      0.0666071551292876,
      0.7052558317824599,
      -0.046944446583273534,
      -0.10952327801904624,
      0.863863102203333,
      0.17175171140604767
    ],
    [
      0.9679132195216263,
      -1.0651077284982884,
      -0.2684810201209995,
      -0.5077801887835239,
      0.9479916787451187,
      2.154833731397679,
      0.9260289184278911,
      1.8205045391225105,
      1.1106684166553802,
      0.26272991765943393,
      -2.0441340821402716,
      0.8588274556511821,
      -0.5064728549577622,
      0.4751819558981846,
      -0.049942421918200156,
      0.02840604504530784,
      0.4325481554572198,
      -0.5399503587352303,
      0.7477713713846605,
      -0.701769925306874,
      2.4446740777833207,
      -0.12811149975237915,
      0.15901555276491694,
      -0.7909954392381622,
      -1.4749577499812174,
      -0.13098069996631298,
      -1.7332204440219539,
      0.11063655747154526,
      -0.07879212394598532,
      0.7891261382894502,
      -0.845302051503926,
      -0.3014804188487746
    ],
    [
      0.5232704777396645,
      -0.6809147788387123,
      1.0701157016729563,
      0.4476278261257821,
      -0.0757244070134107,
      -0.791014599005723,
      0.6453323331909919,
      -1.5735742182354382,
      1.2999792220137774,
      -1.1905318592649319,
      0.052646833637583594,
      2.457324486152455,
      -0.12196422151991301,
      0.8833473420004591,
      -1.6481760146971642,
      0.00012517034950079457,
      0.40944616369431164,
      -0.7102224419381871,
      -0.6314451021980371,
      -0.3180321382735663,
      -0.9603595816582973,
      0.011911449242200492,
      0.7361003617883597,
      -0.9394423148650936,
      0.3819063117343436,
      0.42453113002174175,
      -0.6014950062063534,
      0.5276231464105873,
      -0.9130702947308205,
      -1.8171820212355752,
      -1.577419770262738,
      0.1992296772434296
    ],
    [
      0.3140985019018395,
      0.5463439894044132,
      1.5112108589491189,
      0.4255859138261929,
      -2.1207513268747706,
      0.42977402368598805,
      0.025008338217049692,
      -0.5707212482232041,
      1.9900983307816638,
      -1.135980074749454,
      -0.6549000720530987,
      -0.1633865398473669,
      0.13211707045315765,
      0.21094751436788894,
      -0.06962778450937093,
      -1.7336739438490405,
      0.7093812222749916,
      -0.24376604710044833,
      -0.28640741151079235,
      0.9119794620912126,
      -0.8722229714418607,
      -0.32145876416516533,
      1.2754085642074628,
      0.7072917533970442,
      -0.020304319134513422,
      -1.3664484403545871,
      -1.0999993256277596,
      -0.6504988295517643,
      0.6215727611803219,
      -1.1784467075332565,
      0.5677345668726913,
      -0.45789006080907985
    ],
    [
      0.013452647743014851,
      0.6860791032506429,
      -1.5162693949659416,
      0.16002784347954924,
      -0.5407095328617115,
      -0.04785583900653134,
      -1.0337316495813247,
      -0.14767621440851225,
      0.34124172991194274,
      0.6323889325277559,
      -0.689977563076361,
      -0.46813687068442006,
      0.07746240229264696,
      -0.6690019006426959,
      0.8919401320383213,
      -0.042003868603572164,
      -1.1118854756380898,
      -0.023580679125998708,
      -1.0192803200255218,
      0.8027849274834623,
      -0.3588024924115963,
      0.3539487708512352,
      -1.3194467718530987,
      -1.0460608256598953,
      -0.46855097278909613,
      -1.9607627390351197,
      0.5434095484937914,
      -0.9029280422105418,
      0.07217463883988266,
      -0.7609809201764749,
      -0.21670100405525916,
      -1.7585117889060744
    ],
    [
      1.7279169054580783,
      0.022135876752085205,
      0.3796996528495109,
      1.220549246840663,
      0.10981160451264343,
      -0.017985556140389818,
      -0.01806197705025731,
      0.5369875075553611,
      1.431363374182044,
      1.1489558392654968,
      0.8783127446995719,
      -0.1958339791932531,
      -0.924407736186309,
      -0.9400562176251304,
      2.1540692072623595,
      0.9256833128109687,
      -1.022586950902307,
      0.9766200018504938,
      -1.1667883204501877,
      2.513231545176789,
      0.5693246024400969,
      -0.6353396254574915,
      1.0413982579492436,
      -0.1428967478487145,
      1.136292250138727,
      0.0412513401722778,
      0.14752376674229348,
      0.18033024079075613,
      -0.8674516351978543,
      -1.2329387070472266,
      -0.29644950153903266,
      -0.6564384482117144
    ],
    [
      0.7530180209964139,
      -0.808956403933654,
      0.5589411336373559,
      -1.1284577520990071,
      -0.2300297100186907,
      1.0079920679954875,
      -0.22450611506935847,
      0.7058909563235864,
      0.34475733835015304,
      1.0239216271342275,
      -0.11921899615250692,
      -0.8828296140016493,
      -0.21030128082478955,
      -0.22481323320076346,
      0.5807006197068701,
      0.30684045572885216,
      0.0471171248447119,
      -0.40899165351018996,
      -1.1600152113575437,
      -1.5845406454459618,
      0.17767302089113798,
      0.3102083663051116,
      1.3630631967100706,
      1.017731928404393,
      -1.8864900364089687,
      -2.287772254239544,
      0.6281936069913925,
      -1.7622371979577145,
      -1.4478503365166067,
      0.014069398949194034,
      -0.3049746455354758,
      -0.8776324388783419
    ],
    [
      2.146336330014773,
      -0.36486488494374136,
      0.16459593768736852,
      0.39494441518344114,
      1.3021764154035018,
      -0.38833241169005617,
      -0.38073591509727495,
      1.5632702690760207,
      -0.41673730943947523,
      -0.3856733571427143,
      -1.8327952316255949,
      0.7554963595702137,
      0.5335192292994955,
      -1.2694089909111184,
      2.014110959841289,
      -0.5552524767701722,
      0.4052569393645194,
      0.1487376915670753,
      0.526666685477935,
      0.031760749969872645,
      0.2865064389116623,
      0.44922870619483185,
      0.18066995455410664,
      0.33359704851476024,
      0.4286062068852701,
      -0.6001374577620091,
      -1.089487579351206,
      0.18076567820197287,
      1.8417574483181562,
      0.740531147480134,
      0.09565221576167104,
      -0.6929418104179578
    ],
    [
      0.34644305939287723,
      -0.26642082223753516,
      -0.09190202888768217,
      -0.14124735173146538,
      -0.4175754389048723,
      0.393460318130255,
      -0.18781227282508622,
      -0.5605090648181916,
      0.39043247636858214,
      1.2442710577427445,
      0.2500868180512879,
      0.21119186359311412,
      -1.3556557404446217,
      -0.0872848865182427,
      0.7903328101290545,
      -0.2898041857497428,
      -0.6716962093583013,
      -1.115071499336048,
      -0.27649564481241284,
      -0.3649765946970533,
      1.5735369357590185,
      -1.2331361276985073,
      1.1465320135409913,
      -0.026354417963476442,
      0.4404308979568784,
      0.5455881171997397,
      -0.14673171901242626,
      -0.5502901352880718,
      0.3921548096101584,
      1.3038643747874883,
      -0.13523387755789526,
      -0.8767642611164211
    ],
    [
      0.27880730493535527,
      0.9400003507137398,
      -0.18114711782132192,
      -1.0389388725147413,
      0.9055565139307312,
      0.8195473966389764,
      1.0293512949378685,
      1.7961537822160667,
      0.4270731994181353,
      -0.5196818847297446,
      -0.8308069686675443,
      0.6024485935239398,
      1.9669026957908364,
      0.9593816996807792,
      -1.7016357572396346,
      1.2300386115885982,
      0.62105933708245,
      0.764182653790008,
      1.592964236853316,
      1.1087616210122553,
      0.5034117729078056,
      1.9732717709402625,
      -0.5933370764701589,
      -0.2014471952322037,
      -1.0129099909464006,
      -0.10139354697774197,
      -0.36466576762401115,
      0.18940894016601004,
      -1.0532235629653515,
      -1.4998658320076717,
      0.1867162504277531,
      1.1629017018053074
    ],
    [
      0.26546620389358544,
      0.21972456571240878,
      -0.8290220018775554,
      -1.1381804397760589,
      0.6253383153192823,
      0.3044877780839163,
      -0.5836003695102366,
      0.3019073438275995,
      -1.2043413730077508,
      0.8124908770847494,
      -0.9514550848273916,
      1.8439186332893802,
      2.2934103578210436,
      0.07706626635754103,
      0.14492882081995243,
      0.37683211238755954,
      1.0687309650460015,
      2.297321060277112,
      0.8424961654264266,
      0.8431303716877977,
      -1.6928669378752732,
      0.8216537190880165,
      -0.017264332467372932,
      -0.5081357585917842,
      -0.32752008910344943,
      -0.28554062758388316,
      -0.05674385971632433,
      0.6622968645879568,
      -0.5942615950641373,
      1.0957943734950353,
      0.9433454302523155,
      1.1511106133661106
    ],
    [
      -1.0337009569723186,
      1.5015307444826926,
      -0.8773433895354676,
      -0.6933042613412939,
      -0.47397446324222675,
      0.27010468556697703,
      0.5859700343777582,
      0.5860336764032137,
      -0.41801830823811875,
      0.059783996547333136,
      1.2859469691345224,
      -0.6322448092136048,
      -0.5955428741632955,
      0.30905323500439313,
      -0.2993337505095385,
      -0.014242091524749366,
      -1.1048499771496008,
      -0.5168228950560465,
      0.6002845773107952,
      0.48498375728727033,
      0.27517690099967307,
      -0.09651515755991831,
      -0.19088878566821282,
      -1.155509500180584,
      -0.8032228047701573,
      1.4092296327332021,
      -0.4941712754376784,
      1.5927187940745506,
      -0.9016822558132022,
      1.2984099179566324,
      0.5488109204939187,
      -0.8204424092821576
    ],
    [
      -0.988909475835326,
      0.04318930845461528,
      0.7448023696340841,
      2.256473416831974,
      -2.635108997218518,
      0.12410384066956512,
      0.03766388726541534,
      0.9208925241570535,
      -0.15989468386578057,
      -0.13269625546271185,
      -1.1403890479722554,
      0.1977894486814353,
      -1.4209179193938728,
      -2.069522389514754,
      1.1247744024206878,
      0.9103611844748114,
      -1.2744536879175594,
      1.1154413544226358,
      0.4090541174494671,
      -1.4763882292755284,
      -0.3701830452612065,
      -0.3321800532219125,
      0.6377943634742571,
      -0.8883750369605352,
      -0.06497105588352321,
      -0.6824182360781704,
      0.976551316209501,
      -1.2083441245044382,
      -0.6778860404017689,
      -2.4233714464046723,
      -0.7054657279498728,
      -3.489175229544674
    ],
    [
      -0.573966909457485,
      -1.2439959021357538,
      -1.9805561003339858,
      0.9385263643172264,
      1.9210561863812818,
      1.8782376700217798,
      -0.0807286248127681,
      -0.586899917131016,
      1.4469688859577077,
      -1.203319364930196,
      1.4853337543707337,
      1.7346161833361247,
      -0.00014454484134104818,
      0.8248512162137682,
      -0.14623019159560166,
      0.7200006119841363,
      0.36365983117575446,
      -1.831011435027214,
      0.5670695276905015,
      -0.557243732678616,
      0.37934192451199866,
      -0.3901241476720114,
      0.2169744063226073,
      0.3889046210670726,
      -0.12186908765984424,
      -0.5824940634917177,
      0.0359677796927647,
      -3.2467984199653483,
      0.5469258254671657,
      -0.29700671494599173,
      -1.5549436604233795,
      2.2293101895265037
    ],
    [
      -1.294516810015384,
      1.6460710394681837,
      -3.359573184632437,
      -0.5978371336508514,
      1.6931950915123255,
      -0.6136252020321864,
      -2.1990744303026464,
      1.0281650771077977,
      -1.5335569875390958,
      0.6258108513349092,
      0.5437928818828325,
      0.47155693354226635,
      0.13768493809045576,
      0.2737327785522276,
      -0.1711860544797305,
      -0.8780800415219284,
      0.6431162318152859,
      -1.1818763932023444,
      -1.2855683930693536,
      -1.1784044208881768,
      -1.0363149274815475,
      -2.051310391469851,
      1.4419109080221197,
      0.6126321346460356,
      -0.4753579455251529,
      1.1977206282731547,
      0.2039468037523705,
      -0.8451810705454877,
      -0.3672927910067011,
      -0.24559173199802697,
      -1.052559571307291,
      0.7279019207159303
    ],
    [
      0.2739383813627417,
      0.8987305467710098,
      -0.432333870475932,
      -1.5344889326945077,
      -0.6869594993756751,
      0.04856324498982781,
      2.002338330914034,
      -1.3154350913733226,
      0.10232852465835444,
      -0.2024795652143593,
      0.1778935476982692,
      0.2538625898653399,
      0.46062849158457375,
      0.8220042035130586,
      1.17626783669178,
      -0.4705210492287674,
      -0.2115623049984275,
      -0.20031802985481698,
      -1.0826193161191526,
      0.3458349451205448,
      -1.1170244436677792,
      0.29164632307762944,
      -0.9324767908181621,
      -0.6975870349561609,
      -1.1982268963881635,
      -0.00011747189802043116,
      0.6732164076448722,
      -0.6285945917948256,
      0.41831263223500786,
      2.0874110989425687,
      1.5079214893754576,
      -0.28619672855873307
    ],
    [
      -1.297261923265387,
      -1.127731774856173,
      0.9813499970854458,
      -0.18246534500687317,
      -2.057507611045666,
      0.13989938420309334,
      -1.1463931312323912,
      -0.40111170566800236,
      -0.668896015738162,
      0.07846246043596898,
      -1.2573207234887827,
      0.4286867861036784,
      0.6922810614862807,
      1.8535935675500321,
      1.0167925882778015,
      0.8795641567846718,
      2.6106345076715867,
      -0.49578903908306615,
      -1.1715310792471427,
      -0.48114435810621276,
      1.2291238228582289,
      -0.175250777925071,
      -0.7172885315641299,
      1.2733225443314333,
      0.44702292988432574,
      -0.06733654285000414,
      -0.05988341727565051,
      0.18821558568023578,
      -2.053750068445073,
      -1.799152426253508,
      -0.4851694306285475,
      -0.5058151688602669
    ],
    [
      -0.7039860801064173,
      0.3619710141273024,
      0.2149402328911988,
      -1.065374197919545,
      -0.16321009867417816,
      0.026943747045643073,
      -0.19865665360457707,
      0.09068934484626531,
      0.9011415706802548,
      -0.06434026279734666,
      -0.49176027670046957,
      2.040554753834463,
      0.8009138949438378,
      0.7673509993946053,
      0.46444475121662776,
      -0.002026074124617894,
      0.985038371736132,
      0.5167064729355179,
      0.5092032982459453,
      0.11959406134634283,
      -1.0171263301201294,
      -1.31819886810558,
      0.4486536388765646,
      -1.1659314450765816,
      0.07480081844820749,
      0.1115871563050213,
      -0.9959272951676406,
      -1.280898353929227,
      -0.14591582800137198,
      0.07260234629386807,
      -0.6552079785845852,
      -0.509285585195809
    ],
    [
      -0.7574332006928072,
      0.029178542030080176,
      -0.20374227161308642,
      -0.5409951089442199,
      0.9647103312552615,
      0.2357824366379288,
      0.47855655805955144,
      0.5478278738227931,
      -1.9719073214750822,
      -1.9980754741511961,
      -0.5008998870370466,
      0.21371015969378995,
      0.4008863846987807,
      1.517278898003359,
      -0.5724016433106116,
      0.15311738869885638,
      -0.39782670129123965,
      -1.0856708495633034,
      0.9709150048463645,
      -2.4141214402240077,
      -1.0692355654962111,
      0.365026371821995,
      0.5555706294700141,
      -0.1994874224618589,
      0.15311803917912245,
      0.5210941014987465,
      2.7864122041552153,
      -1.8687949022821548,
      -0.26871351904225244,
      0.23864945691458053,
      1.2151464963713088,
      -1.0437236245504462
    ],
    [
      -1.0901135159711155,
      0.9934008801178075,
      -0.8278826632792261,
      -0.46724079814355973,
      1.2691478680104349,
      -0.9209283302574953,
      -0.9229704649199556,
      0.35143017282388955,
      -0.934980812214576,
      0.15869078047489607,
      1.243166693972713,
      -0.6081887957694917,
      -1.6138902953789867,
      1.2806639665003468,
      -0.8517152901774346,
      -1.11144710137373,
      -1.0683467237662019,
      0.7108093493748547,
      0.26117909739171974,
      -1.3730358519226715,
      -1.1728187174556346,
      1.280899170532794,
      1.1916424846125118,
      0.5439699552934917,
      1.560423264166205,
      1.5304481150711224,
      -0.4294954019661166,
      -0.052827927441460316,
      1.1313742083636753,
      0.33716133233217077,
      1.003609870858487,
      -0.6965665674076178
    ],
    [
      1.087651984484625,
      0.05352754244532865,
      1.8192198705929494,
      -0.372492467168781,
      -1.5049515973548762,
      0.23715386010803977,
      -0.211467427318759,
      2.0311644770003388,
      0.5460090192986783,
      -0.2787286978935623,
      -0.009398770445278273,
      -1.1472747843221258,
      0.23103948622542017,
      -0.302458412455045,
      -0.4026205673845748,
      3.552654023802562,
      1.3141479150517907,
      1.1180904370784703,
      -2.1434295615447536,
      -0.7477840408229605,
      -0.24518580556201952,
      0.4955279621874261,
      1.2872464303192583,
      1.256228534981398,
      -0.4530246412874138,
      0.5721675648889563,
      -0.14703092355094827,
      -1.5457187521120872,
      0.2796045946031834,
      -0.684731948667421,
      -1.005660746743938,
      -0.6634449283073558
    ],
    [
      -0.32522822766610093,
      -0.17966118828021807,
      -1.2853308121993696,
      -0.8356400582338217,
      -0.6468791583941408,
      0.9846086157235755,
      1.3690631175962535,
      -1.1141590030094561,
      0.5134460061073602,
      0.7965058560958944,
      -1.2167461434259232,
      -0.974371322527891,
      1.3140823484669422,
      0.6691653817246497,
      -0.01643397767628956,
      -1.0188217095328456,
      -0.460109511491023,
      -0.4179939697595586,
      -0.1502090684454426,
      -1.7091956530432812,
      1.1025771740176515,
      0.7284868128378122,
      -1.016474242532158,
      -1.4977214785949582,
      0.14925340879763474,
      0.0005303976761745529,
      0.20388384030505688,
      0.7639218249676867,
      -0.1847116213864369,
      -0.5611802396826573,
      0.57306355835022,
      0.47812208860654704
    ],
    [
      -1.381599908042876,
      1.8697944494222516,
      0.8032230298270359,
      -1.8546937279314029,
      0.9699710757047043,
      0.7974447818523627,
      -1.7129946929238125,
      -1.3814484936454687,
      0.611658381038035,
      -1.5831120030414885,
      0.5006789847412679,
      1.749742467224261,
      0.42279406610992254,
      1.7379337863896391,
      0.7684283888556659,
      -0.3976617061842234,
      -0.19338171094898543,
      -0.30193187488943524,
      1.0708503644293057,
      1.8180182412439243,
      1.1995620895706827,
      0.3888118656399065,
      0.198815101385935,
      -0.49756752823353073,
      -0.3046759434872265,
      -0.20733706202236588,
      -0.4604585999899223,
      0.12083405954691907,
      -1.0332211606993027,
      1.570133364706803,
      0.5961407938090828,
      -1.040591439074948
    ]
  ],
  "output_transform": [
    [
      -0.9811582127043161,
      -2.049784955693878,
      1.009547943710643,
      0.1359673698208575,
      -1.0688272623754538,
      -1.2145659778338491
    ],
    [
      -0.024588370013744122,
      0.7375219369920484,
      -2.316488834928495,
      -0.14459509171863158,
      1.4327868484100867,
      1.0381531319032038
    ],
    [
      -0.5314686873442669,
      -0.5226056777137515,
      0.41933798911034537,
      0.5088455267958025,
      -0.7018162222659811,
      0.763036444093821
    ],
    [
      1.1874964500017489,
      0.3166365535031832,
      -1.6452424156987304,
      -0.37279242701158544,
      -1.499013777516001,
      -0.24729702771117598
    ],
    [
      0.1956021185941,
      1.181176193814341,
      -1.5755908339757951,
      0.13935931537204954,
      0.7387601013850662,
      0.13386338589232075
    ],
    [
      0.11574228701034113,
      -1.227837680020413,
      1.3467146949224647,
      1.1932087074888504,
      0.10594840091766548,
      -0.42873416905191186
    ],
    [
      -0.2735882825985263,
      0.1381819063247716,
      -0.457936915520774,
      2.104910423359791,
      -0.6192561998690879,
      0.1951074096351531
    ],
    [
      0.24043304839128998,
      1.4108525992553562,
      -0.5231692559736363,
      -0.27941738882361733,
      -0.20364421378610742,
      0.9141295969900212
    ],
    [
      1.1759855900563199,
      0.18585467989640492,
      0.659188100640165,
      -1.4035866857431822,
      2.086547961205459,
      -1.929491234458765
    ],
    [
      0.05093215760472808,
      -0.43016461172803433,
      1.9091254965935236,
      1.0311516920250041,
      -0.04981467523615753,
      1.7900869842120468
    ],
    [
      0.7407939202742078,
      1.1991022595714227,
      -0.4851295458677517,
      -0.8529603364883865,
      1.6163391643533778,
      -1.6198317217662725
    ],
    [
      1.2013228070958326,
      -0.005985396832682336,
      -0.776222865504683,
      -0.7873259529862727,
      -1.3743861093103151,
      -0.13747734658164779
    ],
    [
      0.8082093147610339,
      -0.5913018239389844,
      -2.1660192620114187,
      -0.3395126116023238,
      -1.548217199736017,
      0.48700426412429654
    ],
    [
      -0.47382073686289056,
      -1.0718392208794332,
      0.3279471660952107,
      0.24291599222,
      1.292227693694415,
      -0.6372640551435698
    ],
    [
      -1.8810140310826453,
      0.9115178733955467,
      2.3071180352219542,
      -0.28595424988609586,
      1.1620019617948276,
      0.17737991635029982
    ],
    [
      1.0828906588640153,
      -1.504631794154866,
      -0.4650487692470725,
      -0.35324695983247767,
      0.2649378344932769,
      -0.039482615997002715
    ],
    [
      -1.0551542483404446,
      1.5737616938543801,
      0.581851090376656,
      -0.6791990508122431,
      -0.2034088672260971,
      1.1104251351379728
    ],
    [
      -0.08022851501146927,
      -0.5776515525939684,
      0.18160335039190723,
      0.7912899490622994,
      -1.7808441350405468,
      -0.8115234326005787
    ],
    [
      0.536602382002442,
      -1.455563290452188,
      0.024309328285601572,
      1.5753841940663393,
      0.24348967199705018,
      1.1060451426515194
    ],
    [
      -1.040204880110918,
      0.04595185710449156,
      -0.4330480438917821,
      0.33918392617918525,
      0.303502986357599,
      0.49389615142834514
    ],
    [
      0.2653381517987349,
      -0.37963007436992735,
      0.6989704708090965,
      -0.3225933769397755,
      1.51602668916305,
      1.1696175721980566
    ],
    [
      1.255539689363697,
      1.1968001378458029,
      1.0958427447270365,
      -2.5994116985432396,
      -1.6938557372146,
      1.0764265515477587
    ],
    [
      1.0166050041268195,
      0.36326281823975615,
      1.8543228726070895,
      0.5015839813260032,
      0.29260432858630714,
      1.3142172931882066
    ],
    [
      1.6687513761247676,
      1.0838610191852518,
      0.5794903926466295,
      1.006697553005757,
      -0.034965179850744134,
      0.202170865319868
    ],
    [
      -0.4472633107300479,
      1.1098909819760976,
      0.9333367442766456,
      2.1874363910580255,
      0.3148038020829588,
      0.09577935693303621
    ],
    [
      0.7766953652367022,
      1.3580306605035102,
      0.7395760422517462,
      -1.7335642058477854,
      1.1903840404050854,
      0.3905108260473115
    ],
    [
      0.2001197939423228,
      0.7372438042049263,
      1.414128757271039,
      -0.17156529888444524,
      -0.7257627667485262,
      0.6928577793383002
    ],
    [
      -0.8655091334569955,
      0.056414641558846644,
      -0.7112053161804862,
      -1.1030846178229297,
      0.7800217658785751,
      -2.6103628761947584
    ],
    [
      -0.44059043599433,
      -0.9445511150130098,
      -0.014171883207353832,
      -0.30489007093909987,
      1.0056359828572616,
      0.37145272778216554
    ],
    [
      0.16592595553979372,
      0.6942374652387595,
      -0.03365418711505649,
      -0.036062469966594235,
      0.8719268592228466,
      0.0956749253812613
    ],
    [
      0.02730535076033933,
      -0.32375612290973654,
      0.3691523704531073,
      -0.35055858599190076,
      -1.0508124300811625,
      1.5639706804483529
    ],
    [
      1.572580395360088,
      -0.5301594194427353,
      -0.9362647747738612,
      0.29785126839972037,
      0.1466486304598689,
      -0.5894439470222633
    ]
  ],
  "bias": [
    0.01769209348118191,
    -0.2427729804421915,
    0.9047129991672935,
    -1.8611770704331885,
    0.5972556252537294,
    -0.30291437860406095
  ]
}