{
  "input_transform": [
    [
      1.9285250374904448,
      0.7942659388818384,
      -1.2445314318088092,
      -0.6081698433771262,
      0.3899075226391416,
      -0.26083227838613815,
      0.9573107931759834,
      -0.032591178261458645,
      -0.13278599555825885,
      -1.68309046191048,
      0.9781062981532197,
      0.4090637618298571,
      0.4661673196251259,
      -0.21550848749908957,
      0.9371834233697578,
      -0.8187896407413463,
      -0.018629913160887402,
      -1.62543934276548,
      0.05823314741338978,
      -1.146840954008514,
      -0.043947683473076746,
      -1.3766560892002833,
      -0.9958394687601592,
      -1.520395827076442,
      1.0992255128875712,
      -0.579403968395833,
      -2.1050264073964713,
      -0.18283545879295024,
      -0.10677932311915103,
      -0.7794727262200332,
      0.35366036001756673,
      2.105928298607347
    ],
    [
      -0.28244654925589197,
      0.2233421321115991,
      -0.057195395539451514,
      0.025244364682816208,
      0.43698400989768915,
      0.9532882720090177,
      -0.6572943954345991,
      -0.5746159069669893,
      -0.5752591003440796,
      -1.3625477129845902,
      -0.9791757557320192,
      0.1773843457710623,
      0.9610640848040379,
      -1.7262721391600553,
      -0.8987559629236648,
      0.2792615153904357,
      -1.0844262701694498,
      -0.2984289220081412,
      0.07460463128861626,
      1.1414028169020185,
      -0.10511608932146105,
      -0.10890852321115677,
      0.0659080456935773,
      -0.32442273797611654,
      -0.25495637048298136,
      1.2294359577005083,
      0.7732408214999879,
      -0.4118242177539193,
      -0.1957914187686941,
      0.13347035467471677,
      -0.0816547949427418,
      1.013965758461361
    ],
    [
      -1.3942099088994286,
      -0.3979369341493361,
      0.06682183233103967,
      -0.404074398027572,
      -2.281678399963299,
      -0.943564327072458,
      -0.8276226880245499,
      1.0454267371040942,
      -1.3982280701897885,
      0.908408231153438,
      1.5934954194848574,
      -0.9982843836336858,
      -0.610051056207258,
      -1.0105829236725885,
      0.7975164334337856,
      -0.27237969932721107,
      -2.0229424993983183,
      -0.7204576628297569,
      0.6057722483859994,
      -0.04075830379569314,
      -0.8209990816049798,
      1.2494079712212027,
      -0.02645091910574008,
      -0.2511008289418841,
      0.6041720580416106,
      0.49224427633475343,
      2.2135101940123674,
      0.25647055372446087,
      -1.3526820088677394,
      -0.56748468920276,
      0.010913068005770531,
      0.8854630653455742
    ],
    [
      0.8930250733776898,
      0.534291679020767,
      -1.2244065202964607,
      0.31090245570569597,
      -0.9927489756276714,
      1.0220095110566114,
      0.038396792610809284,
      -0.33702141283888937,
      -0.4505830060976514,
      -0.15612198694513918,
      -0.7720430891304466,
      -0.649118802411869,
      1.0490599352590269,
      0.22597944264980016,
      -0.2233418976803775,
      -2.674294894946889,
      -1.3810656617772397,
      -0.4413635147510659,
      -1.3577602996306912,
      0.177581349377929,
      0.9177512757871259,
      -0.7280174746767522,
      1.7859009992808392,
      -0.3259035743633642,
      1.1833712427855072,
      -0.4557554537673521,
      -0.9156130773625332,
      1.6611033513942752,
      1.8811846760087758,
      0.012481378602717735,
      0.9339745571874345,
      -1.0882586465997874
    ],
    [
      0.6526111415308636,
      -0.07920452529700474,
      -1.108058917080225,
      0.4987853284496834,
      0.49256222899786156,
      -0.5842629066644354,
      -1.4938325342499046,
      -0.5024932456510509,
      -0.6114474267271349,
      -0.009240471625473036,
      -2.135270110213078,
      -0.025746568557173374,
      -0.2657034843536151,
      0.8574080792007923,
      -0.6870772257063906,
      -0.5284522315240356,
      1.2935662649408906,
      -0.7367033692298492,
      0.20532487199497348,
      -1.4290006579343595,
      -1.2898645134126165,
      -0.5496459997465528,
      -0.22871564654832946,
      0.3780182383976526,
      -0.25641595852817767,
      -0.42864103789635927,
      2.863680597356382,
      -1.381843834864832,
      0.20471243911956122,
      1.5412801107930498,
      -0.5826290007593817,
      0.41473375412371577
    ],
    [
      1.0767469468533737,
      1.272067892863998,
      -1.0660276910941768,
      0.9555503723763532,
      0.7764111334625113,
      -0.4636072781864071,
      -0.9950797931238475,
      -0.34983002258585355,
      0.13827515168289192,
      2.7351768308132547,
      1.1754983846478815,
      -0.6529616684440742,
      -1.8774113432359776,
      -0.940337379641675,
      0.5932870847505917,
      -0.06356630950929254,
      -0.24891813936585866,
      0.2345934655433893,
      -0.20719401310409769,
      0.12890821839509659,
      0.8934388616904563,
      -0.49006984232501793,
      -1.5927097002298822,
      1.3685899901940028,
      1.7709032179699435,
      0.5558066756613592,
      -0.6720659921813918,
      1.432475778856697,
      -0.04892856200805375,
      1.4764101872945028,
      0.25566233289015294,
      1.5128380556358156
    ],
    [
      -0.5749367302303234,
      1.2667737150516345,
      -1.554324887584439,
      -0.10393589759045473,
      1.322836366090178,
      1.2383097377268313,
      1.752624421220425,
      0.5988906543889226,
      -0.07697884120890762,
      -0.5116977029572611,
      -1.1124212618699645,
      0.819274536393654,
      0.33604586713290635,
      -1.502484217661179,
      -1.5246089854212812,
      -1.8539815386314897,
      1.1985450432214002,
      1.6837450513487964,
      -1.2445861986886029,
      -1.011758668056524,
      -0.0664431624581748,
      0.2360119399161683,
      -0.47244506765523553,
      -0.48613983887976475,
      1.763438345479754,
      0.7304482165745783,
      -0.7523803793957289,
      0.7558167096101714,
      -0.8224907959715456,
      2.27075276190356,
      0.5947916077438508,
      0.7759362044276232
    ],
    [
      0.2661235234498469,
      1.2154398782748053,
      2.0107964692816176,
      -0.09068813509124699,
      -0.09495032252908063,
      1.3704033816340506,
      0.17767029617841137,
      2.483297711836222,
      -0.23862781405996167,
      -0.10112452544193089,
      0.6115287545274264,
      1.4068818107339753,
      -0.12596870872414997,
      -0.13191370677757933,
      -0.7171577155971214,
      -0.05726297712466349,
      -0.10440248917843052,
      1.107861022604643,
      -0.2782729807425069,
      -0.8151666934106764,
      -1.5680203893701232,
      -0.5277418557409878,
      -0.4011899282914264,
      -0.8979070716737021,
      1.313547838312188,
      -1.4052167160913034,
      -1.0366444548544094,
      0.4115366063464722,
      -0.41346762635308243,
      1.4506795008724314,
      -0.44276565926833045,
      0.5137482701532016
    ],
    [
      0.05648276198780488,
      -0.23082320327778155,
      -0.7628657982195689,
      1.2121870401069397,
      -0.05887198713891779,
      0.21350174637037836,
      -1.161863415565493,
      0.6205424526939645,
      -1.205120077473712,
      0.10244498828170365,
      1.4802481833507704,
      0.6602922420196408,
      0.7470500473195519,
      -0.39352659731289924,
      1.763417774673415,
      0.23346821534460171,
      0.5222651897232236,
      -0.2627439522169312,
      0.20156224534570213,
      0.43195451088662484,
      0.16339144301783204,
      2.7680905937569618,
      0.3312986577672725,
      0.6854775388660995,
      1.8226104170366162,
      0.6150034906299331,
      -0.8378199513204313,
      -0.622796259149372,
      -0.9097946724665532,
      -0.7198327889639703,
      1.2253507089891988,
      0.5212774887579804
    ]
  ],
  "hidden_weights": [
    [
      0.47021807509382124,
      0.5423157415760204,
      -0.20168557851340152,
      -0.721566962285502,
      -0.4813169021964341,
      0.6556828845682934,
      0.7712837609461755,
      0.99078210835382,
      0.7674809554875188,
      0.16486101137521914,
      -0.17103151940661365,
      -0.12374836579859516,
      0.8706772212564496,
      0.23828571567595727,
      1.0779961776508964,
      -0.17244714758748797,
      1.044178978665402,
      -0.29713237062511433,
      -2.0891873240675545,
      -0.01584832935321717,
      1.2863229528423423,
      -1.1298746101161474,
      -1.035841249305673,
      0.2751036603969531,
      -0.5441401967829838,
      -1.75511728182876,
      1.7521352371308578,
      1.0020411510182534,
      -0.9777990920127034,
      -0.5812483528142138,
      -0.23526133075290093,
      0.23838565997420869
    ],
    [
      -1.2232383983786967,
      -1.5328163382232798,
      0.7352528760897957,
      -0.2537039175884662,
      -0.7407787509969456,
      1.0163690332244493,
      -0.28283019466664416,
      1.2104269070379485,
      1.142703104227527,
      -0.11332777426272367,
      0.49278879101216383,
      -0.05130390665426795,
      -2.0143955252275845,
      -0.6772364454674885,
      -0.7134843701577206,
      0.7624669892121906,
      1.4922361433133886,
      0.7753301891454836,
      -1.7277049100771522,
      -0.7996636487805615,
      0.022274680598575194,
      0.5986212645940845,
      -1.6802266086307613,
      2.109581904738474,
      -0.022082489560698585,
      -0.6783283829492057,
      -0.8193619857313663,
      1.1517999628810465,
      -0.24960613489190933,
      -0.8078899351722172,
      -0.31491546107320534,
      -0.5874795232081418
    ],
    [
      1.0422526952150362,
      1.9201560726280467,
      -1.8877742111695657,
      -0.46102692364366193,
      -0.6153485835527017,
      0.9176837078838913,
      1.471685637560637,
      -0.7251613879814067,
      1.0483822360302277,
      0.32866993756738694,
      -1.151802404765271,
      0.461491943779604,
      1.2935369202870322,
      -0.7336258117650478,
      -0.9167686329040188,
      -0.5133765216334671,
      0.7496435814476837,
      -1.1965261742880422,
      1.3078846405931592,
      -2.0497965047065145,
      1.0554108462619365,
      0.4067515059142037,
      2.4669234335148773,
      -0.1263422001373519,
      0.46008091685854596,
      1.7825850226673936,
      -0.7837942379765096,
      0.22252748150295634,
      0.5954636113413179,
      0.9743274814393194,
      -0.8601558190675698,
      0.9209016462054084
    ],
    [
      -0.8314524811556219,
      2.180212149193339,
      -1.2580975114012292,
      -1.1032719800600137,
      -0.44190418525500763,
      1.194793772225572,
      -1.8077904208994915,
      -1.2443487397184643,
      -0.8140353010055371,
      -0.8377295282806221,
      0.892627118932957,
      -1.0719630480148425,
      0.7644758467506666,
      0.6301237003397696,
      0.7162132505391073,
      0.10588762694184291,
      -1.4652036110052848,
      -1.4228932737788185,
      -1.7214577319034725,
      0.658617742131961,
      1.739778657597542,
      -1.2221203065860942,
      0.9411478669751444,
      -1.3782351976811953,
      -0.934377779951367,
      0.7766401115629571,
      -0.09106375709629992,
      0.18307882840807257,
      -0.07233880833060641,
      0.690005023110369,
      -0.5926680321828867,
      -1.0445976444834777
    ],
    [
      -0.7909328796847035,
      0.5118688412660055,
      1.2443256409297487,
      0.8880412850951934,
      0.21787760902218023,
      -0.038195954768692336,
      -0.07336375658631922,
      0.30190107391018484,
      0.22870390987031197,
      -0.8394924726516535,
      2.636960248995544,
      0.06231780413991203,
      0.1736735494967678,
      -2.5432381118509695,
      1.0982333744258024,
      -0.7697601969221763,
      0.8645473513649145,
      -0.6205153218598776,
      0.19539549741711942,
      0.10031166730224957,
      -0.8912463206019569,
      0.4886875979761988,
      -0.6052544421327125,
      -0.7902005246446264,
      -1.343592230235167,
      0.19058737226609315,
      -1.1207777230343756,
      -0.7248885185918666,
      -0.507486961601416,
      0.24888892201947407,
      0.8335841524602773,
      -0.5133965423192856
    ],
    [
      0.5988542706601766,
      0.29587955528157117,
      0.7796482640690107,
      -2.2826171148288648,
      0.33649516398327584,
      -1.2147644354812148,
      1.1093795091214054,
      0.4196769151473639,
      -0.9290184557620519,
      0.022649156033677585,
      -0.8739455823609604,
      0.737147931968775,
      -0.8265330978250489,
      0.37717262087947734,
      0.2759019758230572,
      -0.08913300246922404,
      0.33135903621782253,
      -0.2857085797177444,
      -0.17444488417187348,
      0.36120170708366656,
      1.115795363382237,
      0.1656908668409916,
      -0.37283704315029026,
      -0.04109858603347564,
      -1.1292664466006062,
      -0.41853480359849893,
      0.25152049560942663,
      -0.43285637553167705,
      0.3952182320424686,
      0.313199017865805,
      1.049102676734464,
      -1.4810562293329497
    ],
    [
      -0.22595996855660053,
      -0.4365081013382099,
      1.6940951960793873,
      -1.6406368284931387,
      -0.531783440374264,
      0.8372243639796282,
      0.8543514799570548,
      -2.1392651705114014,
      -0.7229146604364829,
      1.606240159430287,
      0.33538565283061167,
      -0.7299818975789004,
      0.3440361989716376,
      1.1169655602460677,
      0.2965319657718574,
      -1.34543361597253,
      0.48157765314570644,
      -0.6851029402316388,
      1.5829976404689383,
      0.4780443673927939,
      -1.1579339490623106,
      0.49149058714562466,
      0.3821023948875453,
      0.08247406281983727,
      1.365601901374676,
      2.176151605041019,
      -1.4888392851796628,
      -0.7076592798422946,
      0.651251660313805,
      -1.6487932171138469,
      0.13285119183235167,
      0.9170745193812194
    ],
    [
      -0.46532690199115717,
      -1.440165218334827,
      -0.25857628351718054,
      -0.3712935773009709,
      0.20144534510332643,
      -0.6681358799806998,
      -0.4415797458762512,
      1.6042421753911982,
      0.3909684290895014,
      1.1291564808056804,
      -0.2492688169955865,
      -0.2585805319624947,
      -0.19753989979178693,
      -0.9151821796582424,
      1.4611884737903647,
      -0.5968006159480629,
      0.4537572920420642,
      -0.3987036223771125,
      -0.7029165652592178,
      1.1805352266500664,
      0.5658273852388003,
      0.9593291593388344,
      0.7877033824274575,
      -0.24530363718997114,
      0.23923108337080423,
      -2.114621547425506,
      -1.7467299530949874,
      0.1891224377655584,
      -2.2891916495990654,
      -0.24361417174842165,
      -0.980800216107517,
      -0.5053342369135985
    ],
    [
      -0.8752353743878508,
      0.030901309056307436,
      0.2774114020987511,
      0.29902395307152013,
      1.303771720430223,
      0.8627598485051688,
      -0.6853970383239517,
      0.07607779034399745,
      0.5657971820059802,
      -0.24678531951340335,
      0.5025184619998476,
      0.4631954999546251,
      -2.0934408900547425,
      1.2353434950880147,
      -0.9011305253224128,
      0.7036879877176296,
      -0.6569754126336402,
      0.445928940855748,
      0.16983298573015576,
      1.3140298636470091,
      -2.169551894921885,
      -0.09720643530139582,
      1.001603869706882,
      0.2180400484860241,
      -0.6480444596846894,
      -1.7566971819067052,
      -0.06545107200907244,
      1.8893468948576368,
      -0.03450208862620206,
      -0.09472329907685394,
      0.3183986302758233,
      -0.01270596142917619
    ],
    [
      -0.802257593489503,
      0.46401757153738754,
      0.8218359032974999,
      -1.927118733333295,
      -0.6114476541641003,
      0.8364417006133058,
      -1.8165361007959628,
      -0.2245062126130344,
      1.2010172210109331,
      0.7034553817851585,
      0.22625923206151297,
      1.3637940885279891,
      0.5887652955873722,
      0.37673661538788145,
      -0.3872500948282175,
      -0.32082938459388677,
      -1.7600899449711536,
      0.7635413092867376,
      -1.5808928916614733,
      1.348583545980601,
      0.45400754998007126,
      -0.8025815435875965,
      1.1150364547896192,
      0.6576448474903926,
      -0.587783835761659,
      0.2198453761765539,
      -0.02810394635026661,
      1.1432087954387846,
      1.1725781923188805,
      -0.6710254742651651,
      -1.768606888401451,
      2.2301234399249523
    ],
    [
      -0.3421050102041831,
      -0.20719306936631554,
      0.382880670777226,
      -0.16709267707783604,
      0.34914382826723567,
      0.6804908539657034,
      0.41106401482635524,
      -0.8044935667141321,
      2.513395196091135,
      0.5694590924337887,
      0.29447372761374474,
      0.3855287487483326,
      0.13577911105961252,
      -0.10561547282299787,
      -0.8987312603409281,
      -0.41770675992435885,
      0.5148193432773863,
      0.1542499985394937,
      0.6238377559403946,
      0.3681944284922177,
      0.9747136701278019,
      0.42763617743717736,
      0.004366641949306187,
      -0.6283897667718317,
      1.1240731279378813,
      0.10630323733445825,
      -1.0652182648038144,
      -0.2003620752720919,
      1.4289767580470445,
      -0.789968563066505,
      1.2078660395685628,
      -0.7034666410849837
    ],
    [
      -0.23469383679234565,
      -0.3340735634141168,
      1.4022941643680973,
      -0.1399787569479887,
      -1.077607430551103,
      -1.560064308253465,
      -0.028053126296020178,
      -1.804801070899826,
      -0.5590409149190202,
      0.5856933097025133,
      -0.9214509498291941,
      0.6687008194709199,
      -1.5672014492973712,
      1.195462259223324,
      -1.087052400017417,
      -1.1373509816202416,
      1.3905151329870393,
      0.5187799938088465,
      -0.17304877794782653,
      -0.16722666027468117,
      -0.4992451610945496,
      -1.0373195117750615,
      -0.2265712313762465,
      0.8446416829352515,
      -2.063660834959833,
      -0.1494625902593718,
      -1.054681911191078,
      -0.1221184857059677,
      1.1276156561304358,
      -0.49334362752495725,
      -0.5589459963004038,
      0.47678552121283385
    ],
    [
      0.8757043015722961,
      0.1923344595367733,
      -1.3222434496595832,
      0.8321102417387124,
      -0.4813896548928994,
      -0.34987120723019327,
      -0.23473553889253887,
      0.913391965504351,
      -0.7978851562462155,
      0.8867218422325291,
      -0.018507641606105067,
      -1.412250661828661,
      0.7527512086172725,
      1.0867563398623887,
      0.5282990559295428,
      -0.5139001906389297,
      0.23388107096908023,
      0.9672818541563389,
      -0.808908961776501,
      0.006900083216277026,
      1.3805111317892351,
      0.34019622467952065,
      -0.1563226232126386,
      0.0364429891840964,
      -0.05043062344673081,
      -1.5525769931177738,
      0.14106059755080338,
      1.5734016007940625,
      -0.5167209647818016,
      -0.4202968558042582,
      -3.4270046640468865,
      0.5996781935885165
    ],
    [
      2.5146827412002146,
      -1.0631865116621226,
      2.0822244561324523,
      1.3812886205099226,
      -0.47989301754835584,
      1.7658903479797672,
      -1.1790613164626471,
      -0.009939689973871114,
      1.8286256448486333,
      -0.7942311925132932,
      1.5209057950457376,
      0.2434933314790389,
      0.8833325184839074,
      1.7840492862558985,
      0.7169120535944961,
      -0.6432803493561992,
      -0.06266733176491639,
      -0.6753536390226031,
      1.2005592639900933,
      -0.5094883426462844,
      1.098830223885411,
      0.8558254863309875,
      2.8584592597465246,
      -0.05818424882186137,
      0.390681764366407,
      0.5414983614102856,
      -0.6961623026106999,
      3.238538745433327,
      -0.3727324641899061,
      0.295067846236003,
      1.2662572119716589,
      -0.7551975900272838
    ],
    [
      -0.6014846467330734,
      0.5912038987019146,
      -0.5568677048774947,
      -1.3005694047198875,
      -1.4783986824270778,
      -1.9475163054350624,
      0.8041553185406304,
      -1.0752029081629293,
      1.9700274082772187,
      -0.9758252763575148,
      -0.2440119037219539,
      -0.9242345834650192,
      -0.8435311123727491,
      2.049941490839824,
      0.6019782069539533,
      2.5609474564598607,
      -0.19113812851364798,
      0.9447592719229916,
      0.9337266203763768,
      -0.623200871562787,
      -0.0014080064316926016,
      -0.5298124966725408,
      -1.4192212343311437,
      0.07451036421348692,
      0.5800397527713412,
      0.579010770573817,
      -0.05119033916159371,
      0.9821215860526754,
      1.709217717582185,
      1.6403464163410473,
      0.8439159864034776,
      0.942731253268186
    ],
    [
      0.7120033321848475,
      0.9503178053771247,
      0.9889653720423154,
      -0.7810957069073217,
      -1.5136888160107096,
      1.4019490653871804,
      -2.0671251522535954,
      0.1686022166073458,
      -0.27386390965846497,
      0.2641654316394254,
      -1.9450585552178312,
      0.8872440204541858,
      1.7827056931042198,
      0.36495950250562775,
      -1.145579782785343,
      -0.7323281375900371,
      -0.5272734327401006,
      -1.6389541764757134,
      -0.6091594515961063,
      0.7484830964513541,
      -0.3360449841147418,
      1.0869618806963983,
      -0.3657321532820937,
      0.7274442324164682,
      -1.5938085670710453,
      1.0633830899976595,
      1.4939032725839645,
      0.6273868168322915,
      0.05216925550155402,
      -0.6720053824285139,
      -1.4045167180907385,
      -0.48331179008158237
    ],
    [
      0.43086401417595344,
      1.4170016768892144,
      0.09245286071985977,
      -1.8825657686473063,
      -2.156513420151087,
      -0.5285966088072257,
      -1.5009146295048144,
      0.21745701475730966,
      -0.46780869605552444,
      0.10456646856813945,
      -1.1153672256511908,
      -0.4191544351444163,
      1.4311113453794075,
      -1.2989007893949722,
      1.9334130844119988,
      -0.21641018614708823,
      0.37977081865475554,
      1.107796104759089,
      2.0235081288058137,
      -0.5019067708961251,
      1.3166035156499305,
      0.3319438584360413,
      -3.00424176701055,
      -0.7652892702531329,
      0.305452159553288,
      -1.5394396900112421,
      -0.6897856858349553,
      0.36045971239269986,
      -0.15021928234638454,
      0.8432728039387868,
      0.44382469000139574,
      -0.12053633448739332
    ],
    [
      0.7052390173258655,
      0.38917157298200467,
      0.3830857062333259,
      0.14699358710021324,
      1.2027358183438905,
      -0.9736934689289779,
      -0.8577236156157555,
      0.7816081073986701,
      -0.7829158239286692,
      0.18796745251778363,
      -1.0842984072357822,
      -2.0602598131109144,
      -0.6539919025662646,
      0.6644179303721509,
      -0.06933884852445518,
      -0.014832989037268662,
      0.11099485172252456,
      2.0265572822149425,
      0.15530288420995358,
      -0.936669858133957,
      0.4294391762813508,
      -0.09545109950114843,
      -1.559090723976007,
      1.7210466413101226,
      1.3581603312654016,
      -1.866868029648639,
      -0.03730223594326684,
      -0.9133882188772349,
      1.3638302545303742,
      -0.3429645040123831,
      0.4063050731544154,
      0.7915797874034438
    ],
    [
      -0.05279990047316108,
      -0.6188088057981703,
      0.9411044139076062,
      1.5165949479757257,
      -0.4642697222396679,
      -1.3583352280727286,
      -1.3465749399947022,
      0.2494224921160167,
      0.9067681193159373,
      0.8155862676763153,
      -0.8408907288535121,
      1.2661046239983011,
      0.7539887068131994,
      0.1129088274572409,
      0.19282919768622445,
      1.8393044896159167,
      1.4230248096744702,
      0.970037726074411,
      -1.99257398914235,
      -0.9075105102280994,
      1.006798737486206,
      0.6419101660405389,
      0.547268590561816,
      -1.5902201569298378,
      1.1226196057337399,
      -1.0202518882500247,
      1.3166246968358801,
      -0.7152025110188011,
      0.3141806360034779,
      -0.33642488421215333,
      -1.1826588868594554,
      1.268535679269566
    ],
    [
      0.8164730584276682,
      1.2542597578071426,
      -0.917092236239107,
      1.310658187350521,
      -0.7300896277324131,
      1.1489208769365924,
      0.15040991045670024,
      -0.08364577382987666,
      0.827089865368505,
      0.7719354005786287,
      0.3326950391701963,
      -1.6400904143703394,
      0.19699625861666034,
      -0.29381519937227857,
      0.4723998815081951,
      -0.7346858022018534,
      0.4317949169994369,
      0.6122634870456024,
      -0.45003119666636954,
      -0.6106911566197445,
      1.0491554124517208,
      1.7305945919750716,
      -0.7218371359352623,
      -0.24379569274842547,
      -0.8476793077221999,
      0.45135871983600795,
      -0.5455601053007505,
      -1.1162867704261996,
      -0.36940336794019923,
      -0.7181281631593114,
      0.4642281642921009,
      1.3043167513306793
    ],
    [
      -1.6777195724716056,
      -0.3085468233328219,
      0.40209524068399444,
      -2.2852373928322103,
      -1.3014444239480023,
      -1.1181340475507662,
      -1.890399176216659,
      1.1841242725221977,
      1.128345522315358,
      -1.5378796406471946,
      0.9221857671450215,
      0.2331068533789777,
      0.9477752872530649,
      -0.08674300010064874,
      -0.5848559922948985,
      0.22702973450466768,
      -0.29785389300080983,
      1.128947883256934,
      0.7448691295023995,
      -0.5339095544049537,
      -1.9263190029440638,
      -0.27028493464800674,
      -0.2745897656783135,
      -1.4736036738447105,
      -0.45165774393028696,
      -2.450632397802529,
      0.3574367389800665,
      -0.6284190212153646,
      -2.041179097604121,
      -0.04769493186519651,
      -0.040217896760862376,
      0.0750520198078379
    ],
    [
      0.49624423291739855,
      -0.4326617406112635,
      -0.6241184082704205,
      -2.906932270631259,
      0.0223746134193394,
      -0.22604499942365078,
      0.09240130563514547,
      -1.0226549786499162,
      0.7564865906189058,
      -0.5932378006665838,
      -0.17993117800877848,
      -0.3838207033256779,
      -0.9213148697008113,
      0.4983544835543202,
      -0.6422586869907908,
      1.3970452174385581,
      1.1353984502547798,
      -0.3231119753267578,
      0.01648580970490061,
      1.1834662859782825,
      -1.116319565668687,
      -0.8663969458284,
      0.17937545311014483,
      0.455214718656155,
      0.2867241727305584,
      1.5724175441245216,
      -1.0973754762565655,
      -0.9765601929039857,
      -0.5825885346698413,
      -0.253915294439068,
      -1.0808343896534993,
      -0.7915267553530456
    ],
    [
      0.8544874937508984,
      -0.9479749830129875,
      1.332020481605803,
      0.2998987504020999,
      -0.8732084029287005,
      0.23887820778470573,
      1.1092501264622803,
      1.3536154173559578,
      -0.1142419415009422,
      0.05822842823501151,
      1.7924875194665268,
      -0.2289350323958017,
      1.0657752607332598,
      -0.30892559823262594,
      -0.39682590268149975,
      -1.9800058895804526,
      -0.12402058111618729,
      -0.67739958194289,
      1.442245323439124,
      -0.8596784089421656,
      0.12352824830556394,
      -1.3134276232374968,
      -2.2378404834509853,
      -0.12361200395066756,
      1.8263778194597735,
      -0.7596803258551319,
      -2.049293639273384,
      0.06822423620902421,
      -0.9390697500415768,
      1.3126303504034045,
      -0.24633316354661078,
      -0.36325706721688966
    ],
    [
      1.2662907448527974,
      -0.20903327071304373,
      0.12270125281245599,
      -0.5422765234638939,
      0.013710028569304176,
      -0.245088636475675,
      -0.5845779645227005,
      0.8416827950951348,
      1.1861840203896168,
      -1.0668519843318613,
      0.3462156114099016,
      -1.5254983060313816,
      -0.34389645917889416,
      -0.6037090892664002,
      0.48271230508894936,
      -0.9051644103550969,
      -0.19126679592715762,
      -1.105700246051063,
      2.3866488558080787,
      1.7021840365409975,
      0.7942335910208077,
      -1.6171843590457813,
      0.24538897829581,
      -1.222621136259084,
      -0.09744947766608296,
      -0.6631004228028562,
      -1.2806499801088442,
      -1.2151785733428069,
      -0.4755570384826492,
      1.2789172016701427,
      0.5610241907146196,
      0.3966550662045841
    ],
    [
      1.2696897806900376,
      -0.14130276183041235,
      0.6532516787860396,
      0.37121850897055264,
      0.7904235006232577,
      1.4600348423819034,
      0.6628227185192234,
      1.8160855862502905,
      0.3821736629315063,
      0.2786323667903851,
      0.2748860695578749,
      -1.2213150459164555,
      1.2098351099339149,
      -0.11459124043737819,
      0.5451558070226438,
      -0.9342162335071389,
      0.6708385423118757,
      -0.9317122649554693,
      -0.18124909693080976,
      -0.12129129463305922,
      0.817449501428928,
      0.49286072559001004,
      0.26559971532903476,
      -0.9979325838916078,
      0.2223596629265633,
      -0.27963297933936015,
      0.6772751991370608,
      -0.15337779185800957,
      -1.2852831665418643,
      -1.4976745206878659,
      0.3347842139497744,
      0.7259357933551456
    ],
    [
      0.8003556236011045,
      -0.268351858088104,
      0.3942679817215645,
      -0.32144498069713523,
      0.45680823497688394,
      0.8312218173471857,
      0.23294436369975158,
      0.3217742703396702,
      1.5638320649243462,
      -0.552136612637741,
      -1.0963383361003152,
      -0.11716342699677806,
      0.10887879301558823,
      1.3104168036016837,
      2.4321741074008933,
      -0.011631103011511736,
      0.42489849970397475,
      -0.9284837287552823,
      -0.4783348641872214,
      -2.3368115539857017,
      0.4751925204518531,
      1.8427473835882526,
      0.6408151563669472,
      0.5809219673991128,
      0.0748461677031571,
      -0.3803452574722041,
      0.39092227177058314,
      0.394536224345368,
      1.439806549197307,
      -0.8471721880166097,
      0.12897764603571057,
      1.945415449962266
    ],
    [
      0.6917064750982593,
      -0.1841452029905033,
      0.5428534871554583,
      0.2627137185803543,
      -0.05972708055453368,
      0.20880578099155161,
      0.6435447964019627,
      -0.34652219438568493,
      0.6019278326957357,
      0.1597668877702818,
      -0.9909030402855118,
      0.08362530901510758,
      -1.631610191913885,
      0.6840379167277268,
      -1.137724445720632,
      1.3631181534800108,
      -0.07283348162467781,
      0.6205061851183608,
      -1.2333993700524888,
      0.8268789084272093,
      0.5440245306875905,
      0.8554276470014024,
      -1.653511737821262,
      -0.5750067722402032,
      -0.8062362727572128,
      -1.96735229970887,
      -0.837617912560861,
      -0.6859615122770344,
      -0.971275350550769,
      0.5892790854783727,
      0.858454690113976,
      -1.88152243086217
    ],
    [
      0.11747831217406039,
      -1.1105482343253055,
      1.8242347580171618,
      0.21703609025768447,
      1.0884814122773352,
      0.42092974001872174,
      0.6621756015716891,
      0.13397367699857582,
      0.750647822752351,
      1.7988074987517821,
      -0.615448956450055,
      0.313507680357721,
      -0.38826009022296387,
      0.9738869104134904,
      0.225268555832424,
      -1.1229208520524494,
      -2.9141309427843916,
      -0.6487010223557043,
      2.401578671126706,
      0.017713700270538434,
      1.0079608263333215,
      0.06690741791926746,
      -0.5535876585753516,
      0.9364533797831038,
      -0.41645832836129476,
      -1.8461600119796557,
      -0.11486315687767672,
      -0.03742468331654211,
      -0.08003668470090819,
      -0.09591468136674314,
      0.8827868852807764,
      -0.5962159631749978
    ],
    [
      -0.34904087161336117,
      -1.0049615035284811,
      1.1943356180693507,
      1.2884981423335307,
      -0.22670248648310612,
      -0.15424868008036552,
      0.9036798986551429,
      0.1254702746957457,
      -0.5133712385396563,
      0.47209214749778566,
      -0.5944042741229287,
      -0.7733353860791062,
      1.2281379176529859,
      -0.35831860427262635,
      0.6755564086440962,
      1.0903442788152364,
      -1.2860509118432406,
      0.3802244743860382,
      1.4447428937113689,
      0.7058637548860539,
      -0.5087223208850093,
      1.10703709829031,
      0.8776017399680729,
      -2.190933049187129,
      0.23398882984835256,
      0.5541941637010003,
      0.8128776838785969,
      1.075479985124825,
      -2.0564473806156243,
      -1.005740696874019,
      -0.3355896116948656,
      1.082574311161262
    ],
    [
      -0.12840695201520894,
      0.27899615587607257,
      0.13427570204277045,
      -1.2886178024733057,
      -1.0919716355800284,
      -1.6398689031221911,
      0.9655555535924555,
      0.6358533011411215,
      -0.8554103710903124,
      2.0007857750994273,
      0.245787773781192,
      0.9045827800857295,
      -0.7464991869253117,
      0.28623315279154504,
      -0.8785008905870723,
      -0.8699383162783424,
      0.8827679506949416,
      0.07405877114001581,
      -0.9504625063086563,
      -1.012453075594914,
      -1.0503987743528334,
      -0.5902178381145521,
      -0.29005469750102325,
      0.9351399405013976,
      -1.1401708801532637,
      -0.6962618951510531,
      0.0895879357897147,
      0.4355654095990292,
      0.16141253981322354,
      0.10297347423923024,
      -0.05074975562576196,
      -0.9029064531213707
    ],
    [
      -1.8431494887158193,
      -0.14868706299886603,
      0.9173240883164339,
      1.5287554472308669,
      -0.45046851769878854,
      0.46411436023713315,
      1.0578115556783623,
      -0.9617570242972402,
      0.6625795457169018,
      1.317525188227471,
      0.9548451178664469,
      -0.8784271062367062,
      -0.45245073625548715,
      -1.6774368516462865,
      -0.9526959995639649,
      -0.8907145580634145,
      1.0574621634741348,
      -0.022970873560542206,
      -0.08964344489292406,
      -2.003980633633855,
      1.174341742867855,
      -1.4857335942427898,
      0.2252751171374126,
      0.8799942507925067,
      0.9150588807585136,
      -0.5531805110314999,
      -1.1584333681097958,
      0.1853095865649063,
      -0.9527261594073646,
      0.15978490335611106,
      2.2763237590770333,
      1.616396388523835
    ],
    [
      0.321997548620025,
      0.31443263137154026,
      -0.39189085097558185,
      0.22233817451194848,
      -0.033999822569450534,
      -0.5867074407775069,
      -1.221185844074067,
      0.48791936948925535,
      1.6391266408979466,
      0.21645624026949173,
      -1.6123744083729021,
      -0.5857934133124902,
      -0.7650462122739694,
      0.8991471346969491,
      -0.3390405179528465,
      0.8287610933580603,
      0.8011837688365776,
      0.3717501908130323,
      0.19796241626251235,
      0.933963004213511,
      0.26030672911169134,
      -0.7987948619618522,
      -1.6391444965704933,
      -0.30902155051110175,
      2.059595131592616,
      0.08323891024969582,
      1.7916148375390875,
      0.6002775023800982,
      -0.880785505162191,
      -0.18851068294109108,
      -0.25452379131304187,
      1.178755762066168
    ]
  ],
  "output_transform": [
    [
      1.3769907276804039,
      1.3948287929021859,
      -0.17860464768032525,
      -0.08925877038576382,
      0.40251679963239934,
      2.2356861476610286
    ],
    [
      1.8990537836607317,
      -0.39996529159871336,
      -1.0609228809671705,
      -0.17871741775267572,
      -0.3894003786295041,
      0.378815086639633
    ],
    [
      0.41425037477091836,
      1.6954427588875585,
      0.5364907888624971,
      -0.1913311295759654,
      -0.48008339744496525,
      0.33504577322279283
    ],
    [
      0.3374192557540239,
      -0.4018889968063093,
      0.40484111332889744,
      1.2721660007840374,
      -1.3417433814488549,
      -0.3401670345824563
    ],
    [
      0.03327900296108211,
      -0.6195668573737174,
      0.1177818598373785,
      -0.4583496429330089,
      -0.9912636740710086,
      1.1488732476811432
    ],
    [
      0.06218400272760291,
      -1.4930545471179344,
      -1.1305548833942773,
      -0.010202392983430442,
      -0.21930676340661112,
      -0.0003237424645379816
    ],
    [
      1.5326140130918717,
      -0.6481885513422604,
      0.7374758997534078,
      0.23608831749445744,
      0.061859670522116,
      -0.7939055124891526
    ],
    [
      0.6756729385918487,
      -1.7506349667746193,
      1.3870769916748131,
      0.06424770420599703,
      2.0101428655456703,
      1.5193040484166187
    ],
    [
      0.29920795375436493,
      -0.29391810222417386,
      0.7998024792438945,
      0.9102300613581285,
      0.7385559407585327,
      -0.010626625764507359
    ],
    [
      1.668269639888455,
      -2.029798247081114,
      1.5168247688754584,
      -0.9263482223381801,
      0.860682314694729,
      0.05251110692840271
    ],
    [
      1.1033830820842296,
      1.6251516867253357,
      -1.4315088655990744,
      -0.017850302491062047,
      0.43508329424355274,
      -1.0621986204256653
    ],
    [
      -0.17409584954975565,
      0.7797553478957965,
      0.22804709207050555,
      0.7307599534207609,
      -1.7040238165417336,
      0.05987992996677741
    ],
    [
      -0.1213467054479292,
      -0.29864791896587284,
      -0.6506244406009409,
      -0.19743151292993208,
      -0.031414724800253084,
      0.15061692689021364
    ],
    [
      -2.0325596713014367,
      0.006721187077794239,
      -0.3051383656956544,
      0.37860903913629884,
      -0.3167544151734891,
      1.7680089687999831
    ],
    [
      0.04507886276820179,
      0.2949956737562905,
      -0.31664535860105736,
      -1.7112486584947164,
      -0.24264766247976816,
      -0.2726011875652386
    ],
    [
      0.5640140573519704,
      2.0535077607033525,
      -0.14143810432832685,
      0.03257678562206627,
      -1.6152615426591177,
      -1.001766498651676
    ],
    [
      -0.5631725914363868,
      0.0330886566739531,
      0.09425869200395713,
      1.6485358616283619,
      -2.0207743171306407,
      -0.2709408780767646
    ],
    [
      -0.020879869256009386,
      0.3781252657038097,
      -0.6228230697268509,
      -0.8038175483825918,
      -0.45881449532514135,
      -0.3964413954265684
    ],
    [
      -0.9400964189191465,
      0.981067961333802,
      0.921741927739515,
      -0.7663293756946331,
      0.33372950080065134,
      -0.42775146728962454
    ],
    [
      -0.4061561101927376,
      -0.16784681025440484,
      -1.3581760137100405,
      -0.18112863974194632,
      -0.6856111903301833,
      -1.0798795792418805
    ],
    [
      0.9649854727885911,
      -0.17624836132920974,
      0.833010417897363,
      0.37118804372364095,
      -0.24110642615300323,
      -1.5540675014204177
    ],
    [
      0.5067633985064738,
      -0.1886239998949951,
      -0.32741562668265595,
      0.9943561830019502,
      0.694811977296225,
      0.36385999864723456
    ],
    [
      1.5175600740306847,
      1.3680977922769757,
      -0.5447662611022112,
      -1.827842530420818,
      -0.14518390805019243,
      0.8318100677462896
    ],
    [
      -0.8322146123642099,
      0.19050687545486833,
      0.30503074332219676,
      -0.3170350160467928,
      -0.42894881406355617,
      -0.4305735918670501
    ],
    [
      0.8852027815004406,
      0.8889829006614612,
      -0.8302472917254181,
      0.48542619404269316,
      -1.2300472357999888,
      -0.6461530244223697
    ],
    [
      0.4867952838252165,
      -0.8944436854344636,
      1.4494822264545824,
      0.9607193541279967,
      1.7739307304497387,
      0.8998250232821489
    ],
    [
      0.4115798446270529,
      -1.15370174645027,
      -1.1528436622534213,
      -0.24263112035557366,
      1.3700021837636471,
      -0.3850974116537426
    ],
    [
      -2.5324741583634895,
      -0.7494638320552163,
      -0.1309165721582821,
      -1.159220367479418,
      -2.042870329978448,
      -2.0413009697127884
    ],
    [
      0.27302862629165026,
      -0.45079133529605764,
      -1.5111797764312362,
      0.7976111498432833,
      0.20798325742003718,
      -1.0455086353876442
    ],
    [
      -0.5746477829097694,
      0.8856689664642616,
      1.4051590722626854,
      -0.04335112863948693,
      0.8601274127455929,
      1.5940131525092074
    ],
    [
      -0.7566292867911993,
      0.8812901778333116,
      0.04026838409048865,
      -0.2975061521004447,
      -0.18058609429029499,
      -0.15164398958803754
    ],
    [
      -0.22844298869115753,
      -2.314358061843875,
      0.5461798478579083,
      1.1329654081284135,
      0.09247643796646511,
      -0.1667464423202274
    ]
  ],
  "bias": [
    -0.6735538896639831,
    0.6021883696255095,
    -1.8385421462414517,
    -1.744157306629293,
    -0.13524993186352197,
    -2.081994922857458
  ]
}