{
  "input_transform": [
    [
      1.454136427911397,
      0.23958523403921528,
      1.5377063463188811,
      0.595039535120196,
      0.679962591891832,
      -1.6837079805030253,
      -1.401163495168367,
      -1.3713917559606816,
      -1.2916592883775095,
      -1.1291748131269443,
      -1.0177501543492797,
      -1.8740997535291923,
      -1.4152510476652282,
      0.531102105744665,
      -0.6146860523478369,
      -0.7178525453054596,
      -0.06791682086488084,
      2.218044170142452,
      0.5528714294828009,
      -1.3836573017171159,
      -1.6480584581815763,
      0.0655620881287884,
      -0.9071968109381622,
      0.6252327705021704,
      2.5710620132226794,
      -1.1621691181506157,
      -1.1510600241128683,
      0.8594344319965731,
      0.3210033784140991,
      0.6464305478522947,
      -2.1452311396417425,
      0.8055713991017042
    ],
    [
      0.6756892296127982,
      0.3513266565465602,
      -1.5364951810066845,
      2.585169963078152,
      -0.9682803244740906,
      -0.14617341494862773,
      0.6105936014067309,
      -0.6312901138585904,
      -0.5238368813769604,
      1.3096141799442356,
      -1.0709808352976125,
      1.0316796211968438,
      0.001527921835811018,
      -0.26425976128916917,
      2.0191944806579034,
      -0.31657054631226317,
      0.31609650538836015,
      -0.5836843860312881,
      -1.7908309050420586,
      2.1765111357816207,
      1.1506616896849684,
      0.4224603762767198,
      0.28955163287315955,
      1.3638266507523022,
      1.18492469887079,
      1.5729572833477983,
      -1.0945283876579668,
      1.0112974808429658,
      1.7263462369158795,
      -0.0848288258068226,
      0.7749977814319688,
      -1.2979621677836937
    ],
    [
      0.15529498591619356,
      -0.1303775942875103,
      -0.288231612580927,
      0.145148922798965,
      -0.5815659474395144,
      0.4591189942092772,
      -0.8889154107715348,
      1.05836565156762,
      0.4129327057645131,
      1.0536759056991465,
      -0.2869098675856464,
      0.7889803791848453,
      0.9590024791249135,
      0.4054434103902228,
      2.138363140509321,
      -0.5834595429650823,
      2.881795845763611,
      -0.051574432165587804,
      0.004103573246700134,
      -0.8719025505920818,
      -0.2221564908389673,
      -0.9875060503647698,
      0.5073373910180818,
      -2.0801866353220104,
      -0.7253516178761029,
      -0.5026391311480405,
      0.14906996262913327,
      -0.6194302540862473,
      -0.6055438649304344,
      -0.9131442768263467,
      -0.5863943969574923,
      -0.44970240617497337
    ],
    [
      1.1613358707258241,
      -0.170224048905209,
      -1.747914169601394,
      -0.6237716763451842,
      0.5446110301897514,
      -0.7107380589427906,
      0.6890366216716831,
      -0.1822636521289818,
      0.8536625365908805,
      -0.6606092056322097,
      0.8668872039136782,
      -0.30929032263498746,
      -1.161934787440947,
      -0.8850507598416676,
      -2.5400396977779636,
      0.1711509516398406,
      -0.447282738303332,
      0.1038167107854995,
      -2.735661430687887,
      -1.6272452713802164,
      0.040137524737835946,
      -1.2092837125252778,
      -0.011575981718684483,
      -0.4956887362324681,
      0.9400066929265998,
      -0.30752864036580035,
      0.09885334660001799,
      0.7002609528944902,
      0.23658348831985995,
      0.13853241629458157,
      -0.6973869133643579,
      0.21622403035497867
    ],
    [
      -0.9538813004653188,
      2.1971701294386663,
      -1.721478106595695,
      0.6076484528449674,
      -0.7071143699420486,
      0.601096499001561,
      0.18871592678412988,
      0.1163387602290897,
      1.426311104207181,
      0.2083905747708788,
      -1.0783650300137377,
      0.28578448175273463,
      -0.4095236345071453,
      -1.4992739964376458,
      0.5273295960295753,
      -0.028445177348728364,
      -0.5191565400895441,
      0.8989912112017835,
      0.4988688745887717,
      -0.8720693273959527,
      0.6047140505829773,
      -1.0139517058127108,
      -0.9316264109216169,
      -0.7013958409204996,
      0.06708113793529367,
      -0.049686689766075216,
      -0.41793480775008607,
      -0.7627546598572265,
      -0.010233728369221649,
      -1.082987821602403,
      1.693476352383747,
      1.556493196243733
    ],
    [
      1.2283293518289629,
      -1.6828473355891689,
      -0.908902437999054,
      -1.1746218423570134,
      1.7015083013753067,
      0.5721480388487628,
      -0.19371743089361956,
      -0.1136401914385901,
      1.1145886688419986,
      0.26185459169190906,
      0.501249099526163,
      -0.27317992598228585,
      1.850770329986261,
      -0.8298706083609901,
      -0.16354898495278086,
      -1.4255537410240149,
      0.09282346005092625,
      -0.20201146103149636,
      0.16524106358966428,
      0.431401605724934,
      1.143601774588953,
      -0.42568157339035706,
      1.0624165345546586,
      -0.1385381355386305,
      0.8614065805742391,
      -0.7477628454341892,
      -0.9694713886347038,
      1.7925869817163345,
      -0.7308692657266675,
      0.14011305133860494,
      0.24968720416887444,
      1.1875835850262537
    ],
    [
      1.3310766898110953,
      -0.5699110693399299,
      0.18843806310133054,
      1.3481666192339576,
      0.401358709910122,
      0.06350632812616254,
      -0.6625794719388943,
      -0.053485728506576465,
      1.6618379021456267,
      -0.14020900911171336,
      0.9876235108835507,
      -0.8533315023249477,
      -1.7856270021946268,
      0.3063097554172534,
      0.043973067765385176,
      -1.2651038982926177,
      2.0983813178132515,
      0.7522492937594446,
      -1.5211240917366236,
      -0.8758704335846317,
      0.00745468557267247,
      0.16001535411676587,
      -1.3957104508846556,
      -0.7921152029702484,
      0.14955442941064842,
      -0.7365534099434397,
      -0.32737433391546095,
      -0.11123057448167051,
      -2.791413216726811,
      -1.5388794266209012,
      -0.5628865094428782,
      -0.22524691767111757
    ],
    [
      0.24460306165205745,
      -0.3399057172861865,
      0.5415423618284217,
      -0.88847615920126,
      0.07060985267254778,
      -2.722960421500311,
      0.16376438082380307,
      -0.4268827703023169,
      1.1732958415287598,
      -0.24449435774128572,
      0.10349030061866632,
      0.9776724920531057,
      -1.4774399131034643,
      -0.406456199243017,
      -1.861066663647546,
      0.6858787197688384,
      -1.1622504931278443,
      -0.4120300478744637,
      -0.8024920239295344,
      0.8258304551149738,
      -1.515588084303005,
      0.5926260939863041,
      -0.7687157290721761,
      0.927612270106264,
      0.5801315837959645,
      3.2010388363460422,
      1.3990156781681153,
      -0.07814308713902007,
      0.39165506260790184,
      0.6764049565901835,
      0.8770839252909036,
      1.0685601827860352
    ],
    [
      -1.8253429617809107,
      -0.8564864969696787,
      -0.7260773592249169,
      -1.630306777848522,
      0.39701416259052,
      2.1608766596842193,
      1.2525238469452236,
      -1.4699406678888274,
      1.4216521528555317,
      0.23391230979606667,
      0.09821637077369741,
      -0.8596108459122337,
      0.9486796332094033,
      -1.6145649766205112,
      -0.3435186672324142,
      -0.34664486783235937,
      -0.7127168484375732,
      -1.05754454779101,
      -0.5969455546446877,
      0.869982159685541,
      0.5553777999521126,
      -1.1701801905279736,
      1.391124110981037,
      -0.6215196363064497,
      -0.11089156419597582,
      0.883615636189863,
      0.3784248861503729,
      -0.7220001450170815,
      0.0037221042165748114,
      -0.7325600804771046,
      -0.3985077962232545,
      -0.48758746050918084
    ]
  ],
  "hidden_weights": [
    [
      -0.5936787951501589,
      0.6679072886919478,
      -0.059357680517476814,
      0.591460234175963,
      0.45808452612470013,
      0.23397280253564412,
      -0.5839657503197248,
      -0.3810330465072084,
      -0.09796810965561083,
      -1.9279504542459318,
      -0.45596971230338923,
      0.16484669705025545,
      -0.298980620193169,
      0.9270668573331994,
      0.47736338898739633,
      0.2670333231465554,
      -0.6924434927246188,
      0.4558668485701153,
      0.665311057999665,
      -1.5432929150634684,
      -0.8784397098664651,
      1.1627895032318096,
      0.4498801700010598,
      -0.314997143348365,
      2.0536072459282315,
      0.7620907887527533,
      -2.257901356800884,
      2.296375746948242,
      0.15618652402146013,
      1.7177322615612254,
      -0.3735510020624184,
      0.5558725411894594
    ],
    [
      -0.2313563102029776,
      -2.3080877612328923,
      -0.5527106957637221,
      -0.40435128721387037,
      0.9123996960531997,
      -1.181300999798417,
      -0.1253186213056372,
      -1.3280826350526365,
      0.8052882799888165,
      0.24213633422858744,
      -0.6314615432217042,
      0.4130118703050202,
      -0.7647720055455974,
      0.0425733313824805,
      -2.26041344019367,
      -1.6070868805871001,
      -0.23854053156183797,
      2.1870348809264897,
      1.036983206182937,
      -0.1294063539457588,
      1.893424658719683,
      1.6605180569781568,
      -0.4895294824007644,
      -0.5959378800919636,
      0.4230483165710552,
      0.8044820061425527,
      1.2420268176272131,
      -0.2649426177160101,
      -0.4005212097874473,
      -3.105521442500247,
      0.36498542432122427,
      0.39117624698941766
    ],
    [
      0.056116806598501406,
      0.7912654212195048,
      1.7816950454458482,
      -1.0889224468327132,
      0.8485948640718755,
      0.31019100619262896,
      1.0284625875439208,
      0.49068219459554224,
      1.923192342481899,
      1.6856812812123076,
      0.46324468250465234,
      0.1764620982394637,
      -1.4071793507961827,
      1.8150155015582043,
      0.14609055331194915,
      -0.13754799389190256,
      1.1056896712157933,
      -0.22045721805786642,
      1.354001729991592,
      -0.7606970143930157,
      1.7788625124170936,
      0.14682093054599216,
      1.5874241567000449,
      0.8549538952834521,
      -1.0286645389698426,
      -0.6679161018568897,
      -0.3678499173969149,
      0.8490252655361955,
      0.5272282511620034,
      1.033067812020437,
      -2.211298481732839,
      -0.11412279513065059
    ],
    [
      -0.015561333699252824,
      0.45384993784876243,
      0.6673511354592117,
      -0.6938580576207511,
      -0.5777589425362522,
      0.7833895462465845,
      -0.17446348451655433,
      -0.2597385155006028,
      0.5723959659395912,
      -1.300467658187436,
      -0.9172667144979376,
      0.6725855453297546,
      -1.302781889847168,
      -0.16394202372820724,
      0.7464981376830045,
      -0.809574398893714,
      -1.3602243367541618,
      0.6904281450194774,
      0.7671750691767988,
      -0.37121975215853686,
      -1.4395413193865987,
      0.6493095525225505,
      1.1835026981970627,
      -0.4572856023762372,
      -0.8724423553506127,
      -0.7957609920407812,
      2.6515566170740925,
      0.5919802650746396,
      -0.19833019979861993,
      -0.18481151863216494,
      0.0060321318159018535,
      0.33577425973137376
    ],
    [
      -0.4350528826414456,
      -0.12279206943142339,
      -1.0623509643627231,
      -0.9504080032041773,
      -0.5607169968143227,
      0.6570611057802132,
      1.9557406799989854,
      -0.3027193388491792,
      -1.4447932215838495,
      0.30087228338520255,
      0.3928424149956155,
      -0.11135987398310082,
      -0.26183853190351397,
      0.8015655081868329,
      -1.2788503214913136,
      0.7857027873259037,
      0.5951454324924277,
      2.1790209825821893,
      -0.8807279378035255,
      -0.45312518296848275,
      0.3510750671239734,
      -0.16432780667529653,
      1.7063391451102392,
      -1.0634934334753827,
      -1.3571509354684075,
      -0.13252943446230778,
      -0.19021156391089186,
      -0.01685236374793463,
      -0.35085857031697976,
      1.5947943879622783,
      -1.3034427910333823,
      0.2403338998537988
    ],
    [
      1.3034507092310204,
      -0.44120805615478215,
      2.0257114603171433,
      0.2850638796042688,
      1.012920446868745,
      -0.7727810942754618,
      1.0020059789848823,
      -0.2022722016946718,
      0.2032985886767052,
      -0.167198158160177,
      0.5826740715136003,
      -0.5701798120293058,
      0.5345660728097554,
      0.4488127132501127,
      -0.6944207408224136,
      -0.3154002547359062,
      -0.9244644425533612,
      -1.7781422991342106,
      0.3591504857852665,
      -1.132468672937638,
      0.3881378027599171,
      -0.9205968830867166,
      0.46415212929186817,
      0.9571256886260088,
      1.7167818291426085,
      -0.774977233488379,
      0.07520596418857169,
      1.143310094221602,
      -0.9160783949931715,
      1.9328813073799669,
      -0.8259982305155348,
      -1.4833828562767755
    ],
    [
      0.42628684805388506,
      0.4775930327653995,
      -0.3684949422273619,
      1.2194073792223985,
      -0.6392149875299749,
      -0.07021779914368778,
      0.02453052314681543,
      1.4217791981707388,
      1.305941210588559,
      -1.0887244032555727,
      0.2999007342477206,
      -0.3621220930297865,
      -0.01873136072830651,
      0.3096408297154996,
      -0.0901260737663572,
      0.876314021928346,
      -1.3060526593264816,
      0.8626804534418577,
      -1.130108875352816,
      1.4556765641171985,
      -1.1354663086686065,
      0.5643718650762433,
      -1.346207128830161,
      -0.18864656933852067,
      1.2334588233113237,
      1.48272628678322,
      1.3161229315016565,
      0.7816312352158556,
      0.668841668478805,
      0.7409510733719424,
      0.06955846084349557,
      -0.49946396672050763
    ],
    [
      0.23941653159430304,
      0.28713981947778744,
      1.1243415801928376,
      1.496607176132528,
      0.03521122489010734,
      0.2698898009806949,
      0.04236737568846015,
      -1.6842120561815699,
      -1.988408072376198,
      -0.3759164566719087,
      0.04413195767713989,
      -2.1539527954531734,
      0.11570231143028438,
      0.5324657758403735,
      1.2136975439205526,
      0.5989519461295144,
      -0.3732390193500966,
      -0.48989653339949013,
      3.0810703852022487,
      0.24465322147325944,
      -0.4087352418192947,
      0.6960629976479443,
      -0.8570141691577302,
      -0.2610999430672448,
      0.04910274350081184,
      0.718249046836832,
      0.7779844723023922,
      -0.7883851126863247,
      0.4611102563501898,
      -1.1805122506570267,
      -0.09932734345992118,
      -0.5668652516212829
    ],
    [
      -0.10944441021321791,
      0.2599737285437386,
      0.46629160107520384,
      0.9606746108606284,
      -0.45904927895525816,
      0.3546700156150806,
      -1.503474900587194,
      -0.795752330819751,
      -1.0442939363723287,
      -0.7599857336406455,
      1.5180421979495682,
      1.0741717332371052,
      2.4605552555701165,
      1.1269535528353194,
      -0.0902812260916935,
      0.5052247524590499,
      2.766700995417517,
      -0.33040897185342655,
      0.9336707494201069,
      -0.32039785999868137,
      0.5339489361583025,
      0.29742553635103697,
      1.375749999110371,
      -0.6228690087930613,
      0.9956158482029562,
      0.5543091144510545,
      -2.202098357122733,
      0.08554773622610716,
      -0.8519599786168741,
      -0.8595303817996558,
      1.2667533104062767,
      -0.11015167311752673
    ],
    [
      -0.011820213687074694,
      0.1942694028107821,
      -1.2975149357856117,
      -0.9948374061081254,
      -1.336083712368323,
      -0.7434669375638026,
      1.3041399034904126,
      0.11399755228108836,
      -2.8144197252171392,
      0.707596838083537,
      -0.40540683507435415,
      -0.6335963485897551,
      0.07129923991614079,
      0.11060130637620298,
      -0.1377434589855795,
      0.37508171013556013,
      -0.3128454950527405,
      -1.132592518964693,
      -0.6642802891299806,
      0.7409516884016397,
      -0.8005392889711295,
      0.3482046531390303,
      -0.5155027403804653,
      0.040985804815917494,
      0.1712362039568613,
      -2.360475661934575,
      1.2872150381202636,
      0.9422494062781801,
      0.6663138976255343,
      0.578040900949077,
      0.6643427160049676,
      -0.36968540398724503
    ],
    [
      1.898882244994263,
      1.1540129427580135,
      -0.7726028086613174,
      -0.3724619512738072,
      1.2599848631236232,
      0.688834861167591,
      3.242626968114777,
      2.3918339637714885,
      -0.7074858148015405,
      0.9390456060470821,
      1.608381252332445,
      -0.1727652007900039,
      0.996233804932178,
      1.1849804030386026,
      0.6186583244111066,
      0.20260849054180888,
      -0.8999297832633046,
      0.9356764778906249,
      -1.1766501999642032,
      0.4787409455915818,
      1.7048126863433268,
      -1.4239524512093276,
      -1.525171648863081,
      1.9779759808890711,
      -1.8296344888707095,
      -0.5632096803711115,
      -1.171819821604544,
      0.4318063402130154,
      0.24251126821011298,
      -0.41071290238046937,
      2.477912238125225,
      -1.6117425316370653
    ],
    [
      1.2594459371249225,
      -1.7772872437394625,
      -0.648850900150537,
      -0.7044127757979909,
      0.5719841843592819,
      -0.3914383569710581,
      0.5690543443449694,
      -0.10893386380512099,
      -2.0342775061785017,
      1.1971375746677237,
      -1.2807742178125305,
      -0.9288444001754448,
      0.27732419714848194,
      1.215687143991729,
      -0.5961864740475682,
      -0.22529028200754436,
      -1.2247957273666845,
      0.30853195397585864,
      -0.961770695388129,
      -1.0234018530687747,
      1.4476905360747936,
      -1.7463018523991602,
      -0.6839534799501265,
      -0.31664547602037946,
      -0.2895353449711046,
      1.3174194959547603,
      0.5220375578642616,
      1.6706020643608488,
      0.5112086370458696,
      -0.762429251507938,
      1.2934910506210018,
      1.2583882030485896
    ],
    [
      0.37058092624402456,
      -1.3741647896490523,
      1.423803381185413,
      0.4442965310518434,
      -1.4094443052985537,
      -1.0812482811262496,
      0.491025648431347,
      -0.908472851824895,
      -0.24573178865096357,
      -0.0066631167272589425,
      -1.7477184442378015,
      1.6659032734510584,
      0.14071936706878907,
      1.3208967232698594,
      -0.447193453352188,
      0.2796337712687922,
      -0.2647458345524139,
      0.7843059257727034,
      -0.8799258652841296,
      -0.4705338065451989,
      -1.614188477268789,
      -1.1465234029892182,
      -0.22214957813236316,
      -0.08357200695948182,
      0.25672566913418293,
      -0.5155918166078811,
      -1.750815570128932,
      0.1938543481189794,
      -0.4199827561031544,
      0.2883962444185401,
      -1.0486541603569028,
      -0.33352026248505917
    ],
    [
      -1.7016255654342907,
      0.6477780723662663,
      -0.7323006715822714,
      2.0094674049305645,
      -0.7588991817313795,
      -0.6308945705761941,
      0.10575823534542783,
      0.12746735088907954,
      0.3353516393522061,
      -1.7418708210162432,
      0.8218420818140681,
      -1.40432915726437,
      1.1212118484994527,
      -0.9072691618129685,
      -0.44016073447044096,
      0.5200077974777885,
      -0.12677168213938603,
      -0.17723027318422108,
      0.10030458878639331,
      0.4970328714207129,
      0.1997723356875447,
      -1.5493954116671311,
      0.4281510751464368,
      -1.3245545476360499,
      0.21920398900676358,
      0.7587286747855287,
      -1.5867310806397916,
      1.2018978356919043,
      -0.47817987091651737,
      2.2398846336964655,
      -0.4921397205160717,
      -0.033629831228101155
    ],
    [
      0.9051156462128253,
      -0.553338849451938,
      -0.8250959030722121,
      -0.06044270110334533,
      0.4129130679518111,
      0.07611441637867863,
      1.1282790208132376,
      -0.3452453755908925,
      0.9391577924754159,
      2.0423941104857435,
      0.6311170418882556,
      0.7170675800889391,
      0.48713784869556565,
      0.1724785334873544,
      -0.08595082212700425,
      0.6303580377844031,
      -0.149778734613555,
      -0.7116435100105845,
      0.5292304674221485,
      0.10498543744245954,
      0.30793597505286197,
      0.16434506418069905,
      1.6460608748060328,
      -0.22965474213790638,
      -0.623182634619542,
      -0.22779143303544896,
      0.5050842049711612,
      -1.0828534404197416,
      1.0637861085851796,
      -0.4125039782323969,
      -0.9601388090813292,
      -1.9550043982986844
    ],
    [
      -1.136359175466269,
      -0.5156597713543655,
      0.22921058895440963,
      0.2195328448607416,
      0.07163152259174818,
      3.190094851829182,
      -1.9528739737167748,
      -0.2751212661858235,
      -0.24823077600553528,
      -1.2461293590124867,
      1.1784977400261885,
      0.7013324443928154,
      -0.5998962745740994,
      -0.8193875059337892,
      -0.8829374665604692,
      -1.9575223368977026,
      -1.0224657544373303,
      -0.3151940984366991,
      -0.01756536109046877,
      -0.12683683441660654,
      -0.8668836158144527,
      -0.381323408075592,
      -1.3406612335999921,
      -1.4114544367046593,
      0.21026753120590366,
      -0.2045893139815704,
      0.11756030081651851,
      -0.012389175041452292,
      -0.6491634631304903,
      -1.2597709090830356,
      0.7847532577752687,
      1.1867460782633221
    ],
    [
      -0.17895066321959666,
      0.9398439395195607,
      1.360930691081084,
      -0.14261476308970913,
      -1.164178524138229,
      -0.01678457297828734,
      0.19826420655195415,
      0.39087876674266014,
      0.8707145825330274,
      -0.36005699474303293,
      0.008497248386253589,
      0.27157703698655977,
      -0.42289354456274453,
      1.0030461242307969,
      -0.11525093879364139,
      -0.06588280887717468,
      2.004451136383556,
      0.5637559490770968,
      -0.9282723180604866,
      -1.3449767882086798,
      -1.0487752645310535,
      1.2017060202350944,
      0.8405113964624635,
      0.06514654890007453,
      1.1467723418586482,
      0.5434580564114427,
      -0.9272873209981556,
      1.7278258227341168,
      -0.2803810442560493,
      0.9306921339649384,
      -0.1434165148304776,
      -1.717222966994515
    ],
    [
      -0.8289330023717809,
      -1.5345489009881996,
      0.4827024088146882,
      0.7911121050867873,
      -0.23078978840842979,
      -0.15234279541031223,
      -0.6382721820807296,
      -1.6549332197574183,
      1.3488071996652393,
      1.1490793526468597,
      -1.693434903293657,
      0.7803356474798696,
      -0.43222123879338553,
      -1.0012533961705605,
      -1.0600608332323749,
      -0.6699998220012705,
      0.15811938212230814,
      1.0785010497686174,
      0.15146953733683874,
      0.24851639904374476,
      0.7712713661406349,
      0.8403286407728973,
      -0.01258340510197582,
      2.2365402735209523,
      -0.006505712924693509,
      1.4614898082498746,
      1.3076136254227153,
      1.2952725880588143,
      -0.29178794963935173,
      -1.1672427832795376,
      0.9003932845851247,
      -2.1421667685132193
    ],
    [
      -0.23155372391735243,
      1.032720229280402,
      -0.21388194730225962,
      -0.6878082545763223,
      0.09191867654715921,
      0.11772252256224282,
      0.3581355303174957,
      -0.19122129717131536,
      0.148198720387093,
      1.271133547889048,
      -0.33235036135755397,
      1.1352495377507608,
      -0.5962857969065111,
      0.3191376903569744,
      -0.5715035759043265,
      0.26108426639816684,
      1.1921274402424584,
      0.36667608482256053,
      0.3030780850000964,
      1.092653599355133,
      -0.149899507080296,
      0.8695947161607792,
      0.681122421188827,
      -0.6978661911028202,
      -1.05399527065618,
      -0.4961858818742389,
      0.967259088368226,
      -3.257450647902106,
      0.22310515975567502,
      -0.7507857652866217,
      0.30636900063822214,
      0.2132274062564285
    ],
    [
      -0.11406203009066282,
      0.010376289978395705,
      -0.7367224857543111,
      -1.209744171867874,
      1.30455186040815,
      0.8134091705427018,
      1.2614110226321757,
      -0.09256232728806696,
      -1.729319969842957,
      -0.1472493138142391,
      -1.1475710281104985,
      -1.5595375318601377,
      0.15928814705107958,
      -0.18079147191573924,
      -0.7901198588219472,
      -0.7716396645282964,
      0.2782459614317902,
      -1.0881372307924875,
      -0.13787621891583338,
      -1.06364040480232,
      0.5895404102645139,
      2.208927992327839,
      0.4604989093498529,
      -1.0147161312808521,
      -0.3522329887760762,
      0.6559539472105173,
      -0.7332446836566746,
      -0.09969481374401186,
      0.6768515026054132,
      1.3482358836099138,
      -0.06668231030641374,
      0.69333563911697
    ],
    [
      -0.5195695144918704,
      1.4615365980653117,
      0.7615360192288914,
      1.1703158455102372,
      -0.5445060358532255,
      -1.030535286382376,
      -1.618141619036286,
      -0.005228741190754836,
      -1.761511454967711,
      -0.5368975575873468,
      -1.2646250047165506,
      1.8606363148578187,
      0.1480168957059408,
      2.262566576229473,
      0.2685747628613996,
      -2.080152040485444,
      -1.7254402403903955,
      0.5288411920975202,
      0.5795562447387755,
      0.2936925686357239,
      0.8963514356373404,
      0.54432871250858,
      0.5660706169209884,
      -1.617955222179148,
      -0.44096619423484695,
      0.14707929604308745,
      -0.0879003311898427,
      -0.30780073013441794,
      -0.32603875104616453,
      -0.4337223073925341,
      1.5222774712427596,
      -1.5433482448378544
    ],
    [
      -1.24399308097268,
      1.5901066720440646,
      0.031141272711342004,
      0.14190814062091356,
      -0.8026085094517188,
      -0.9997857907475786,
      -0.17421485467827352,
      0.8733094493730861,
      -0.2202927030583426,
      1.7226500514372314,
      -0.4713218106026734,
      -0.07260003441160745,
      -0.5616026579128357,
      -0.4876630058527535,
      -1.3852427260400857,
      -0.17622788724141505,
      0.5598848874164377,
      -1.2314177637664203,
      -0.5117139958737604,
      0.3624776067266448,
      0.6797706495852994,
      0.8429244658719796,
      -0.27602162945058556,
      1.5643638765422045,
      2.4054676742602408,
      -0.6947969558647342,
      1.9387059715184034,
      0.35602770834494796,
      -0.14162079120291587,
      -0.3977848864265401,
      -0.60005856539549,
      0.6946598856228642
    ],
    [
      1.2067434856275852,
      -1.7425535785088413,
      -0.05298390496761671,
      0.5830032201378428,
      0.9547519912570432,
      -2.106966920557266,
      -1.4876431327902866,
      -0.3916942271692071,
      0.27814903572726274,
      0.2569014323948631,
      1.5107043555255002,
      1.2534519287857886,
      -0.27280938501216234,
      -0.6914415851087281,
      0.5375892700506381,
      2.498799232637859,
      0.35918225306583035,
      1.1342712397220034,
      -0.6894469114938027,
      -0.755371354136752,
      0.14000143350244085,
      0.1615692678627314,
      0.6939841514787775,
      0.43877340555121724,
      0.5387141480821318,
      -0.6837669184845133,
      -0.16948028971093484,
      -1.5439120124112404,
      -0.5820015434928607,
      0.17706789668709555,
      0.28185485515708664,
      2.094482853731025
    ],
    [
      -1.5476450078193977,
      0.34751660168462806,
      -0.018407748404387428,
      -0.9422499916100843,
      0.6066935239141202,
      1.048835098307764,
      -1.074840283084433,
      -0.41368809537532486,
      0.35819630880011255,
      -0.6179327166574475,
      -1.0693306978786354,
      -0.32470929908995333,
      -0.9717591120151982,
      -0.4491914732677358,
      1.0770804651880646,
      0.604174661586334,
      -0.4862680785827451,
      -1.408722292360313,
      1.3161849214805343,
      -0.5659032826519625,
      1.5805893587836428,
      1.1900712875033383,
      -1.2519969655536785,
      -0.04822321268703543,
      -1.8031791038733023,
      -0.9599311723801573,
      -0.06979853558384475,
      -1.1047446056490768,
      -1.0912694881335672,
      -1.1025400887605026,
      -0.518963273280814,
      -1.0694411335219787
    ],
    [
      -1.2706344373426286,
      0.6899456759325069,
      -0.9814234292614705,
      0.15361263818867874,
      0.8820141613400136,
      -0.9623674763561245,
      1.6151783907197403,
      -0.741422167894514,
      -0.5654481252461699,
      -2.2995172120363394,
      -1.5194182294290577,
      -0.1464670963173065,
      0.5837451388524733,
      -0.005643076946517827,
      -0.8926049267129971,
      0.017384451827737287,
      1.2375167430872576,
      0.5601697417682795,
      0.9974553660001392,
      -0.025106871755301324,
      0.05928060610028006,
      -0.20523258326418073,
      0.3531703272360434,
      -2.107996182055642,
      -1.4408063658991532,
      0.42798690719372406,
      0.20769555655649183,
      0.9709645004531483,
      1.3626361376800422,
      0.06230082543001529,
      -1.1169418796644828,
      0.584990682143968
    ],
    [
      -1.9624862287240321,
      -0.4873276236566283,
      0.8504082889181054,
      -0.9998462194078395,
      -0.2941804582696467,
      -0.03158331449571539,
      0.9004883914685547,
      0.5513408155280857,
      -0.07204071715515085,
      0.18935902921611653,
      -0.7842635123811899,
      2.8299812585088877,
      0.8563202719432843,
      -2.4056986931059168,
      1.017110022343419,
      -0.4542540351552666,
      -1.2776963686934468,
      -0.2374017264121047,
      0.7549392083084265,
      1.120637799940284,
      -1.4185478565368586,
      0.59214270709434,
      -0.030677017330288534,
      1.1810107329389985,
      -1.4178467607733696,
      1.0338725850204848,
      0.6624537425361564,
      0.8488485174280704,
      0.7060802369744104,
      1.8027781328579326,
      -0.9666435547709658,
      1.0818309675748436
    ],
    [
      -1.8873259621931053,
      1.3108244617539038,
      1.030354552528294,
      -0.8057603072025757,
      1.257590809287492,
      0.2642922858933614,
      -0.017726543304448516,
      1.6408777080257333,
      0.15607088535639904,
      -1.1955310444867213,
      0.47884780772938257,
      0.11932115606004529,
      0.5613707977263089,
      -0.7647052881203289,
      -1.3048131416334252,
      1.879633801019914,
      2.083687172596326,
      -1.2749741659324296,
      -0.19607838375789716,
      -0.8652633153706869,
      -1.5821871055672965,
      -1.188659989866992,
      0.8392540877909968,
      2.838110774094955,
      -0.3834394938736884,
      1.3253754732018233,
      0.2899129976954336,
      -0.6055281677345681,
      -0.3566094935996749,
      0.4470199359489384,
      0.35811438482894714,
      -1.2788129006968454
    ],
    [
      1.2736950775643952,
      -1.0970552626495904,
      0.7582802087866486,
      0.06640270691843009,
      0.5203938356306967,
      0.7857795717402766,
      -0.4850180936139723,
      1.2159213748321336,
      -0.3237393235087555,
      -0.46571138846057647,
      0.7148494522600864,
      0.7421096184212099,
      -1.1267253752577493,
      0.36099344031453395,
      -1.068953324478093,
      1.531338416896763,
      0.4915667543176855,
      -0.5639997921539207,
      0.868069942633184,
      -0.9875007814613266,
      -1.2080953049222916,
      -0.11772258033296393,
      1.5128114428817279,
      1.2999338977553392,
      -1.2046988719199307,
      -0.23325152312078015,
      -2.7359335684370656,
      -0.21626752270465735,
      0.18071526174798333,
      -1.0568604481673987,
      0.685977296629641,
      -1.838238663094587
    ],
    [
      -1.261009499587893,
      -0.09673718519896142,
      -1.1105511814166402,
      -0.8470968971143652,
      -0.6622024606669703,
      -0.4597670893010319,
      0.48656195127097696,
      -0.4291523843814238,
      -0.7179873404808468,
      1.6069670952034618,
      0.9902213543890456,
      0.01253542954069244,
      0.9840367274891979,
      -1.2768466400012368,
      -0.7810528250289868,
      -1.9369834488509219,
      0.007274966387143717,
      -0.5857902032697566,
      -0.4869937321070183,
      -0.9494795279061354,
      1.3258919320032572,
      -0.46144625583118526,
      -1.055358096597862,
      -0.8739843814332862,
      -0.7728027141256617,
      0.36634748414424784,
      0.007393851117547172,
      1.0535867089822175,
      -1.2766529086237146,
      -0.6694580814240242,
      -0.38761004557730555,
      1.4105584880627842
    ],
    [
      -1.6629422543924668,
      0.6285065160845558,
      -1.1142477466641005,
      -1.857704772654208,
      -1.0666793390672802,
      -0.5061258420578401,
      -0.0753370335847049,
      -1.2214028196482776,
      -0.1702528823995467,
      0.1818152374865772,
      0.22344124050571962,
      -1.0591941601553239,
      0.24131992419423154,
      0.525302348036492,
      1.14870789686025,
      0.5683525456194585,
      -0.3603995916959409,
      -2.369312091822093,
      -0.29239597348952107,
      0.6375783260856335,
      1.6458492119131214,
      -2.1697309672830256,
      -0.6957880911865214,
      -0.16057284309272007,
      1.2599371922969957,
      0.14944448580661793,
      0.9816910005997569,
      1.3923289561124557,
      1.1953856101471922,
      -0.15144295087141318,
      -0.5014203427217357,
      0.038658401308097945
    ],
    [
      -0.5630398417548959,
      0.036134874014768996,
      -1.281897649736342,
      -0.2382320509145553,
      -0.5961497027917138,
      -0.29680751968284896,
      1.6161217110666084,
      0.9731776652037302,
      -0.3776274752297257,
      -1.3231602183336808,
      0.02138234291452099,
      -0.33490104470652515,
      0.5709608304921773,
      0.8426488131059061,
      -0.25210007691633257,
      1.434312233548702,
      0.2367497638291734,
      -0.15549739317626493,
      -0.8266678057145724,
      -1.4297025649923134,
      0.47734089023196935,
      -0.20538856662314323,
      0.2965009382651164,
      -0.1609331656835688,
      0.6097082735324576,
      -0.006276014026963491,
      0.37031533198741695,
      1.2103750708839094,
      -1.0266304571568536,
      0.14944950220392605,
      -0.015120819666696771,
      1.0009505750613281
    ],
    [
      -1.38889701745148,
      0.12472482671156232,
      -0.39870775710823975,
      0.6712214162240572,
      0.8524136341455169,
      0.8145766430328526,
      0.012876238035117843,
      -0.7701593113296734,
      0.9963471160866385,
      0.4928214807379336,
      -2.026428358924064,
      1.7976901638591924,
      -0.3201718671466189,
      0.949175285581748,
      0.015017253185629421,
      -0.7370824878760235,
      0.6586582922270567,
      -0.263095664384339,
      1.4823944150883448,
      -1.502463696306703,
      -0.28894104726992964,
      -0.6398198265406735,
      1.0537364024050209,
      -0.8967680697424446,
      -1.0691986935201219,
      2.614307501886573,
      0.03145124385282187,
      0.9761581412111526,
      1.7742646857927733,
      -0.44609249567794385,
      -0.0757966365489068,
      0.17874278723401207
    ]
  ],
  "output_transform": [
    [
      0.9771546822320976,
      -0.5700709573104712,
      1.1319527759983825,
      0.5350834164265366,
      0.21289219973923904,
      1.140905691216076
    ],
    [
      -1.1390174156364161,
      0.716318156384197,
      -0.09812223655203313,
      0.6692840000683878,
      0.3998914907074541,
      2.26467980775262
    ],
    [
      -1.3871465854762794,
      0.43842161410831487,
      -0.7985146073792188,
      0.17510250773846114,
      -0.5259568581678422,
      -0.6087020080091757
    ],
    [
      0.6189637281849372,
      1.566861937270828,
      -0.3791459824027953,
      1.5934911619033696,
      -0.49685355449169527,
      0.8844501037679708
    ],
    [
      -1.0550172906772555,
      1.667113345815979,
      -1.286996156597108,
      0.9951301243560092,
      0.8580749825158253,
      0.6147711383747007
    ],
    [
      -1.6544676430510683,
      -0.694087017492748,
      -0.2788454936417323,
      0.2530837213287807,
      -0.006936372626637651,
      -0.6319706932881276
    ],
    [
      -0.7985210038023025,
      -0.17199097296735802,
      -0.31633186817411996,
      -0.22256966811703593,
      -0.4887373376561364,
      2.3583789463138567
    ],
    [
      0.9920902107075976,
      0.48082802985913914,
      0.16891592610922446,
      0.11355221836261559,
      -0.05757599297612118,
      -0.8867749752844799
    ],
    [
      -0.48250388975885805,
      -0.7324111925000187,
      1.9510466802155828,
      1.8905107427070766,
      0.9789705709463195,
      0.033245885071735426
    ],
    [
      -1.9575247147161465,
      0.6168015450763721,
      0.18380614885510382,
      0.30669874506191624,
      0.6685574762495912,
      -0.8914953187613606
    ],
    [
      -0.06341126380105008,
      -0.9160547216950985,
      1.8342503080009436,
      -1.0757168663233947,
      0.9168137817933714,
      -1.2516757192014691
    ],
    [
      1.2297999374677762,
      -1.563498551720058,
      0.644107506686035,
      0.04703383367919187,
      0.8946551699888073,
      -0.2386484377448649
    ],
    [
      0.8887825188627668,
      -0.08940587976070508,
      1.0190312593289714,
      -1.1391346984364734,
      0.44063878577137944,
      0.662185375055538
    ],
    [
      -2.138435816716916,
      -0.08600480685689206,
      -1.220315350395037,
      0.06509050646130342,
      1.458459675140544,
      -0.4275116622124396
    ],
    [
      -0.13251950698853024,
      -0.3946857006420136,
      -1.1926001848986532,
      0.19709047705345503,
      -1.083587093613104,
      0.5345814485655493
    ],
    [
      -0.036198739618375865,
      0.829307171613478,
      -1.6048571594313463,
      0.7595237430696739,
      -1.1002624343849972,
      -0.024024110856202655
    ],
    [
      0.4196070082177885,
      1.367890387597835,
      0.6677564863701048,
      0.3304478547211951,
      -0.3485346650018598,
      -1.0567640133599607
    ],
    [
      0.8039941417440037,
      0.9207829157901416,
      0.8862608363576149,
      -0.1336417016483119,
      0.7336534473377874,
      0.023446875382615813
    ],
    [
      1.5958643299363173,
      -0.24357624629611102,
      0.3552793843275426,
      0.13856362886809767,
      0.43350399391313305,
      1.0123971089110564
    ],
    [
      0.10431743847748175,
      -0.18218276049701448,
      0.05765923292663531,
      -0.4574441496641744,
      0.5265518074145877,
      1.266020769894995
    ],
    [
      -0.6792696473259423,
      -1.8926050141665103,
      1.292026253509828,
      -1.1538534915123462,
      1.1411021006186126,
      0.46258007196565354
    ],
    [
      0.9541854334560935,
      -1.3016580298074143,
      0.35270236133854316,
      1.8727505235718698,
      0.4579173903495543,
      -1.4193707274615488
    ],
    [
      -0.19093314220253854,
      0.20396854158530173,
      0.9464321365392089,
      0.2690702332741375,
      0.8445514069145335,
      0.2835741728884025
    ],
    [
      -0.3766031210622004,
      1.075877477630303,
      0.6447153241319183,
      -1.1891909408768173,
      -1.6544507729387559,
      0.2191592315157496
    ],
    [
      1.4829962098770249,
      -0.6991251127735403,
      0.012844600748518434,
      -0.878953339291082,
      -0.3598954659188214,
      0.3508927171608799
    ],
    [
      0.8792772019181997,
      -2.0351767527350346,
      -0.8439874681274231,
      -0.48692107482592834,
      0.7155013550857949,
      1.1208393785155233
    ],
    [
      0.840209190462093,
      0.45141666768150296,
      1.317918485225236,
      0.528108948772574,
      -1.6990548239979941,
      0.03797313440036771
    ],
    [
      0.0450683562707603,
      -0.5030362786722806,
      1.0081027093480641,
      -2.1445891342029006,
      0.03773602467586033,
      0.712648847312511
    ],
    [
      0.05655530340013538,
      0.021112524846751683,
      -0.46967745987158876,
      -0.2480484248585169,
      -0.1303080057389134,
      0.0959131969130902
    ],
    [
      0.24859704462866994,
      0.8289685562627048,
      2.1276817570124513,
      -0.44824254570385413,
      0.6816572424677273,
      -0.6842623575544514
    ],
    [
      -0.9625761358439184,
      -0.8443824334806136,
      0.6091921639210288,
      0.5236577005145354,
      1.0240931148493644,
      0.4664500336345482
    ],
    [
      0.16837392460418346,
      0.06996344497203622,
      1.229859531013606,
      2.0497088809079926,
      0.9793370339609273,
      0.3514716393275199
    ]
  ],
  "bias": [
    0.005624252302000814,
    -0.29723219561735803,
    -0.6957033988523581,
    0.5526821932461261,
    -1.2248770814380554,
    1.0224004857611557
  ]
}