{
  "input_transform": [
    [
      -0.9387393175934443,
      0.055877091452957384,
      -0.8762131787360018,
      0.04894238436044393,
      0.7697635024763807,
      0.04174025814174687,
      -0.8473282734881866,
      0.882220292757674,
      0.44230657114512606,
      -0.6524105813457446,
      2.3555489011604407,
      0.14511721273441025,
      -1.8412837893637657,
      0.32456824641152754,
      0.22859029845847695,
      -2.0238637482418054,
      0.2825180090188214,
      -1.4348705827346102,
      -1.0069163239689638,
      -0.3538641574189165,
      -0.9750660718873907,
      -0.4441202356635028,
      -0.7527935759659987,
      1.3853791477057171,
      -0.621618197819946,
      0.029791181599399405,
      0.5474487149912329,
      1.2906465208716718,
      -1.7207936583853838,
      -1.7990519643802112,
      0.9715928644066995,
      -0.6270135379662349
    ],
    [
      -2.086646506401964,
      2.2386419060926492,
      0.9544706120776708,
      -0.2233456147344378,
      -0.4074912884187306,
      -0.05138512390409064,
      0.8612981685278458,
      -1.154107701631248,
      -0.0021468323532392803,
      -1.6926772292605752,
      2.0560492743461825,
      0.40322100931657645,
      -0.5201266387859249,
      0.6245453778683283,
      0.7102853296082997,
      0.3182701344432916,
      -0.02375183256330151,
      0.6840339845764511,
      0.023965523427788092,
      -0.5078138811105705,
      -0.7025213423383282,
      0.5915103944571944,
      -1.175242431570758,
      -1.4128717496456988,
      1.706677686897226,
      -0.4236797576317313,
      0.2590138387817521,
      -0.880330049500181,
      -0.9935726802806767,
      0.44243202558551276,
      -0.4130166133383122,
      -0.10366060048731948
    ],
    [
      0.12218230128728029,
      -0.23703278597706082,
      0.48272808174739495,
      0.3957972471171351,
      -0.05699763592494092,
      0.5924147712821116,
      1.0911203578085535,
      -0.768154995294001,
      -1.0515282217457056,
      -0.3045045992910417,
      0.9419851317779071,
      1.9580598179866193,
      0.8728276282427855,
      0.24250789725638944,
      0.5107789955043556,
      2.9141951270565016,
      -0.4520592645374861,
      0.2556364000938029,
      -0.6623506271692595,
      -0.39256895595376595,
      0.32696150357380505,
      0.5003683359629042,
      2.333713859889098,
      -1.5779422864267123,
      0.03504851595964388,
      1.0261996127789064,
      -0.044448271496151485,
      1.5545998091206008,
      1.6169914295300845,
      -1.2913569599692418,
      1.097743743961813,
      -0.7575582569034733
    ],
    [
      -0.1452676965975948,
      0.02020511724873045,
      -2.380369322084755,
      0.6561147104949179,
      0.21880910894592204,
      -0.1264523594448226,
      -0.02495207844294562,
      1.215323280992667,
      -1.2657155591009661,
      -0.08169281815026234,
      -0.3357987286554327,
      -0.35665796863971244,
      -0.9534499933662488,
      2.1877851612861083,
      0.45102561680230474,
      -1.4797023688209292,
      -0.7780185180188136,
      1.2778478526147439,
      1.3330128358629665,
      -0.4657602694647423,
      -0.648978390881535,
      -0.49194009631241076,
      0.7686577500635142,
      0.08197412659611517,
      -0.53384797506382,
      0.2723902547236834,
      0.17725696472824837,
      0.6614856291722896,
      -0.006593130494200401,
      0.9088987769695158,
      1.364860283165819,
      -0.44923186088954536
    ],
    [
      -0.6503734177475785,
      3.379069702579534,
      0.05905013244178096,
      0.06033468913269472,
      0.5715585347135876,
      0.039504675473826516,
      0.052474120005391915,
      -0.18432398909219452,
      -0.5225057938645371,
      -0.6940870957572994,
      0.3408101513692572,
      0.5688304204506407,
      -0.4576822409575715,
      -0.44340992133448964,
      1.7262180696009086,
      -1.2762284115481082,
      0.6374482329927583,
      1.1439553441335801,
      -0.3042112177497067,
      0.616873590005288,
      0.6654606512870834,
      -1.146982063286629,
      -0.03176916757397351,
      -1.4095218250765011,
      1.474027020859133,
      -0.8521458957831132,
      -2.11472584976398,
      -0.03922956077516152,
      0.4145082626481604,
      -1.4402959186490771,
      0.6399759855895542,
      0.8157813385217972
    ],
    [
      0.14423871485073633,
      0.7829013550586936,
      0.001974952747872426,
      -1.737197005059827,
      0.3803863433786548,
      0.681241029257179,
      1.5959888068658903,
      -1.1675528430038737,
      1.1442605587176107,
      0.3118218383967856,
      1.6086955486723469,
      -0.7278113664849777,
      -0.544218121530176,
      2.463568137172241,
      -0.6834313399179338,
      0.8303896496516731,
      -0.21682060216896398,
      1.2902154452489074,
      0.2822243715475826,
      -0.26730920754460696,
      -0.5574939349914105,
      -0.5606491218861689,
      0.5067710811881145,
      -0.9677146823603552,
      0.031934929705619966,
      -0.8448599785807546,
      1.0830520560099588,
      -0.06749391825263759,
      1.083785039483593,
      -0.5212985601616209,
      -0.18209989698409426,
      2.102674124971803
    ],
    [
      -1.1545093754624038,
      0.48488381901121147,
      -1.7468738587822936,
      -0.28241267129340514,
      1.542158326898523,
      -1.7818215951557244,
      -0.22849867795503162,
      1.9342685456614122,
      -0.8996621885058518,
      -0.9091235344387687,
      -0.7550200201515109,
      -1.0098875621155308,
      0.260531093150918,
      0.23098875277677092,
      0.28236857234792745,
      1.5939561453786693,
      0.16137687234613163,
      -1.0619053704146353,
      0.038292350540841395,
      0.5698779015889123,
      0.02983490614158706,
      -1.0277357075458045,
      0.31958124047084024,
      0.06947157138440058,
      0.8353218512213557,
      0.71184832966878,
      0.04814636626570341,
      0.7467941890609062,
      1.0828211105526082,
      -0.1328903090949018,
      0.5186743291435615,
      0.140632505375058
    ],
    [
      -1.0919444846131083,
      -0.44664275488605676,
      0.3250675782627476,
      1.6175145692897677,
      1.3629605099421507,
      0.025627360476341083,
      -0.6874540476159958,
      0.4754320831785739,
      1.2777645665582693,
      -0.6307107568528185,
      -0.17934462871009474,
      -0.6437910601649325,
      1.148105825161932,
      0.34727616437763653,
      -0.43095726303481063,
      0.40553337557479896,
      -0.09737964726154727,
      1.1116669750541444,
      -0.2715160478322418,
      -1.1124837671016534,
      0.29976565438158537,
      0.8922715678778217,
      0.11407799442945919,
      -1.916035842527882,
      -1.3152872804052678,
      -0.39015841442623617,
      0.6543931002258028,
      0.5040143077845215,
      0.5823182485543855,
      0.20126075513432465,
      0.26269375276531626,
      1.485476709699571
    ],
    [
      0.39529461016071055,
      -0.8778331489453894,
      2.46098661822659,
      0.5647585449909489,
      -0.366017457044168,
      0.5740320761456202,
      0.319510958662301,
      -0.7475777009529205,
      0.09163074938410545,
      1.3230457164567027,
      -1.3772936566475507,
      0.5991849919226794,
      0.8016004330009169,
      0.6155496463203635,
      -0.057055547598838234,
      1.101870167142332,
      -0.6990486855497041,
      -0.22777900548367028,
      -0.9554509951387049,
      1.8819455840888841,
      -1.344072905659016,
      0.47502826211266846,
      -0.36998382173558036,
      0.4712083467621845,
      -0.17502168898626405,
      -0.7527583095301138,
      1.9930073280917173,
      0.30243057611535373,
      -0.5921112511773639,
      -2.284020720854335,
      0.4030487165107402,
      -2.011129153972972
    ]
  ],
  "hidden_weights": [
    [
      0.9108042900272428,
      0.6653900689891941,
      -1.0506807361869268,
      1.5951770262038596,
      0.2135759928687423,
      0.33766803489981584,
      -0.4664932594077694,
      1.6040066511421298,
      -1.0124860605349753,
      1.008642213689208,
      -0.48347294449421196,
      -0.9602762618512746,
      -0.05547745053739648,
      -0.9464942748676952,
      -0.1633176166338858,
      0.08831900427757135,
      0.17716065263060626,
      0.48408610074415753,
      -0.037573731202291495,
      1.2865572655943607,
      0.3665447043846029,
      0.6202788169884218,
      -1.4500423999827086,
      -1.0146969780970105,
      0.5793236792162152,
      -1.3676424240831198,
      0.3681830507645806,
      -0.9080680572153706,
      -0.6591494558923051,
      1.5993908383835027,
      -0.25224060884340155,
      0.3120138802865845
    ],
    [
      -1.8241069555937122,
      -1.7836121489809127,
      0.9311442680568662,
      1.6637110830971202,
      -0.6837150845318791,
      -0.8901446998026546,
      0.29678455073487153,
      -0.8575796605289436,
      -0.056018428403263563,
      0.3725253166669777,
      1.7063798823907472,
      1.1242775007954524,
      0.0597110715629786,
      -1.080443810778074,
      1.2664278053547744,
      -0.744096180350399,
      -1.054205792369133,
      0.08877027511822363,
      -2.0877397377796054,
      -0.9787948707289389,
      -1.5647434096874366,
      -2.633394253978698,
      -0.11355100891014888,
      1.1234582837155,
      -0.3208134863032951,
      -1.0343170836642632,
      -0.318130218052147,
      1.2571750220363906,
      1.2972084676620412,
      -0.4852090048932428,
      -0.025661311705700702,
      0.5333190645924277
    ],
    [
      -0.024375395612841855,
      -3.5986823037647984,
      -1.4099333101559568,
      0.4050075174330166,
      -0.5758654401652581,
      0.25726946544513724,
      0.15387219710104544,
      -0.6793823878398934,
      0.6705480343261633,
      0.5428925248206042,
      -1.0604821357713088,
      0.330744567158405,
      -1.8448225689355402,
      0.813285785089144,
      -2.1116302788993258,
      1.9686562799989689,
      -1.4431460624314503,
      -1.1828779968906609,
      1.4896469261697374,
      -0.3390168217420372,
      -0.775722709816375,
      1.5617533645349981,
      0.9470093778344033,
      1.3364017073378132,
      0.48234287944609266,
      1.5375436608250028,
      -0.8575116903203087,
      0.11174996185277966,
      0.283538464289789,
      -0.5508444771340792,
      -0.7598781337569581,
      0.8522626627800146
    ],
    [
      -0.4783707722030777,
      -0.01724988855878475,
      -0.5524392285823712,
      1.2570123273071085,
      -0.020992347564157597,
      -1.0941539886840572,
      0.3383421210201345,
      -1.055061286101252,
      0.6216865533502699,
      -0.2609205142417282,
      2.0233776357038287,
      -0.3631881302856636,
      0.19749471026714385,
      0.48431824820800357,
      0.15586830230642718,
      -0.33647108575756557,
      1.5681766219429585,
      -1.390089065870834,
      -0.20677045018240653,
      -0.2912406434435103,
      1.7698715524734854,
      1.2755756050245395,
      -1.2069266734010224,
      -1.0535955656132703,
      0.8007503307728999,
      -0.44640233967153853,
      0.4238644115848365,
      -0.23930418673709072,
      0.23959828720230059,
      -1.2315685741911513,
      -0.8515916191583015,
      0.8063943193627613
    ],
    [
      0.34121276789966426,
      0.5637593619772172,
      -0.05260639093822733,
      0.2578329430124754,
      0.775432820949767,
      -1.4070950395060067,
      1.5253006617698186,
      -0.8199368576175072,
      -2.255243306932442,
      -1.0797480767376573,
      -0.5205995717539705,
      1.1677560845346717,
      -0.42179934799914,
      0.6624922684359683,
      -0.7040111406853776,
      2.1988377902891334,
      1.1578784802341342,
      -1.0824664776563195,
      1.5632023158937014,
      0.23892497992849057,
      -0.18795738522574734,
      -0.9209377630897017,
      0.6559437022180536,
      -0.532240636570217,
      -1.4259154147165232,
      0.9525668483993835,
      -1.166760242940891,
      0.23058230143967337,
      0.4956367018589992,
      1.1895378633210518,
      0.5437266651644359,
      0.9133470568562154
    ],
    [
      0.19653876308132182,
      -0.879551964338329,
      0.8692120670507293,
      0.33083555637856116,
      -0.9293891168590964,
      1.129688390729152,
      -0.4909008819706993,
      -0.528244158211984,
      1.497716055532307,
      0.6850085688740791,
      -0.5461481813949599,
      -1.408516523505507,
      -0.40740745378691046,
      -0.8979212859715923,
      -1.082497874857439,
      -0.9392143661231769,
      -0.31827891564499516,
      -0.5842045714468899,
      -0.5024746849122311,
      -0.7617335178814797,
      -1.0809303490054156,
      0.6543102068095522,
      1.5569712349876832,
      1.044228054272568,
      -2.8582379424215345,
      0.535659355111692,
      -1.0623631810724876,
      0.6748162548729635,
      -2.1709790953999657,
      -0.3743674096788145,
      -0.7743211066794343,
      -0.23534732111225135
    ],
    [
      -0.8884891028814584,
      1.3140489424531818,
      0.582237391682572,
      0.9060729692479821,
      0.5199719053011742,
      -0.3835643476127231,
      -0.6314564983330109,
      1.186583585522751,
      0.0584861280836748,
      2.057319306776171,
      0.22244347143543844,
      2.312269421119723,
      0.15341795508669134,
      0.07512389850006058,
      0.22638178354715915,
      0.8120859799943306,
      0.09841692877302981,
      0.49849173471852803,
      -1.2595274906812644,
      -2.3231425932960006,
      1.1393736221175637,
      0.7724817053625526,
      -0.3850834951771754,
      1.5028268137039602,
      1.5042945270905563,
      -0.20503449075708072,
      2.0414454920570675,
      1.9493693122591773,
      -0.6501705795730697,
      0.4523204296161547,
      1.31049263239383,
      0.7447200814447418
    ],
    [
      0.4510802605168669,
      -0.4255995236187438,
      -0.49272260415676655,
      -1.0464547722961253,
      -0.17104760191488658,
      -0.1045379398224621,
      1.3226106226440812,
      0.17792890875267972,
      0.040214139801659644,
      0.20957544597578914,
      0.2173029840633536,
      -2.7218189452249,
      -0.16496506912587347,
      0.7453838800746917,
      0.08032340142158767,
      -0.36687345216095174,
      0.5575685895030176,
      0.04517421640889141,
      0.5332335956403131,
      0.019864252053063015,
      0.9108921972408254,
      -0.23355830792197724,
      -1.2083583353790814,
      -1.3998389688433264,
      0.45966274002520674,
      -0.3745683686550886,
      2.2011659488638387,
      -0.8682183221744604,
      1.6966929786333689,
      -2.1501400639978674,
      -2.089974507223841,
      0.012947468222134887
    ],
    [
      0.9513212372788448,
      -0.07422485042093957,
      -1.3352108496777493,
      -0.4534882046352479,
      0.07236606947342474,
      1.2481371073043688,
      -2.0537466455473656,
      -0.8170274173459424,
      -1.6081106736469328,
      -0.1791549167030899,
      -1.8270269996358788,
      0.1498799274891652,
      1.0445595026327206,
      0.19044079621255358,
      0.07967038822724083,
      0.1566288677592113,
      0.14332723995512642,
      1.3699012786333706,
      -0.9503725331636013,
      -0.9249819289691993,
      -0.2248262688508008,
      -1.3956102627672387,
      3.623544451566166,
      0.6433817666712031,
      -0.48973374100599854,
      1.0735733551765376,
      -0.5570483397333034,
      -0.08596670188384735,
      -1.1938906983662634,
      -1.71424567642968,
      2.225573290291896,
      0.32827818182218305
    ],
    [
      -1.2080591975854031,
      -0.18115512133759776,
      -1.747628568372457,
      1.0960395254191322,
      0.30096500824229566,
      -0.2701524714231602,
      -0.4299984535537566,
      0.37043721360854975,
      -0.024646513183622865,
      -0.2509137495962151,
      -0.19464307639643408,
      -0.4749621590762038,
      -0.35236118815232503,
      -0.07603564177376419,
      -0.049246974628238245,
      -0.6762578617848246,
      -0.6043783385231188,
      1.6403825455446621,
      -0.81258540183233,
      -1.0153433541227121,
      -0.24172672479855636,
      0.412652289019335,
      1.0738095264111542,
      -0.6134444331579174,
      -0.05081798873419221,
      -1.0143781320920695,
      -0.2554045362169724,
      -0.006719284068684038,
      -0.6029863241164648,
      -1.0527609821182995,
      1.2390272918342806,
      -1.30299285537666
    ],
    [
      -1.1347038250884327,
      -0.2305577191167569,
      0.08285959755368014,
      0.0993499812042719,
      0.08593845638902514,
      -2.2498941138984017,
      0.21666794442673518,
      2.7004556549210093,
      1.3223747978218532,
      1.9844839696298069,
      1.1263824665782243,
      -0.6682819483400119,
      -0.29897953356316703,
      0.4799383386980773,
      1.005336272353272,
      1.0132279031888338,
      -0.9049234411913165,
      0.9778110179927048,
      1.8060230436338516,
      0.027533096932420006,
      -0.43227180953774835,
      0.6526426760419324,
      -1.4565627912414958,
      0.27748778696047316,
      -0.7390785521528416,
      1.352232424496559,
      0.8114479450653689,
      -0.02577271617558731,
      0.5406772095883055,
      -2.7172321872273804,
      -0.6227946156041101,
      -0.9544544665823904
    ],
    [
      -0.227887779422315,
      -1.3456880291577724,
      -2.5306181661299454,
      -0.6487338992284798,
      2.38641001244517,
      1.1751264542178785,
      -0.14232846969398538,
      0.7550029787927036,
      0.678710722827978,
      -0.4514004372279417,
      -0.16933039297084507,
      -0.732930940999212,
      -0.3894170443882972,
      0.8981506215125218,
      0.13263817193580876,
      1.501722358528084,
      1.680132712044871,
      -0.013727584661705884,
      -0.1435880662953315,
      -0.22213833804514635,
      -0.4149337121907383,
      -1.0021324900869548,
      0.07352110992120271,
      0.5888552043652411,
      0.5398522339126395,
      -1.105342943763175,
      1.1102577275396512,
      1.0753271940383209,
      0.1686397587397484,
      -0.10718250855185227,
      0.1375275238655434,
      -1.572616323763945
    ],
    [
      -2.042353173769498,
      0.7588051616923623,
      0.7339527615087584,
      0.6050191847664406,
      0.9126259106202178,
      -0.4082361882336696,
      -0.37749842824769486,
      0.43629463437140836,
      -0.6726309747957859,
      0.4117525363702263,
      -1.55350707531277,
      -1.9037342240040602,
      1.6398023986643313,
      -0.03324951783937699,
      -0.20128821098375407,
      -0.3577662979039948,
      -1.2727584338316444,
      1.512744971655989,
      -0.32669953747311575,
      0.12878174855527005,
      -1.6905287460178204,
      1.052436677304445,
      -0.6754060666186564,
      1.6693370214401266,
      -1.1755557152104381,
      0.8253867345557729,
      -0.30705150207980464,
      -0.8741971610697074,
      0.8125814153720433,
      -1.074157300898826,
      -0.9365546243961379,
      0.38662681677641647
    ],
    [
      -0.6655493308664424,
      -0.8488820835237754,
      -2.1032503066413994,
      -0.3333482125191366,
      -1.3154640132523372,
      -0.6200630880927995,
      0.5282712019830406,
      -1.9299845599089474,
      -0.6537104690161163,
      1.2656225891874953,
      0.6415545164129267,
      -0.5590413714005283,
      1.9102497785747308,
      0.19451803192952055,
      0.9530906324775048,
      -0.4565154157537107,
      -0.5634921519640719,
      0.592457190365586,
      -0.05052367801471655,
      -0.9098546141825901,
      3.3298207267150715,
      0.9374702241940567,
      0.7878628983064212,
      0.7536275699172166,
      -0.39588375385890473,
      -2.3910970517131704,
      -1.3356414768646947,
      0.5005812534829921,
      -0.20385417411437473,
      0.7642607454934723,
      -2.0022196577055698,
      -2.4723750043213295
    ],
    [
      -1.53075993397035,
      -2.062267694568471,
      0.028905175145983335,
      0.1508407559016331,
      -0.775324787720742,
      0.12954993007295212,
      -0.8652341001690159,
      -1.209527908185634,
      -0.39226254273614525,
      1.8174374962772817,
      1.0371408790159724,
      0.9059668687282325,
      -0.7321550215924951,
      -0.8113430110939603,
      -0.10550667158684335,
      -0.005316349648854276,
      -0.37460812503562707,
      0.6821276729062486,
      0.5202590501206913,
      0.5907500145102013,
      -0.9117400188576464,
      -0.14375220083890367,
      -0.4883013874366358,
      0.23857123619428952,
      -0.4057730836764715,
      -0.52141848912771,
      -0.9986633867737994,
      0.6881281173248113,
      0.03694954329188564,
      -0.49127510667376817,
      0.8582310214165343,
      -1.2451470464170564
    ],
    [
      0.1569411475979679,
      0.06269130817673885,
      1.3183842596126967,
      2.33565021687845,
      -0.757058163943587,
      0.966213378645072,
      -0.08456870358774833,
      -0.5200204956619021,
      -1.056313976988081,
      -0.4833900137480109,
      -2.2560940410183745,
      0.5933940508479758,
      -0.06972957712905833,
      -0.34660493015448657,
      0.008144786954664604,
      0.46198427833617883,
      0.26255074385399757,
      0.8374298253011428,
      0.7323920307191156,
      -0.7713234772838773,
      -0.3584883889634237,
      0.9749764853809537,
      -0.48490038845480726,
      1.0099906023773844,
      -1.6678488981073822,
      -1.6472948262279892,
      0.6506878154805106,
      0.31695726695494897,
      1.4096613661628599,
      1.2214840272145753,
      -1.5783543149323138,
      0.509820332444621
    ],
    [
      -0.3331889042636241,
      0.6864489858305547,
      0.23711807065707338,
      0.5843698104238904,
      -0.3274208133664475,
      -0.8428240000845192,
      -0.03469947827670074,
      1.9327726501335432,
      -0.10655544972308104,
      1.4882589078013988,
      -2.209764732960568,
      -0.18483568525894664,
      -0.7043760163101402,
      -0.14620967613008642,
      1.175698343845041,
      1.2956048171235397,
      -0.3518663823424591,
      1.3041352100415016,
      1.6664109887006349,
      -0.5130542513073921,
      0.23566253231327697,
      1.3703443713291446,
      -1.5459173242681603,
      0.17681669556896862,
      -2.159622147814856,
      -1.0546893581540713,
      -1.2756277057769707,
      1.4875956729037485,
      -0.6852356996374963,
      -0.18388717321119508,
      -2.0507507915331806,
      2.8552154948688213
    ],
    [
      -0.5408668564360986,
      0.7115418036830977,
      0.26015433399749155,
      0.8910111088283464,
      0.024114641541882923,
      0.1681843769373574,
      0.42021974209124446,
      -0.6453719918267553,
      0.33124617164193976,
      -1.9003584411269823,
      1.8874605142693297,
      -0.6260754130962084,
      -0.32433136781226113,
      -0.4723917610472222,
      -1.1420155985850977,
      -0.0767761090198381,
      -1.205132851542802,
      -1.4748603376816198,
      0.5540087206483784,
      -0.8992639214256805,
      0.3602493631851468,
      0.9982609857081073,
      0.06828955658088338,
      0.1320247772283337,
      -0.9598504147982767,
      0.431644254792855,
      0.41346185943618635,
      0.0662653917933565,
      0.6538653589327762,
      0.5054646191918725,
      0.5443794710684097,
      -1.3415481395998348
    ],
    [
      1.3714799567751739,
      0.5809981122673744,
      -0.23163257366025886,
      0.30233863684002543,
      -0.0671000938177895,
      -1.6416129254054574,
      -0.3500914422918601,
      0.08649087917381477,
      -0.8856321277678456,
      -0.23445607030906693,
      -1.0785223560142505,
      1.0550690282124142,
      -1.830111405758314,
      0.04195612315367611,
      -1.522341239884173,
      0.01913307544723175,
      -0.08517543896765663,
      -0.5960723351878209,
      0.6828864873122497,
      -0.657751294844878,
      0.3915657013466023,
      -1.8290438861150995,
      0.5212170631307127,
      8.105915970349262e-05,
      0.7290572498267135,
      -0.5250696969686385,
      -0.3433185234014827,
      0.7919674499497141,
      -0.4393517908659653,
      0.7797948087313009,
      1.2354780308838123,
      2.66128233311281
    ],
    [
      1.5086539107616923,
      -0.5013960370391203,
      -0.779000095963239,
      1.1061115263888393,
      -0.8239771085256375,
      -0.17484598188627706,
      0.7603390414282889,
      0.5242614713424423,
      0.40880201877101263,
      2.944812994522242,
      -0.11402094270709356,
      -0.6992379058268968,
      -0.7072809811635261,
      0.8093306782402975,
      0.7565041343528733,
      2.2524434740765824,
      0.9120578410484221,
      -0.45813268020724357,
      -0.23840360104768052,
      -0.7065482550550058,
      0.6353639045316133,
      0.1877403613596793,
      -1.0283514644126421,
      1.752579530795305,
      -0.5986445139007,
      -1.6984766387904984,
      1.5358674143566755,
      -0.24623176469941088,
      -0.565141516182128,
      0.5434985349673646,
      -1.0777669037047377,
      2.6135542508935865
    ],
    [
      1.011635855727466,
      -1.2810623648980763,
      -0.526761322298285,
      1.5582125695832707,
      -1.3934889905683856,
      1.6869483099959972,
      1.683466457067736,
      -0.026419217937513683,
      1.3446457641208636,
      2.0653156937239485,
      -0.17743261184300024,
      0.9706364670983101,
      0.9837898515324784,
      -1.0255915123996397,
      -1.2183526507538478,
      -0.648631704595268,
      0.13811680469934143,
      -0.7248276576686774,
      2.2171329453275654,
      -0.26947944989643274,
      0.21815042342528482,
      0.7924240993145969,
      2.2470470199019914,
      -0.6068732424655244,
      -0.59544206603057,
      -1.5877012777665476,
      -2.083005304452792,
      1.2431868629926852,
      -0.10579596872722861,
      -0.03758393599566405,
      -1.6514387041078356,
      0.9427957643169274
    ],
    [
      1.967361388457577,
      0.8176570662042939,
      -0.7952692414047066,
      -0.03605549340617875,
      -2.148130103493313,
      -0.5641053296100822,
      -0.4663514563909334,
      -1.2143771705200628,
      0.5604652903112631,
      0.5320055185698794,
      0.28458860556566595,
      0.29440962150835864,
      0.11631462021416157,
      -0.25184399693931964,
      -0.8294435865393576,
      -1.9205194540219312,
      -0.95431636204855,
      1.7973080372798704,
      0.7182789867795673,
      -0.6933439866340186,
      -0.23409007617241873,
      -1.0079873348285606,
      -0.01771985809064195,
      1.2464701996105692,
      1.2699416640334769,
      0.3956892157796873,
      -1.2507223960198293,
      0.14239022232943707,
      0.7132793990968952,
      1.1874346826673248,
      -1.9819144835654343,
      -0.5376929386272401
    ],
    [
      0.3941100674310354,
      -1.1960505358490923,
      0.5790126623818103,
      0.7515804174338225,
      1.2100906498186037,
      -0.19933571059531696,
      -1.5702789083146325,
      -0.3572781344143566,
      -3.3552925255986734,
      -0.7215590743530936,
      -0.0033748095888958816,
      -0.24739702538283945,
      1.2023679491422372,
      -0.5994325321434354,
      0.14907365252980692,
      -0.7263769498167003,
      0.5265505001062936,
      0.7185681222420536,
      1.4472999429730438,
      -0.9398696040038014,
      -0.8634703565013382,
      -0.11929627121831816,
      1.9951589560960137,
      0.4835962058428269,
      -0.18459846487940765,
      0.512000549211011,
      0.021698176048977853,
      -0.03983568856913757,
      -1.7579533393770679,
      -0.06267413522165947,
      -0.6618084297739633,
      0.25084351011158595
    ],
    [
      0.40922082953321587,
      1.7876163523696535,
      -0.6922152162962031,
      -0.5254255532401542,
      1.1712290624963209,
      -0.509323013122903,
      -0.6772937093906151,
      -0.45423093240203927,
      0.39763272454509274,
      -1.5951914967562004,
      2.160019424812304,
      0.28175365293202126,
      0.30741404725230576,
      1.6758932608898789,
      -2.0304643887900973,
      -0.3824411881360884,
      -0.9456886610736176,
      -0.2305639100322067,
      -0.11493832638194659,
      0.7370366589084767,
      -1.3082842104883248,
      0.4844766424803338,
      -0.22754522488742646,
      -0.519216845326138,
      0.6231014676376443,
      0.6683125388761588,
      -0.1132070315834786,
      -0.21569562034012482,
      0.3348687496721826,
      0.783732527802977,
      -0.4549393565834002,
      1.537432838356564
    ],
    [
      1.8524165625402633,
      0.8284167648309058,
      0.8351155883469817,
      -0.35245941469815895,
      0.7740817345994628,
      0.21431576234904504,
      -1.3802845341327254,
      -0.20566401275807167,
      -0.48257443218996693,
      2.034048219131225,
      2.2540908108798066,
      -1.3106227667065757,
      0.2228539377288696,
      -0.16982594049140623,
      1.060465703050647,
      2.104814443178841,
      -0.9679705979735969,
      1.6516613348071525,
      0.2580095392458209,
      -0.15074603729186395,
      0.5573101432393132,
      -0.2100017820530062,
      -1.1678445833310536,
      0.4654699839552868,
      1.1086320870955844,
      -1.3810931880310884,
      0.3182002473413508,
      1.2534526687715415,
      -0.08582287710969601,
      -0.08713105468695864,
      0.1119616765086131,
      -1.6039035048068724
    ],
    [
      0.666489409652023,
      -0.859564378076615,
      0.016542215534538978,
      -0.34077914447723884,
      -2.321085178817156,
      -1.793001028237766,
      0.4688220555918882,
      -1.945707660076853,
      0.32274501398195865,
      0.18193943850075087,
      -0.1521343945253464,
      1.5821353591962195,
      1.7223112367121045,
      1.0741737348447835,
      0.7912168791342945,
      0.3652657492309125,
      -0.8011322865907118,
      0.731443431184327,
      -0.37683821917114413,
      1.3462056626738987,
      2.7590259933175676,
      -0.060281423289024534,
      1.2478117490251988,
      -0.21404455713154516,
      0.28803755660503577,
      -1.7743600489680555,
      -1.2536499088874937,
      -1.3077348806271425,
      0.5954961617177529,
      -0.5768047267705902,
      -0.24072073371286065,
      0.6485624399968399
    ],
    [
      -0.7856591039723931,
      -1.3529932463081362,
      0.27426167880350333,
      1.6924668092228372,
      0.977784025548141,
      0.1640061542598057,
      1.011881092990832,
      1.4779050570473502,
      -1.0701172910977494,
      0.11357978062472647,
      0.541537674453103,
      -0.13818451002312357,
      -1.2009415759593152,
      -1.102300975137861,
      -2.466922853512872,
      -0.5060165712929193,
      1.3375651720350337,
      0.26651618264008353,
      0.05408423010856931,
      0.9639741130943771,
      0.1565836790591139,
      -1.1513988035147176,
      0.9973769630738787,
      -2.4472701877821796,
      -0.2405943851771795,
      -1.0549278004415297,
      0.17381625880262017,
      0.8615180933542019,
      -2.7643240601886525,
      0.5507934439860427,
      -1.6151142306574113,
      -0.8306225798843978
    ],
    [
      2.321521664077709,
      1.0940064171464559,
      0.2957966976884005,
      0.7719426623156896,
      -0.4139130143713419,
      -0.46073414321793144,
      -0.7438719756738083,
      1.4157674916778065,
      0.14547548160670642,
      0.3425948574754592,
      0.23157384862891175,
      -1.560586652315877,
      -0.7058247524774884,
      -1.0363629581074296,
      -0.8488831067484632,
      -0.12396656167664195,
      1.2998464230510336,
      0.19474526179790225,
      1.3658110900653468,
      -2.7210114229280085,
      3.104866452305454,
      0.8512561161751173,
      -0.16740948244147244,
      0.5622244028496581,
      -0.30905285790292847,
      0.4664752323276083,
      1.6860104517140477,
      -0.2675660754132219,
      0.20776626122030067,
      1.351692765042644,
      0.455028036483131,
      -1.4412850356383748
    ],
    [
      -1.3810455602025087,
      -1.270776686743899,
      -0.3131196874348595,
      -0.3788896469493651,
      -0.9267157750255484,
      -0.02384430580231504,
      -1.6451479718679443,
      -0.21775267994700645,
      -0.11075424446303939,
      0.950106527753268,
      -0.5558407439663112,
      -1.5571632979990666,
      1.219710417271029,
      -1.5689405815470776,
      1.7045763876001652,
      -0.6167024521659221,
      0.5943724361621229,
      0.8165346468075833,
      0.2077075513953763,
      -1.3190100593897405,
      -0.3686620337055822,
      -2.3353620423415333,
      0.03743456628295237,
      -1.3412117930720455,
      -2.074866894199673,
      -0.6541642140236361,
      0.14495725053058484,
      -0.5203997315233607,
      -2.309434338946572,
      0.6303640912791417,
      -0.35952857048185305,
      1.2564939488627627
    ],
    [
      -0.22911346384683637,
      -0.34790232487296724,
      -1.6874888895467033,
      2.3990128635860044,
      -0.11383108960298005,
      0.09666062596929449,
      -0.9965747085976,
      0.8158899431059317,
      -0.2778354114336065,
      0.284220037243429,
      0.1335468080222165,
      -0.5868285556216217,
      -0.48221247688690994,
      -0.6119620080295822,
      0.7720061977934785,
      -0.7837951634750523,
      1.7317957238448551,
      0.7103394860068669,
      2.065186343974101,
      -0.8886350812257455,
      3.0849396318248012,
      0.7537945850126404,
      -0.07640606222553954,
      2.6725177007332652,
      -0.7963116533531759,
      0.1349692945243578,
      0.8182258301833373,
      0.09712951516266247,
      0.8523334742575874,
      -1.100833627586198,
      -0.38762979039341167,
      1.0674112243084835
    ],
    [
      -0.5641501592584318,
      0.6871549548823743,
      1.4595904025492437,
      -1.7188956601161047,
      -0.5801054512303437,
      0.08064920866707256,
      -0.6058943429695218,
      1.712996705552799,
      -0.5317466014129724,
      -1.8494483365935093,
      -1.2176142736227686,
      0.3040663036654407,
      -1.0673801059349795,
      0.05286180676083293,
      2.7984496745576917,
      1.2474549635889058,
      0.9476275913213531,
      0.013966763249445886,
      -0.7752392440691687,
      1.8794424456225407,
      -0.3233010761437383,
      0.01566269793222724,
      -0.5265951642340738,
      -0.171713635009042,
      1.3624522191404536,
      -0.7747360981395462,
      0.20632020119309125,
      -1.8397832036170347,
      1.059409518641866,
      -0.706305073526475,
      -0.1478411058106138,
      -1.6534114430660116
    ],
    [
      -2.348546904079956,
      -1.468737772895658,
      0.17904501203906512,
      -1.262658009770342,
      -1.1236776086874585,
      1.453549414853118,
      -0.38293137474082883,
      -1.1870902967585881,
      2.17326573985724,
      -0.4915181170653739,
      0.607546485003087,
      -0.24442366210104186,
      0.1349275258916619,
      0.08230717159264109,
      -0.35914375002388066,
      -0.06845290508704543,
      0.8125070208455141,
      -1.398590793603731,
      -1.4495697440264887,
      0.5673690814397038,
      -0.8667562959807831,
      0.18700476899884796,
      -1.0137803386641624,
      -0.47050415274418417,
      1.3003004623357386,
      -1.710808610460428,
      -0.8206212355821088,
      -0.6737826487898828,
      0.23501998091927698,
      0.6194565739713311,
      -1.8515261732689072,
      -0.9272290217275568
    ]
  ],
  "output_transform": [
    [
      0.7699151838229601,
      -0.023622628822970837,
      -0.5120553689738522,
      1.346071466145965,
      -1.4002059163312182,
      -0.020561336992656484
    ],
    [
      0.11037348439166203,
      -0.07441680295332795,
      1.1563350292849155,
      -0.5013068506519403,
      0.7449167239971408,
      1.6585046118996785
    ],
    [
      0.7614605542239977,
      0.675573461616972,
      1.476658862065087,
      0.10093863644768923,
      0.28365481925981606,
      0.7954889851616431
    ],
    [
      -0.5447387791911252,
      0.7400512804126144,
      0.2462726548794749,
      1.0517646879205353,
      -0.16653508771064193,
      -0.014476689359742124
    ],
    [
      0.013071437428424324,
      0.2651679587932265,
      -0.4726173555986472,
      0.6665547682689354,
      -0.36435558294312026,
      -0.00688051852237352
    ],
    [
      -1.6033903917662686,
      0.14471166483756534,
      -0.983760581965307,
      -0.25667701929499365,
      -0.9307442512836821,
      0.0473779122901638
    ],
    [
      -0.5240850786153453,
      0.47434241539914584,
      -0.404886436396252,
      1.9029663471010214,
      -0.39727834628140946,
      0.5211875828193948
    ],
    [
      -0.3644376376999521,
      0.10120280751083487,
      0.9197055969023212,
      0.7404529211720545,
      0.8069281489072706,
      -0.7835545719516247
    ],
    [
      -0.3064336251783411,
      -0.03305208695124977,
      -0.07009781133399148,
      0.822874034568722,
      -0.5346945971183603,
      0.4730106294586697
    ],
    [
      2.085994007776313,
      0.19576213639048773,
      -1.086327716151734,
      -1.0585959196319925,
      -1.2634929847902205,
      1.1532091234306536
    ],
    [
      0.5157234290688699,
      0.614608530922273,
      -0.4922055554338557,
      0.0420027453247911,
      1.8218876567284068,
      -0.027266026405590654
    ],
    [
      -1.6294036377146226,
      0.5099981648762548,
      -1.7134550586123396,
      0.68385257693448,
      -1.1681142551354624,
      2.2251780584628507
    ],
    [
      -0.20797439621445624,
      0.5194709325203117,
      0.30815486599655845,
      2.002113155894177,
      -0.9393320592963239,
      -0.6881537008183829
    ],
    [
      -0.5747189044471891,
      -0.5943292063153085,
      2.5342943063433867,
      0.6607128496683058,
      0.072300594838442,
      -0.8528190217467533
    ],
    [
      0.04922909652237172,
      -1.2321334626882625,
      0.24370171733285131,
      0.16888274888918692,
      1.749653069964739,
      0.07277421103927935
    ],
    [
      -1.1386940553271292,
      -1.9389369377907077,
      -0.05414261269847235,
      0.7327007861657157,
      -1.6996247361346744,
      -0.3301543392421694
    ],
    [
      0.4693132714558833,
      -0.5053677251095577,
      -0.7183862379380418,
      0.1539214386542421,
      -1.5448358186447824,
      -1.5443895978100404
    ],
    [
      -1.0348664709605313,
      -1.5452507272333196,
      -0.8064502512720818,
      0.38420037913306515,
      -0.43130058342563043,
      -0.6921774932385643
    ],
    [
      -0.21217322375494116,
      0.03202777378143347,
      -2.1474512863292543,
      0.24158773626325808,
      -0.5097109126661475,
      0.5030072148256486
    ],
    [
      0.0899222833048235,
      0.440230106858805,
      -0.1627277934433722,
      -0.6414015829051862,
      -0.5433019972567626,
      -0.4456494900085448
    ],
    [
      0.3412927601272555,
      -1.9458871573196777,
      -0.10651232834757361,
      0.8343550809768274,
      -2.286846749502467,
      1.5547907713943996
    ],
    [
      -2.1394301269377443,
      -0.9049590890670003,
      1.7398139742133572,
      1.400123455231521,
      -0.504588770701726,
      0.6884710161616983
    ],
    [
      1.1697347982854283,
      -0.0964078739285003,
      1.2533142423661947,
      1.4759507435143753,
      0.12699799292258876,
      1.3888773963804315
    ],
    [
      -0.2718621690442914,
      -1.6915842357666002,
      0.03617268800497612,
      1.3876979420265678,
      -0.5042259982050205,
      1.0785498357965575
    ],
    [
      0.21549336752405807,
      1.2637855055878648,
      -0.17035095434323844,
      0.9850755799940565,
      0.30486090417226286,
      -0.7839458092296422
    ],
    [
      -1.446441769340716,
      -1.0650641321662302,
      -0.29762278145556215,
      1.2669561934532936,
      -0.14788735845540718,
      0.023975005744682153
    ],
    [
      -1.3502412123191434,
      0.16574705853102684,
      -0.9078917048527719,
      1.5762476226991464,
      0.02204367284114497,
      -0.19150907466748796
    ],
    [
      -1.3509892744233516,
      -0.024410894163063142,
      -0.3387453303979059,
      -0.9494108996903502,
      -1.0523390196113387,
      -0.9420995307870287
    ],
    [
      -0.39156505137487824,
      -0.15224490567991195,
      -0.402633817253343,
      0.4943118128112898,
      1.4511116650746216,
      -0.09999485644251868
    ],
    [
      -0.1306022219307014,
      1.3152455516022994,
      -0.022010750372308666,
      -1.168454838674638,
      0.24263915927356225,
      -0.6405643843517451
    ],
    [
      -0.464239660217583,
      -0.575219163558093,
      2.2512738441921654,
      0.8240086326972429,
      -0.028346200649028187,
      1.353384031289429
    ],
    [
      0.5060656456554726,
      -0.11405309873383371,
      2.043250558775355,
      0.5800019954140868,
      0.6971653403826977,
      -2.1139712708136527
    ]
  ],
  "bias": [
    -0.7872558124398612,
    -0.15454266646778067,
    1.1047830199592081,
    2.0209133656311047,
    0.46832242007714114,
    0.5442804605512829
  ]
}