{
  "input_transform": [
    [
      1.924709955189163,
      -0.9608745872308164,
      0.49087349771612465,
      -0.9305033691282687,
      -0.9625337509758239,
      -1.046621381413698,
      0.13520319352007645,
      -0.2740902969194021,
      0.7755795034523275,
      0.03315512203883668,
      2.4544491332985996,
      -0.18832944464872733,
      0.4605690764289921,
      -0.8922830389339195,
      0.4005346733427739,
      -0.6984397673127899,
      0.537827838529419,
      -1.0285692251938285,
      1.265970767326266,
      0.07781644721718657,
      0.29331988931640807,
      -0.7481400969307394,
      -1.5134444570033336,
      0.9182475117730311,
      0.24105924865022132,
      0.3329059434650283,
      -0.9922717432050748,
      1.5399310876587484,
      -1.7421195659542443,
      0.20774932724744638,
      -0.795543579984003,
      -1.5281431305336899
    ],
    [
      1.6768473414069707,
      2.236636055417473,
      0.5207572504468336,
      -0.18641910063942432,
      -0.5440168243385921,
      0.644837230503391,
      -0.10570527660211232,
      1.189197841801559,
      1.3585517680801744,
      -0.5558605923374145,
      0.301023921247654,
      -0.9036392183304127,
      0.3698933370505011,
      0.3696262718661314,
      0.5657365399726354,
      -0.958263978192673,
      0.3928989097408608,
      -0.728999099577969,
      -1.0575495355316593,
      0.8186633976801664,
      -0.47573999475884177,
      1.5421148429995386,
      0.5042795669560632,
      1.8258831496631043,
      0.540561593120785,
      -0.22972867368356217,
      -1.3653235103681713,
      -1.4089244475928877,
      -0.13607346714783822,
      0.2356837928279831,
      0.6103625829417318,
      0.7627494843939852
    ],
    [
      0.7024834556378915,
      -0.10240090130475603,
      0.9379616624091068,
      0.23244940896826874,
      -1.153883834826614,
      0.8991283559851093,
      -0.3608546984538719,
      0.18878824812897357,
      -2.67734252407729,
      1.4931858084424139,
      -0.141941253618698,
      -0.31963526202689513,
      0.4837398855593953,
      -0.875552719149653,
      1.9661456093602756,
      -1.0654714623788781,
      -0.2542195983609666,
      0.44223325921041956,
      -1.4923887715321307,
      -0.37715145880565226,
      0.6459877301378747,
      0.9243196524776184,
      -0.8119484554389736,
      0.18415344799943084,
      0.7441391559405728,
      -1.6523758799179356,
      0.7394611440365141,
      0.08982270124080544,
      -1.1583823126436712,
      0.7405418653319719,
      -0.8248263970580486,
      0.229406517260684
    ],
    [
      -1.1448456975519197,
      -0.024129835830529904,
      0.8568658378825105,
      -0.5524691264738075,
      1.5014370871060476,
      -0.9946379561978913,
      0.9922910386202748,
      0.22052678850212057,
      -0.6878083563820657,
      1.616319180125562,
      0.8594330291743112,
      0.42909102925097475,
      0.13311487904499508,
      0.5364816243338082,
      1.3907431585297245,
      0.5145645252387503,
      -0.35455815298523524,
      -0.23289992383731364,
      0.2816379024570011,
      1.5848938381875612,
      -0.7032316557474313,
      1.0449865000114404,
      -0.6869584919790062,
      1.9913621057594624,
      -1.4634037858095397,
      0.05058983364952607,
      -0.010087516580300916,
      -1.211772549984401,
      -0.00024898117647017393,
      -0.19224437170184513,
      1.8751944567451724,
      -1.3410823886087448
    ],
    [
      0.16157994474774548,
      0.885170456794576,
      1.057995761403168,
      -2.175985214996368,
      -1.7795358142732376,
      -0.07699591470108806,
      -0.6265847943478629,
      -0.21882978546775922,
      -1.2379219961907038,
      0.3002201019569784,
      -0.7469472921322436,
      1.2330804530205872,
      0.487923702887957,
      -0.9754016022104075,
      -0.1639048783861229,
      0.0004249372691620171,
      -1.9962974270536988,
      -2.285967221748872,
      -1.3203506699918937,
      0.1857792102701185,
      -0.5129925391127269,
      0.3848131415405189,
      -0.6433236207815809,
      1.4836298190179573,
      0.2596914761472176,
      -0.6345314454892605,
      -0.6089867239580817,
      -0.34290721346449937,
      1.051241150435071,
      -0.5687386876509396,
      1.7205726127528695,
      -0.5840966264944232
    ],
    [
      0.8368380023199571,
      0.8425235570187498,
      -0.5984665723789699,
      -2.5429324264261295,
      -0.37994157282447083,
      -2.2959173079425357,
      0.7993593571436697,
      0.15443631141529884,
      0.13847213345423007,
      -1.7762460551316899,
      0.6810658460352903,
      -0.6495978628754575,
      0.591953457615957,
      1.0454851512729517,
      0.5755210679738716,
      -1.1089965422968056,
      0.012361181900269035,
      0.5474677639724036,
      1.2222334880183028,
      0.29626965804896704,
      -0.0034875510014928646,
      -0.6270929427809541,
      0.3613590761580195,
      -0.21244884234596595,
      0.10574205431689714,
      1.015053270670016,
      0.46545317579996087,
      -0.5025727339516884,
      0.8095036663039196,
      0.37242248952870394,
      -0.5641301932471274,
      0.6899080675932655
    ],
    [
      0.8815813854272485,
      -0.7421739176204347,
      -0.5105441232857839,
      -1.1808983780791495,
      0.6690128566974302,
      -0.2551096131526154,
      -0.3805429340046696,
      0.051151454554791934,
      0.035238248338747356,
      0.8164823919580966,
      -0.7449937928992579,
      -0.7679930949434461,
      0.5456305839395769,
      1.4687246969944272,
      -1.4970143374209692,
      0.3573238008900578,
      1.207518866009871,
      0.6202305538992277,
      0.262473249966498,
      -1.1925719557794363,
      0.3891664587897376,
      -0.3357112297444964,
      -0.13797298418972123,
      0.7361438081010033,
      -0.3878349704577664,
      0.43223890877792365,
      0.35052616817697074,
      -0.14656274417564766,
      -0.36978069110236816,
      -0.3711199041099814,
      -1.2602292433808036,
      -0.6746905524707196
    ],
    [
      1.6647968225977694,
      -1.4357248839470185,
      -1.5606128918310607,
      2.7473403250974893,
      1.1158969230130253,
      -0.4130021739536965,
      0.7870158197477505,
      0.6643288505912167,
      0.8137578768717988,
      0.16396974360940242,
      -0.18297332890375262,
      1.2573794914177638,
      -0.3013168470652181,
      1.3410706227781952,
      -1.2316436730029554,
      -1.266216149957466,
      1.0966920621777367,
      0.5941081573870336,
      -0.7422712990063993,
      0.5222280532666032,
      0.387606483829479,
      -0.17802395286940584,
      -1.2574789976773135,
      0.808366314144439,
      -0.7181097083119035,
      -0.11187604716252968,
      -1.1820480304118897,
      -0.3707371404364867,
      1.2653359258226673,
      1.3711196336798537,
      0.9362771987257993,
      0.7107695236543529
    ],
    [
      0.669784043600951,
      -0.05725991145678314,
      -2.0513133036091906,
      -2.860092359015479,
      0.6690299969588439,
      0.5497418869144963,
      -1.0782960049282173,
      -0.4762973182559262,
      0.8883179516744899,
      0.2289082224343801,
      -0.6021877487981033,
      -0.6976985239101897,
      0.797152795441614,
      1.3349343944267944,
      -0.9868277913708685,
      0.024823832065788,
      -0.5243426465262836,
      2.67542375206969,
      -1.3140661606281936,
      0.8360553935706007,
      -0.3468019434487431,
      -0.022229317763383355,
      0.31518998531154085,
      0.15476499507712269,
      0.05826280973489331,
      -1.6482752876136795,
      -1.7847269142662867,
      -0.4319201503698912,
      0.8389629860987986,
      1.2820621581755691,
      0.4167300974867135,
      0.49151955317685275
    ]
  ],
  "hidden_weights": [
    [
      -0.6447028341891828,
      -0.07471082728749086,
      -1.3012298390401384,
      -2.1402153881816393,
      -0.1959621141536633,
      -0.4442911078781606,
      0.24461899987150548,
      0.03854048755682294,
      -1.2127517945142843,
      -1.0772494637931553,
      0.49463931911645437,
      0.5044835463908469,
      0.11042757634039267,
      -0.17065635722444938,
      -0.3129483254942018,
      -0.10653579752398938,
      -0.09445098025659102,
      0.7399295917348649,
      -0.8138222928931832,
      -0.43893423524383235,
      -0.9501628666979298,
      0.35998128132616203,
      -0.2826856261658341,
      -0.9800962705685171,
      0.053904671337251436,
      -1.4399115162052138,
      1.1283784085906094,
      0.12305960247184482,
      -0.601930803824263,
      -0.15468621840903227,
      1.0647116703176134,
      0.06763451697179684
    ],
    [
      -0.6374437283782267,
      -0.384292437041463,
      0.41643485883667797,
      -1.9847048816527153,
      0.7776532351003844,
      1.7394733544942182,
      0.30183234728495356,
      -2.5731647094487693,
      -2.100662014498416,
      -0.22360283753804078,
      0.8836172916061392,
      -1.023428396376667,
      1.5048449015653798,
      2.20331288968976,
      0.4843805467253571,
      -0.0958977500226332,
      -1.1450845904724127,
      1.7762854906250396,
      0.6652060180123693,
      1.2822786117382194,
      1.0149451761023192,
      -0.31795073904543153,
      -0.22620010460214562,
      0.1596222017922777,
      1.3159094573858656,
      -0.03137240636270909,
      0.8479080901121571,
      0.7654852697515294,
      1.234032286966161,
      0.27092690270878766,
      0.3599814150063541,
      -0.20630645399365685
    ],
    [
      -0.1651237032964463,
      0.31914684791355086,
      0.47453996282704214,
      -0.41414840394469604,
      -0.4282551759812069,
      0.8269490853229525,
      -0.5561529210447916,
      1.3369359321151595,
      0.06357981600341488,
      -2.017982422066924,
      0.0633885619514382,
      0.49711499689938554,
      -0.9369152827807986,
      0.6992047104853183,
      0.7869303568022893,
      -0.8235190703892766,
      0.9235326159655525,
      0.5365455298363669,
      -0.23296692863409177,
      1.385581231446495,
      -0.7267378491342806,
      1.1657481552136921,
      0.24189788476480048,
      1.2652327218968018,
      0.2810338842766962,
      -1.6457810392472734,
      -0.18349460285676664,
      -0.20663241148736605,
      1.059917109055658,
      1.2373350749209593,
      0.013977292225943102,
      -0.13536555573784764
    ],
    [
      -0.8030537321973507,
      -0.5569358624841964,
      -1.6259735456857831,
      -0.46748148908026876,
      0.738396189626344,
      -0.7286594431688824,
      1.1810700341532057,
      0.3907253952025447,
      -0.4535553716447945,
      -1.506111575924222,
      0.8595905845974787,
      -1.01053197392947,
      1.632726870054312,
      -0.2573464805886975,
      -1.4969941211735593,
      1.0883850628560798,
      -1.096365269576076,
      -0.29154811589638285,
      0.5885124322745694,
      -1.0299442872253164,
      -0.9526583917028827,
      -1.0479127729421616,
      -0.7209226114076309,
      1.7526755570686612,
      0.08904480729587522,
      0.5212256085434432,
      0.05875327014502526,
      -0.03785422920866637,
      1.4888796598313028,
      -1.0907267984247015,
      0.7640969991153347,
      0.8604589490473502
    ],
    [
      0.8493564315929653,
      -0.4311267808961154,
      0.8386416775694123,
      -1.0534361656964846,
      0.3667689546758699,
      -0.6679037293956084,
      1.009432234414078,
      -1.8759169421725563,
      1.735076419631791,
      0.13776972531927995,
      -0.40984699655748974,
      -1.8074056801142129,
      0.20909955042667225,
      -0.31067283384616634,
      -2.0092321960177313,
      -1.1036830478957755,
      2.2665327311478434,
      -1.4326228741271907,
      -0.39025573003629943,
      0.057306217234488546,
      -1.878779346271906,
      -0.6952153706149973,
      -0.5660704502522824,
      0.6419307598550034,
      -0.7010340362309366,
      0.10694756531565147,
      0.14688097029498587,
      -1.2314971633483374,
      -0.2888243515530685,
      0.9347866428693031,
      1.2000661388172118,
      2.4542620124619474
    ],
    [
      1.679823317061331,
      2.513304976676833,
      0.9465485837361408,
      0.4713552485146072,
      0.48935944864361514,
      0.7366146074070858,
      0.5523517472764595,
      -0.5499995157859807,
      -0.626416310002363,
      -1.06801768092309,
      -1.4033069081351326,
      0.1259521883510897,
      -0.45024360004657954,
      0.9276180929149177,
      2.010063075809166,
      1.388022219909618,
      0.27447370509263164,
      0.7347957026739691,
      -0.8585942528265759,
      0.2805408216120619,
      0.7209949514843617,
      0.6453386581764057,
      0.43751377697237853,
      -0.3966028885610648,
      -1.485784609140353,
      0.7670705002926315,
      0.049294738272066416,
      0.052266087210171966,
      1.038398285134501,
      -2.0723595660670013,
      1.3493124582768992,
      -1.3518769922112643
    ],
    [
      0.7613338883918411,
      0.26484066510735343,
      0.01976118333239468,
      0.8198090010077309,
      -0.38436208180326775,
      0.27571157255151524,
      -0.6551943560867695,
      1.198851510375083,
      0.041624018277358316,
      -0.05960069515794094,
      0.7261309211913908,
      -1.6070562789664398,
      1.3454824978855686,
      -0.2563167007974281,
      0.8381657426438681,
      -0.5053962608636655,
      -0.4035737410797821,
      -2.421216282746091,
      1.360588654516669,
      -0.9689835249777363,
      -1.953670033904745,
      -0.22622597019183668,
      -0.08845150240618825,
      0.2684147792729372,
      0.11697683012073459,
      0.550893104325047,
      0.665723388347649,
      1.0698300981440354,
      -0.5343502218833981,
      -0.7022992556515226,
      0.03703698410531471,
      -0.30652356122740726
    ],
    [
      -0.5311244278550653,
      0.7567980788963761,
      0.8679794913736663,
      0.31000713681868003,
      1.1171151795039584,
      0.9976532373021341,
      -1.108497759911996,
      1.2235757155525646,
      0.23458880540876373,
      -1.9967705986088844,
      2.0902525890160937,
      1.2292735340755547,
      0.33114100680935393,
      -0.5684608791929266,
      0.8298635267441542,
      1.8453967802532025,
      1.1789796717375571,
      -0.009986300980808509,
      0.6041056319862423,
      1.2720550452276433,
      -0.4203163185589345,
      -1.497069643440913,
      -0.333147074504785,
      -2.8154081526037302,
      0.7586030852725765,
      1.287605583009234,
      -2.016346022331362,
      -0.6163815136488925,
      -1.0227994339032307,
      0.4477523125502432,
      -1.8127320258966535,
      0.8288113430326273
    ],
    [
      -0.5516857680258488,
      0.5567365068231471,
      -2.285411028800958,
      1.3239380430548657,
      0.20568406450119012,
      -0.8317419268239863,
      0.4705148470470585,
      -0.3119571320039701,
      1.5528266224205378,
      1.1809062319257198,
      0.3644150389682918,
      -0.7848515781255956,
      -0.2635971175442084,
      -0.3792003728382605,
      -1.096763700979787,
      -0.4573785232090313,
      -0.7758314666304209,
      -0.43418832281901715,
      0.4141543061806916,
      -0.17177988652368179,
      -0.513139579197031,
      0.3844569039011294,
      0.4436565605629793,
      -1.5781565646169755,
      0.4140251795751692,
      0.5126878402678215,
      -0.7076391005756619,
      2.7432961307059176,
      1.8613342206892483,
      -0.4127155525971892,
      -1.167630157092087,
      -0.20837021880159703
    ],
    [
      -0.48939927295903557,
      -0.9265291687151732,
      0.0434506408529128,
      -0.12268110078328652,
      0.7847363138981363,
      0.4941054496609337,
      -0.9491807513931473,
      -1.03234311981533,
      -2.0949910103491285,
      -0.6768907829508921,
      0.5019402329554478,
      0.674427666794492,
      0.902705120421224,
      -0.2852593982330103,
      -1.746490725625081,
      0.3903338475687186,
      -0.14506036735334865,
      -0.9043855136013198,
      0.58156861083867,
      -0.9360585861161097,
      -1.5597562963793439,
      0.9780079377332974,
      1.081352057193133,
      1.0331929911600921,
      0.786003212736443,
      -0.17429238222777868,
      0.2487398017222299,
      -1.5383970304467813,
      -0.11797821650959234,
      -0.9785366045121715,
      1.0206156870260736,
      -0.10257624255863823
    ],
    [
      -0.9830089712022895,
      1.2359320036720192,
      -0.8988358363812793,
      -1.9188299761060807,
      -1.04332243964648,
      1.3365794920476766,
      -0.5598332439955306,
      0.42003187871174635,
      -0.5216295032478244,
      -0.026021869342261267,
      0.7834328733041273,
      0.5771751291924624,
      -0.5050965977872968,
      0.33501766320016524,
      0.29684911012624116,
      1.5169113586788714,
      -0.9674725713820536,
      1.0211152872892613,
      0.03704544970679345,
      -1.6400133311953875,
      -1.5681190754367875,
      0.27306136502076894,
      0.5650783308132429,
      -0.9210680039685093,
      1.6390835306267,
      -0.14879422865857558,
      0.6102718282677144,
      0.7059375017917311,
      -1.7244384076591177,
      -0.2974358318057023,
      1.6649024235600038,
      -0.2101940298642493
    ],
    [
      -1.4461972641734886,
      0.6703167952540346,
      1.0970528507468413,
      -1.5155888824786523,
      -0.09955112301453803,
      -0.00048444094361518137,
      -0.5530022130169757,
      0.361713616859155,
      -1.5115228943839767,
      -0.7099004874028169,
      -0.1240387352608121,
      1.5734008433443998,
      -2.619197219213138,
      -2.5112300569307235,
      0.34747435377273,
      -1.2240332237591791,
      -0.0019945583596302154,
      -0.5394843932778889,
      0.2977102794697621,
      2.6025310732237266,
      1.8634672929370681,
      -1.0416532198941957,
      -0.43985198128657677,
      1.368343298799275,
      -0.09937906952262725,
      -0.5899816776153434,
      0.45283287365640956,
      -0.41264521619938693,
      -0.3698420311588027,
      0.8003640850435638,
      -1.5131714311005113,
      0.4904819621194553
    ],
    [
      -0.0023871378815208664,
      -1.3214411649421753,
      -0.3297944248642848,
      -0.5086655439793331,
      0.9924388899199119,
      -0.7515693770832375,
      0.432169825858628,
      0.6572148690276997,
      -1.0650834366908029,
      -0.7367375373848932,
      0.3699245896550795,
      0.24331601129214944,
      1.547967211381872,
      -0.2843811384394281,
      0.8408264500937598,
      1.0546404001516279,
      -0.9778734458398177,
      0.9662095662137526,
      0.42265724235727276,
      -1.611932076576784,
      0.6671245898300601,
      -0.19171254573427138,
      2.016680197757407,
      -1.319482192791473,
      -1.127412611425777,
      0.16692066279671444,
      -0.33986970671974204,
      -1.136468717317296,
      -2.257065615623076,
      2.8420089288590167,
      -0.5206620975326324,
      0.20943613928266727
    ],
    [
      2.1997595379252095,
      0.11404956024680026,
      0.5544546720921265,
      0.387879286649779,
      -0.8521318662954482,
      0.04654360413330145,
      -0.6282137255556337,
      1.2922171536948444,
      -0.5295032000492635,
      -0.27179713454846255,
      0.9356462858768975,
      -0.7693592768369829,
      -0.2758789761770601,
      0.6766918645240417,
      1.467159131816403,
      0.5471015770709081,
      1.884677183590487,
      -0.3775891287856795,
      -2.0145269768382015,
      -1.5438477723213886,
      0.5536507705021315,
      -0.6418364968469449,
      -0.023804433496277262,
      0.8555008646297165,
      -0.31125237358419183,
      1.176028729982689,
      -1.5468473036574502,
      0.7002612823223596,
      0.4414667487426226,
      -1.165652752482,
      0.5374962939885037,
      -0.6991977312048236
    ],
    [
      -1.1129551375370672,
      -0.990541474458753,
      -1.790206735515513,
      -0.9115104012434668,
      -0.8039092489059073,
      -0.935218814016262,
      -0.4358519116745117,
      -0.6514670403644022,
      0.006023853110632157,
      -0.24877919132549173,
      1.3449513567355618,
      0.4616692678853661,
      0.40322910957057867,
      1.435802862360815,
      2.2962583563033694,
      0.6950918655556354,
      1.5496501045822373,
      0.5565819885841149,
      -0.20923455723003276,
      0.8742071291525282,
      -1.0951604534934307,
      -1.0849614572208888,
      -0.9914816403908525,
      1.278105861841499,
      -0.21012922340748327,
      -0.7218660327626648,
      1.2660213640926488,
      -0.9318600996363727,
      0.7469972830075002,
      -0.8407386186344309,
      0.3778250268278929,
      -0.48203841375847994
    ],
    [
      -0.515971875175973,
      0.21971958134935562,
      0.19085437377637732,
      -0.7479613423908985,
      1.0555824196763512,
      -0.14760382686568763,
      -0.7483977411106527,
      -0.8148395891815479,
      -0.6492076995367787,
      0.5400255136548894,
      -0.2400252269736511,
      0.10330014797005495,
      -0.19654760516473307,
      -0.49305031195426535,
      0.10604707536623882,
      0.4900011452086585,
      1.8907255459302412,
      -2.1220558732486836,
      1.1864826377556117,
      -0.882835864604133,
      -0.9175048092511711,
      0.4342724827048481,
      -0.44613984131794915,
      0.03332125020866226,
      0.03983516584489199,
      0.4393667836660794,
      -0.5961804366132004,
      0.8807961353420222,
      -0.3191827513726615,
      0.05236283725607689,
      0.250495794656694,
      -0.3057339590239688
    ],
    [
      0.027604218277972478,
      0.7811489211992924,
      0.6074411258987475,
      1.3324859831743692,
      0.5451625846961643,
      -0.2962519315046106,
      0.3773494836617898,
      0.16844658518257916,
      -0.12654433624011166,
      -0.01830677737942531,
      0.05862484659310691,
      -0.2778116707820977,
      -1.9838120416349077,
      1.38780443123999,
      -0.6167953044396215,
      0.11215510967031954,
      -1.4087753835396983,
      -0.8987960527996143,
      0.36110603684855336,
      -1.2720815688333063,
      -0.5088936271320188,
      -0.21944486355122922,
      0.9662583732661739,
      0.8460472576065236,
      -0.9268869444836402,
      -0.9364380239469576,
      0.05625175777657777,
      -0.9486993759394065,
      0.5621472147486826,
      0.09113618766512305,
      -0.03335986529293796,
      -0.7445969044524846
    ],
    [
      -1.3634536650457196,
      0.6828782179897124,
      -1.3002148903357524,
      0.1239358458246444,
      0.5862365251960692,
      -0.15764129503101298,
      0.4508660552384688,
      1.2295914687494034,
      -1.07024661864552,
      1.8213848840991453,
      -1.5689698647360584,
      -0.24459025309116014,
      1.1373270027765585,
      1.2643140534373813,
      0.5348547423776433,
      -0.5835614622992804,
      1.1257998290534914,
      -0.1511660205068716,
      1.5840846499992989,
      1.2352478217914473,
      0.055698056499213174,
      -1.2768674446806458,
      0.9559276569733114,
      -0.4301286413676656,
      0.8497602210955316,
      -0.6784560150956804,
      -0.4734318607151908,
      0.23273297505379492,
      1.2456899342283256,
      0.5708954147772014,
      -1.7205135494564858,
      0.783235593850714
    ],
    [
      0.6812256482160793,
      -2.6038860695276225,
      0.875994315428633,
      1.9455511738221087,
      1.3810579596254262,
      -0.9256399040140925,
      0.7373136781636261,
      -0.6876238468867065,
      -0.23511988568578496,
      0.8515199805900571,
      0.3716544417852775,
      0.6476856610434027,
      1.2815639095951101,
      -1.2253704982420273,
      -0.19659753279797856,
      -1.5626722845448986,
      -0.7400576889536165,
      -0.8617351569328235,
      1.2007854470955859,
      0.014378557104338958,
      1.2879894074040774,
      -1.424205851801323,
      -1.1872429353767942,
      -1.2042857052334632,
      -0.45724204822748943,
      -3.4575412486911765,
      1.078886150782339,
      0.6577089925772723,
      -0.08383925679792607,
      -0.6438470251319708,
      0.8610700272577936,
      -0.5199091165597297
    ],
    [
      1.023495001700441,
      0.0398659019308164,
      0.3681764411610921,
      -0.4694864690891577,
      -1.9844465832355407,
      0.1092274446282935,
      -0.13856247797357613,
      -1.6930826177527434,
      1.8493395462379179,
      1.4208006409630802,
      -1.1225525337739652,
      -1.3946594968954134,
      1.0407542695283518,
      0.13669565040440432,
      -0.2866037422262636,
      1.5353840263945882,
      1.532259309149601,
      -1.5033461950952172,
      0.0342821739087445,
      -0.16560476786867825,
      2.1096930948291095,
      1.1498724192427143,
      -0.23595951836435136,
      -1.3938485931156,
      -1.4243428331206678,
      -1.2528756701928097,
      -0.43010894149953793,
      -1.3801243361154019,
      -1.3120827302536102,
      -3.0786302452516576,
      1.562524071273119,
      -0.4134313398774586
    ],
    [
      -2.3228636443968327,
      0.23705961702441322,
      -0.7939381437711341,
      -1.3703393080510975,
      -0.7197344596657581,
      -0.6950917489898875,
      0.17007996643899634,
      -0.03204743416673921,
      -0.40320420086887615,
      -0.46440631107793,
      -1.0380085342693708,
      0.7136306954294136,
      1.2075741253712293,
      1.1068047261479341,
      -1.4231825578006985,
      0.23461520890584622,
      0.6416743271728496,
      -1.128115836289575,
      0.6503196058356642,
      -0.1373112965229949,
      0.015450861913338151,
      0.3517110531142189,
      -1.0960461517082232,
      -0.9999148605044217,
      0.45350951887344193,
      0.8092528968410209,
      0.9314489422758004,
      0.37730858211434803,
      0.6384661696429281,
      1.2621494193471883,
      -0.5800093081125499,
      -0.7399035218982023
    ],
    [
      -1.7003696730488504,
      -0.8848153645059592,
      -0.84947270784,
      -0.615561656743048,
      -0.41924303905191473,
      -0.5112669112927183,
      1.5664689782282584,
      -0.6264162280185409,
      1.4688551851742235,
      -0.5298330157824332,
      0.3309596011928272,
      1.4295780761040437,
      -0.3161184834256294,
      1.0001553645434949,
      -1.3385817652635692,
      1.4760684330872247,
      0.5522237641880324,
      0.16573074368006835,
      -1.6512591380026027,
      -0.3415910185939434,
      0.18125447261227398,
      0.8975793201023021,
      -0.907979164613061,
      -1.013324558016405,
      0.5099426806608927,
      -2.259070846652416,
      0.06645160708324092,
      0.24081447947795442,
      0.046141984112234385,
      -1.964558035529792,
      0.8250224009375258,
      0.7298023186242868
    ],
    [
      0.3844616133736683,
      -0.2825372404581193,
      3.3201377465485638,
      0.4194374756510634,
      0.48172965800574435,
      -0.7152514491304129,
      0.5192593242669667,
      -0.3682478082197214,
      0.02351652572851837,
      -3.0126425343420444,
      -0.25646654883853964,
      0.9354811446062969,
      -0.48412709052993147,
      -0.4394283836070812,
      1.2247671041748727,
      0.6115305817383454,
      -0.16832856339848568,
      0.015427902758809156,
      -0.07448038222216516,
      2.199081912497733,
      -1.8407837806450258,
      -0.5851893034694027,
      -0.34859379478036384,
      1.3961314747853981,
      -1.2670184321921518,
      0.26733028177515494,
      0.05274870125067952,
      -0.17599035784928058,
      1.4323510724392272,
      -0.5872383832921764,
      1.3539182548271376,
      0.30183304623058194
    ],
    [
      -1.379392060464407,
      1.2716444578444128,
      1.8895994870974733,
      -0.48458742408092115,
      2.0064878195154097,
      -1.2917246526904655,
      1.6434414730995797,
      2.0465068402682323,
      0.13195041770441646,
      0.43513002776560433,
      -0.25950711626121464,
      1.111092154630692,
      -0.599585768523638,
      -0.8333374985728574,
      1.371205821474863,
      -0.048065258080253366,
      0.3064478576023281,
      -1.681652234949851,
      0.5521253917887111,
      -1.586930673907201,
      0.25647444516622936,
      0.09816429717907554,
      -0.09881375160873726,
      1.367773348495314,
      1.5448562565759107,
      -0.1682581739051429,
      1.3816004732194476,
      1.6896001998548342,
      0.3389645579881047,
      -0.2210374830388924,
      0.4310877177674493,
      0.48081284658281526
    ],
    [
      0.8150920827863376,
      -0.08439841393037006,
      2.497169854474085,
      -0.14563251972611002,
      -0.23750012283438507,
      -0.20262812340892808,
      -0.8600832529336335,
      0.9274609454081656,
      -0.5688206544447659,
      0.7578744944743117,
      0.32860502033730893,
      0.779168834212868,
      0.3664849936848427,
      0.27836634472708643,
      -0.1106971767817058,
      -1.0103153673408714,
      -0.3910232102257287,
      1.1415494347804502,
      1.3218308215426635,
      -0.9711766776737543,
      -0.08306946050740452,
      0.5879676178221414,
      0.3761848153023848,
      2.0514495071927765,
      -1.4589072653241142,
      0.8196933787333471,
      0.10594002451160742,
      0.6567432841616236,
      -0.7651961528878797,
      -1.5726849894400605,
      0.48467159521218217,
      1.4625995407708203
    ],
    [
      0.02138089264618241,
      -0.8982696986742694,
      -0.35886091058399283,
      -0.34163895741461703,
      -0.021010957333649872,
      0.5670207560652836,
      1.1482115530116404,
      -1.1828088536990637,
      -1.8237286334696043,
      -2.544315961207766,
      0.6534141538199079,
      0.18915136990914644,
      0.6564980046610763,
      0.04409352533190885,
      -0.5451379382650008,
      0.6473067780356891,
      1.733371927084035,
      -0.927657895801247,
      -1.1002212045037674,
      0.6129611614290843,
      -1.1165871097856384,
      -0.5793817446629325,
      -1.1420120097991913,
      -0.49074765300471546,
      -1.547445066504126,
      2.112210355446165,
      0.8043385323845542,
      0.4862063469154031,
      0.32124535850014274,
      0.8914727020295514,
      -0.4196877579766759,
      -1.2528166996025882
    ],
    [
      -0.22562871327930903,
      0.5746300177344814,
      0.08529134635586423,
      0.677294311646763,
      0.4309090068051284,
      -1.8107749011773886,
      0.6343311450213708,
      0.6005232330137054,
      -1.2844135587683922,
      2.2418109861685673,
      1.2877249037297662,
      -0.7023955254260933,
      -0.6820475507398343,
      -0.6523359731407151,
      0.622290777200434,
      -1.7274501266265871,
      -0.8498800385248494,
      -1.2100162692142522,
      -0.37549711950762954,
      -0.29512563339077624,
      0.42315732682689255,
      0.1461280717257472,
      -0.9585186606532,
      -1.1159522537820235,
      -0.6453098346128604,
      1.2483718609600536,
      -0.6156615762093088,
      0.21327779778315936,
      -0.5675188955533795,
      -1.7470064306190853,
      -0.21629645538532502,
      -0.03390117948742414
    ],
    [
      -0.24662049534885588,
      -1.654181156135357,
      0.5293670519982606,
      -0.45862962990275774,
      1.2442040666679859,
      -0.4167332995816518,
      -1.2783905174616863,
      1.8719097612231927,
      -0.34949286257685236,
      -0.525285245670999,
      -1.6177201139909463,
      -0.8084667975376104,
      -1.4953920293006653,
      1.0700846521026735,
      -0.0994531839107996,
      1.0228769739415704,
      -0.5313103754771084,
      -0.3250694329067829,
      -1.5432486838445696,
      -0.9447472567850261,
      0.6976770499541128,
      0.7248776560156573,
      -0.5677636886882882,
      0.6243797472630724,
      -0.6101349315598406,
      -0.15637527811182766,
      1.1986714320437604,
      2.5559706648531813,
      -0.4494300988462366,
      -0.8254671185498047,
      -0.7365893281353908,
      0.07095753491531426
    ],
    [
      -0.9608459230657487,
      -0.003995694683183928,
      2.118749567041327,
      -0.1408285536938287,
      0.7059186192446785,
      -1.4207999775197293,
      0.9408587143766548,
      -1.1781094520964994,
      -0.09575777744165062,
      0.4582105044719209,
      0.21055186282919924,
      0.1573993455351165,
      -1.5510355781563627,
      0.02829471760045463,
      0.286406437395038,
      0.5301421612901702,
      0.8145698811783203,
      -0.6950213669525994,
      0.37115738074527843,
      -0.7244989141855079,
      -0.8535874048685652,
      -1.197266250937112,
      0.4752074884867817,
      -0.5683544855178496,
      -0.6048588016508579,
      1.7347095220445425,
      0.2777269751672126,
      0.3371207545386527,
      0.27341616223670173,
      -0.36642223586052475,
      0.7811240310625577,
      0.8799481500829655
    ],
    [
      -0.4756702690456799,
      1.4563946382539614,
      1.298071006704758,
      -1.4065781110945597,
      0.3139646926071885,
      -0.011101960068711975,
      -0.7282471091971049,
      0.3481972916934116,
      -0.5079471207475209,
      0.463178405524823,
      -0.508268980620812,
      0.22536062678487453,
      0.644023171613204,
      -0.3199254182271014,
      -0.6662134386135359,
      -0.5615864619510188,
      -2.4044267213808563,
      -0.8919094670664065,
      -0.31449090119401996,
      0.15453616529856298,
      1.0196253538200393,
      0.19628513817991408,
      0.19816767998992807,
      -1.8032039683204344,
      -1.5544674561477998,
      0.6965783304115737,
      -1.4004753101476743,
      -1.5877770702161103,
      2.432529817380217,
      1.3371723697572362,
      0.45555722213311534,
      -1.6626182448999196
    ],
    [
      0.17914322118707107,
      0.9408800829911463,
      0.4502818715513825,
      0.5325422450667108,
      0.31698150505493794,
      -0.380128723057132,
      -0.3769772635960147,
      0.518246598292339,
      0.7436842462368289,
      -1.5655317623589675,
      0.24707087211209317,
      -0.6426089965225781,
      0.1533826007740403,
      0.302541798236943,
      -1.9789092636701218,
      2.2058899889168746,
      1.3438191744157415,
      2.190084077621195,
      -0.9673353291173512,
      0.7517980757643128,
      0.1048211212191114,
      -0.3913855247377194,
      0.9543325342047859,
      -0.7676203107995125,
      -0.4316946189581094,
      1.1068766052608268,
      0.47009660498256367,
      0.5263918787434549,
      0.7935618009849487,
      -0.16004844204468843,
      -1.4943900117662765,
      -0.4537152242002513
    ],
    [
      0.7354728273007431,
      -1.2795800895287828,
      -1.9833488443120817,
      1.4866502401190518,
      -0.3476652804872442,
      0.8998307479941697,
      0.5872563096376044,
      1.3595039001675011,
      -0.3368127648221581,
      -1.8844372857690281,
      -0.7810477150832773,
      -0.5323475289157593,
      0.30062601420713236,
      0.5840558762590743,
      -0.7871800635340562,
      -1.1206807799366538,
      0.7899607759568724,
      -0.6987160773230386,
      0.41007308888087735,
      0.20349779073691265,
      2.4716499817745716,
      -0.009986905678563833,
      0.42521872662583204,
      -1.8144768736185468,
      0.16246277502180498,
      1.2072779229457318,
      -0.4742149605809494,
      -0.19370007211161974,
      0.737323452741266,
      -0.9677298042434904,
      -0.15030226675497677,
      0.8847711800671312
    ]
  ],
  "output_transform": [
    [
      0.6273502592924043,
      1.468020730870308,
      -0.7615533724238437,
      -0.129067083865339,
      -1.0451012056172053,
      -0.08614567274622104
    ],
    [
      0.028427369155990992,
      -0.7194093448324947,
      0.582787541720995,
      -0.7623236016612998,
      0.09746842363008303,
      0.5776797669173551
    ],
    [
      0.39293581053277143,
      0.30102858193400894,
      1.7002415739125372,
      -0.0576366413103254,
      0.47014616717358926,
      0.21719451224474884
    ],
    [
      -0.8712070553968893,
      -1.4486062757952767,
      0.8436963763916118,
      0.6210157374520707,
      1.0750606718439142,
      -0.23870448002304062
    ],
    [
      0.24858064876986893,
      -0.3123018452593843,
      1.855851398242123,
      0.8236255513553112,
      -0.6723626354974606,
      1.5060160486719676
    ],
    [
      1.1128096349086822,
      0.5140254434882477,
      0.6336978907751348,
      1.766466948600952,
      1.149107590403,
      0.6446484493188206
    ],
    [
      0.21787344504979742,
      0.3327972853082142,
      -1.3612779439488514,
      -1.4371344553038372,
      -1.7278922484371393,
      0.08052764622733982
    ],
    [
      -1.3779108968718523,
      -0.8312360726741976,
      0.08335687571277171,
      -1.277253860917591,
      -0.4446158585410928,
      -0.17368042245153228
    ],
    [
      2.279116070657353,
      -0.6919661687111449,
      1.491528426264838,
      0.47178573816620145,
      -0.4027029075025698,
      -0.8801118188078267
    ],
    [
      -0.2412440086926326,
      -1.7755503121318466,
      0.03189887525408173,
      0.5934368719733928,
      1.250694478433637,
      2.0333886995155326
    ],
    [
      -0.20818338651996038,
      -2.2173079983631547,
      1.3338418863910668,
      1.636053333712741,
      -0.5160536987881834,
      -1.8880158161964806
    ],
    [
      -0.8946877447966419,
      -0.9656271926908565,
      -1.2565453806645368,
      0.2222061981085822,
      0.07730153152129468,
      -0.32516032458023403
    ],
    [
      2.2815465866787137,
      -0.17943155136262928,
      -1.468377649088149,
      0.9646164159636124,
      -0.11104837435726372,
      1.9691473393013295
    ],
    [
      -1.785027634937504,
      -1.4992781094940568,
      -1.4002662548413158,
      -0.0737153500657444,
      -1.290396725970441,
      0.07695245746885808
    ],
    [
      0.3433310412713505,
      -1.9844842477019138,
      -1.5695845700817908,
      -0.6937618778558191,
      -0.4980631573812378,
      -0.32997089287470494
    ],
    [
      0.33754296235766396,
      -0.3506649568617975,
      0.5872922842881267,
      0.1624734650513395,
      1.387190964841533,
      0.1414647021893287
    ],
    [
      -0.7453851420463804,
      0.5944885976789611,
      0.2542053021640735,
      -0.055044373180782334,
      -1.4738054099950906,
      0.6008556587648411
    ],
    [
      -1.5207702383312605,
      -0.8641409259536716,
      0.14656273668938574,
      -0.012796642811470749,
      0.7146046535202806,
      1.0714441941480184
    ],
    [
      0.7943552807623863,
      1.8585390321913502,
      0.24479438650239102,
      -0.016295480091786545,
      1.9842565324581372,
      -1.5659208690248372
    ],
    [
      -0.4807640087865317,
      -0.3569884214926127,
      1.2863823192368724,
      -0.9386878330082954,
      -0.32976947853362104,
      2.570345941925196
    ],
    [
      -1.3731783316760353,
      0.5153756319277527,
      -1.3846180038491203,
      1.6362869902777415,
      0.7849275489463848,
      0.22185883988296862
    ],
    [
      1.1406244021634984,
      -1.3195662496997,
      1.0157215919795282,
      0.4176792561249677,
      0.10340370017164627,
      -1.6440025840494423
    ],
    [
      -0.1178562899137141,
      -1.6286311267778322,
      -1.0408969440443339,
      -0.034283916376352766,
      -0.7316945139742328,
      0.9985734466780003
    ],
    [
      -0.6405631797054565,
      -0.36296900680450017,
      -0.23543823837936786,
      0.6317505012628426,
      0.8841390774249505,
      -0.6240259024084939
    ],
    [
      0.3456955465341215,
      -0.1481690648464052,
      -1.0595989215576174,
      0.12233406812082408,
      -0.8219782864409992,
      -2.189475956463784
    ],
    [
      0.6857455305646153,
      1.4672885948941776,
      -0.8041263252987048,
      -1.1887977447764675,
      -0.30156729113733494,
      -0.06317346046569192
    ],
    [
      0.9078769731732989,
      -1.6866309084794773,
      -0.05221186647003482,
      0.23093258850970924,
      -0.08359970969756905,
      0.9629344232968544
    ],
    [
      -0.6970740219307772,
      0.03697354148433785,
      0.7404164543621747,
      1.7054169710831022,
      2.042459849057805,
      -0.8411730109508616
    ],
    [
      0.8298204875895129,
      1.1648872496361797,
      1.5725726656216585,
      -1.6775399398511663,
      2.2541015628926044,
      0.15848387507302217
    ],
    [
      0.5101514607520343,
      -0.9871244228616521,
      0.24603483405578436,
      -0.8573726576336907,
      -0.23610786733908856,
      0.023337878818495254
    ],
    [
      -0.25327197789938527,
      0.05323339919927542,
      0.07306543372639722,
      -1.4902123259387332,
      0.000973838684967665,
      -0.8349109642891369
    ],
    [
      -0.30735584011174716,
      1.3087003008050238,
      0.8644207467988315,
      -0.03538439259859222,
      -0.8258904927884645,
      -0.9872851239501603
    ]
  ],
  "bias": [
    -1.211286460476167,
    1.7444509739252019,
    -0.9732706183163107,
    0.11433307426965994,
    -1.1455413917382884,
    -1.7873677488956328
  ]
}