{
  "input_transform": [
    [
      -1.9222632577486143,
      -0.3517286598858798,
      0.6078606262611437,
      -0.6628065153767041,
      -0.6805119250057302,
      0.3787791780859806,
      1.7175338255573187,
      -0.5616347184809092,
      3.0536180458479936,
      -1.4869292074118894,
      0.18866538002019215,
      -0.3354879773426627,
      1.0463377873040505,
      -0.4022499364773566,
      -1.1170583890237682,
      1.756281203538355,
      -0.09992316418624503,
      -0.20758833815794242,
      -1.805962874705368,
      0.050384409982177296,
      0.03879385131439159,
      -0.3736657015497898,
      -0.4974511587479839,
      0.11311355977161038,
      -1.0363452385630976,
      -1.3299173888897788,
      1.8610256348201104,
      -1.2766247609046435,
      0.9289704635655809,
      -0.7525314181291737,
      -0.4146003915063321,
      -0.08065820315334876
    ],
    [
      -1.9868028508180928,
      1.569640571227547,
      -1.1807626421174626,
      -0.3415966157052153,
      0.5700424061174507,
      -0.6752785039414799,
      -1.4814178853556368,
      2.572668361469929,
      -2.4033046209986746,
      2.935380692360748,
      0.2564626058780489,
      0.10936595327566787,
      -0.3333216331257284,
      -0.653062158289821,
      0.820969927138073,
      -0.5608115838620805,
      0.7527901094310152,
      -0.33792529441443125,
      -1.0262415066586408,
      0.20848863437180867,
      -1.9911309931054806,
      -0.4084859416942832,
      0.7166153631338278,
      0.5417686040844845,
      1.4750474558438593,
      1.7099891828633504,
      -0.6053351538211668,
      1.1090769750658107,
      1.501634649141345,
      -0.5962807875046188,
      -0.729018007157253,
      0.6821851281219691
    ],
    [
      1.6268831921341378,
      -0.9313064950836949,
      0.3431746000591984,
      -0.22069715119542604,
      0.43896773555551366,
      0.16314683440025354,
      -1.2282312903113208,
      0.3758230398532831,
      0.3303164261418561,
      -0.397538071065604,
      1.3184273929750638,
      -0.3079667131142696,
      0.8370354389319119,
      -0.5320475281169625,
      2.669840517283656,
      0.5927846800079931,
      0.20114378875593486,
      -1.7301777840254051,
      -0.37942118710634765,
      -1.199069840066756,
      1.3345711616844929,
      0.3836566218108233,
      -0.01692682259028893,
      0.35236023310439496,
      0.11412639757145611,
      -2.0252983230422705,
      -1.8792367753059653,
      0.6583890181900393,
      -0.3795499165343895,
      -1.558427218163857,
      0.024834294270507828,
      -0.08441924544352007
    ],
    [
      0.39656011548066583,
      0.7309413721828226,
      0.9244835758216274,
      -0.2553898244691075,
      -0.24611564280746662,
      -1.83489845502742,
      -1.7961945258502088,
      0.9130155390662725,
      1.5011384268250219,
      0.8773164443504625,
      0.7649108482962067,
      1.593753679808913,
      -0.6699946525167249,
      1.0393715853424013,
      -0.41409322035277635,
      0.2873635838477783,
      -0.327986352130057,
      -0.990588331871714,
      -1.5382815338202132,
      0.4076904629123744,
      -0.26721985219322525,
      0.8807461670970574,
      0.4163615113367496,
      -2.0641252815766618,
      0.5750912510953761,
      1.2805738481949216,
      -0.4466673360985419,
      -0.5964411657645262,
      0.3244012129224429,
      -0.04390565344705411,
      -1.3724490847021174,
      -0.8928808022772384
    ],
    [
      0.10514029354472731,
      -0.7303400825588234,
      1.0059437817259558,
      -0.8274931343818267,
      -1.6947922580629866,
      -1.8169796995937992,
      -0.20353237288120726,
      0.17978455366449356,
      -0.6583522190447737,
      -0.5388756998485446,
      -0.9034947607945326,
      1.3986777911563226,
      -0.9462410273156334,
      -0.763788731957733,
      0.5755047884185311,
      -0.04502563831027387,
      0.6188801169397229,
      -0.7313113999441094,
      0.07961278007623122,
      0.49263536278293285,
      -2.253060459670323,
      0.008691298106812784,
      -0.27531762824393996,
      0.4059702795526279,
      1.3068991032214994,
      -0.49893662578430803,
      -1.9550349827629325,
      0.24653553864972533,
      -0.4300556536927527,
      0.8819690797972982,
      1.4770312227568465,
      0.9850842150113394
    ],
    [
      0.15368214415659442,
      -0.052724325123344934,
      0.21774215854179046,
      0.043042672988808726,
      -0.34426573514009484,
      -1.8383129302296795,
      1.4731768163279988,
      0.9721393766335183,
      0.13708276855744939,
      -0.723341220845831,
      -0.21113931397467978,
      0.1785827174035487,
      -0.6573993832056222,
      -0.6440882594554471,
      0.8587114961652305,
      -0.074133764858936,
      -0.7202056245524296,
      -0.18838953898533586,
      0.6676214050706035,
      -0.009793078838251477,
      1.7027931278872581,
      0.23266776971531875,
      -0.22193343086805026,
      0.028283546120361863,
      -0.45383711265132837,
      0.2508253584120185,
      0.4675013072946328,
      -0.04312392158928524,
      1.8982508615966673,
      0.010177751015779498,
      0.9819577773883092,
      -0.25010358097565566
    ],
    [
      -0.05311088668586524,
      -1.9291308399488643,
      0.7849596648760043,
      0.16782705332734074,
      0.1908351489768954,
      0.4438891429886153,
      -0.2418418079212999,
      0.9864517334994554,
      -0.0674316136018421,
      0.9003054490941117,
      1.1553770434055173,
      -0.9938828983891225,
      -1.0706611848232146,
      0.1795035978392316,
      0.45101833879050196,
      -0.15883400823790103,
      1.7042058439252834,
      0.3815965599036857,
      -0.20249166214698625,
      1.5418689697589607,
      2.0219501474006827,
      0.7773574722368849,
      -0.9203481179330045,
      2.358492422012484,
      -0.9614228008002439,
      1.5769470788855582,
      0.5726676722144939,
      0.08707285009973453,
      1.4974479232697626,
      0.23840064706069,
      0.6080454045614362,
      1.218794460157099
    ],
    [
      2.344659796361636,
      0.5300530469865578,
      -2.18715994611908,
      0.6323538020766684,
      -1.2711460542566018,
      0.4546312303103888,
      0.8672707822406373,
      0.8709631192410656,
      0.9966615580619023,
      -1.1454702342252197,
      -0.020517633996550745,
      0.2680192859487461,
      0.9171630678132832,
      -1.0254875272401984,
      1.3340277611234457,
      -1.4510903179286547,
      -0.045828186997809724,
      -0.043137574221773355,
      -1.5087852789553649,
      0.24744191252674325,
      -0.37215790447970687,
      1.1514047511731962,
      1.179621187304274,
      -0.013258270759690027,
      0.747323201479252,
      -1.4240259543094207,
      0.6418516080026836,
      1.6813570710625731,
      -0.24345828116481225,
      -1.1976561993443704,
      -1.3435329860673433,
      1.463743180839959
    ],
    [
      -0.20411407179544036,
      1.0521247539170262,
      -0.11519538775745802,
      0.6866840436442906,
      0.7109225078717183,
      -0.42978730975394297,
      0.32068518920089545,
      1.252665852624641,
      -0.9223741044187395,
      0.5120081770897718,
      -0.3358497258825614,
      0.2976846528500344,
      -0.23251687986544778,
      0.4895414166494042,
      -0.8378695472791462,
      0.2769114294633124,
      0.29538331852700694,
      -0.37908213596684553,
      -0.7042898131171522,
      0.11031663672970535,
      0.479854324851413,
      -0.6008086295033305,
      0.6422094993240018,
      -0.04798039645544499,
      0.9282004450278063,
      -1.1683242016550297,
      -0.12773340410639128,
      -1.08731926912876,
      -0.21243974123513215,
      -0.06603058276080415,
      -3.0594818990438792,
      0.830048598486463
    ]
  ],
  "hidden_weights": [
    [
      1.9547172551922491,
      0.5131366091311188,
      -0.287654106719324,
      1.1672000861844494,
      0.5535404464799228,
      -0.5540752810375505,
      -0.7215889295108614,
      -0.3002560777367611,
      -1.7696706150405417,
      0.3227106438806814,
      -0.1549122704945696,
      -0.5453860439511509,
      0.10688660478480354,
      -0.9594677404663224,
      -2.126810929300198,
      -0.5375361073928004,
      1.4474314639123176,
      -0.7717089038110976,
      1.3595102162710482,
      -0.6627938950573748,
      0.20472911170451072,
      -0.5142967251572345,
      0.6659171309352927,
      0.047208274256130375,
      -1.534516719146387,
      0.6076382856037291,
      1.2865218725102976,
      -0.6753700117941915,
      0.7111974188746367,
      0.10830514395725546,
      0.32891875737896764,
      0.8083960045757146
    ],
    [
      0.7131506615274178,
      -1.22589590943341,
      -1.054509100120377,
      -0.38808405221576375,
      0.5704390629206437,
      0.0847435918395594,
      -0.9138565889564995,
      -0.220778532583014,
      -0.2484554800155581,
      -0.7727825556381172,
      1.1443187262698338,
      -1.4449905502401217,
      -1.0788275877231488,
      -0.6002001713117783,
      -0.75987375126956,
      0.34497852135643586,
      1.0448256136351142,
      -0.4153711371899072,
      -0.6841212725827359,
      -0.34547464226087976,
      -1.8057762563859245,
      0.6932208078097929,
      -1.0770483828895678,
      0.6464129880731889,
      -0.5955279343533165,
      -0.024539882576579658,
      -1.067557561134787,
      0.8615474408392669,
      1.2129005404454154,
      -0.037477402408103586,
      0.18502357451973375,
      -0.22313300781122913
    ],
    [
      -0.5520807489995687,
      0.5020695191684807,
      0.9726272524534386,
      0.015409765357937647,
      0.6559272149894154,
      1.0596930686988624,
      -0.43917943396600595,
      -0.4171393292148219,
      0.2206606206458979,
      -0.3917667747425675,
      -0.07130570835402272,
      -1.1464729239350806,
      1.1034619096294114,
      0.42948674865092706,
      -1.3828585653900527,
      1.1906150005299607,
      0.2785932970158838,
      -1.1854578996839464,
      -0.8751480201802249,
      0.2726551144311801,
      -0.37096658719153647,
      1.9895783835074055,
      -0.08283596456609664,
      0.19366030055491898,
      -0.745201989695336,
      -0.08897927347306829,
      -1.43475767547533,
      1.9774473728896365,
      0.10139904944865712,
      -0.7953879986107995,
      0.05058934232501626,
      -0.16910055432564303
    ],
    [
      -0.07940733913875418,
      -0.5882456965263338,
      -0.9037324450733436,
      -1.4225152238072387,
      -0.4948697257476346,
      0.27561297316400635,
      -1.119809296366043,
      0.05193226471676772,
      -0.05382737923316091,
      -2.453167914938008,
      -0.3935295821336063,
      -1.7796453797233591,
      0.7021330859798803,
      -0.11117907828555726,
      1.0375850678015432,
      -1.696232568527414,
      -1.2743955749562306,
      -0.3011717187828759,
      -0.6978865975697123,
      -0.06606194325773278,
      1.5791721322372927,
      0.032894619058674135,
      -0.9427014435780318,
      -0.0010335393483384108,
      -0.09917545405656394,
      0.3105348343932075,
      1.874300218751493,
      -0.2721592560264266,
      -1.695248535762717,
      1.6156062174517745,
      1.659832048821106,
      -0.16170952132254773
    ],
    [
      1.688374927822626,
      -1.774389795645735,
      1.538941241503388,
      0.09904168729827285,
      -0.5721716034166657,
      0.09481051311955907,
      0.9597369497959141,
      1.5436139603421082,
      1.8959442633579369,
      1.9118344134612772,
      -0.20784238496900395,
      0.7242516547694217,
      -1.8612379645538184,
      -0.5069462080560786,
      0.412307898017982,
      0.7171961536475394,
      0.5644189217682317,
      -1.806033861265427,
      -0.20830428945226037,
      -1.4888823467952614,
      -0.8238489803273853,
      -1.743573265181073,
      -0.41899600363759243,
      0.003878392133996047,
      -0.2911721476451853,
      0.2868519078174563,
      1.81242333570426,
      -0.9536650836924517,
      -0.07649480508681375,
      1.0405557870052413,
      -0.08317769772817837,
      -0.4943659902775263
    ],
    [
      1.8803594129018733,
      0.8509505339418582,
      0.2945862839620395,
      0.8285454634588417,
      0.2240566372001964,
      0.08584483730012801,
      -0.716429873445129,
      -1.1491530855976562,
      -0.07773280291264918,
      1.1686183064749236,
      -1.4904949670456153,
      0.07594160397528714,
      -0.42164536320169593,
      0.33827577857761126,
      2.1621202910463526,
      0.21414235074609797,
      0.567456627002916,
      1.6004586360991317,
      0.01939573673857741,
      1.1422390640830946,
      0.04695079901021468,
      0.06472244167028819,
      -1.158977592237412,
      0.6306813889342526,
      0.3334804042315164,
      -1.2219680019722077,
      -0.7877250129635358,
      -0.29515317887336173,
      -0.45777853485211206,
      1.2923657039231722,
      -0.9767875321230014,
      -1.5908912491990208
    ],
    [
      -0.9733996267178677,
      -0.19813543736212136,
      0.9592077291477976,
      0.6371642522836422,
      -0.08009792221630467,
      1.101481230641182,
      -0.332235326755964,
      -1.3474962746210029,
      0.9255302553675614,
      0.9791498782461051,
      -0.3279173258544613,
      0.5287632071562011,
      0.3559601637467237,
      0.3467925912713561,
      -0.7216543148012865,
      -0.4311731433454341,
      -0.41747121499624046,
      1.4443352797066769,
      0.5348363861747276,
      1.2996176445889114,
      -0.3021766366419809,
      -0.21860629518759067,
      -0.2026312998913474,
      1.4294710795297865,
      -0.7023633577524434,
      0.05382167826286495,
      0.685775449047817,
      -0.1826176677622268,
      -0.9933934490399807,
      0.9998451743514086,
      0.22225980097892514,
      1.0141915152281178
    ],
    [
      1.1603391505042866,
      -1.0172671814437872,
      0.30802498043314236,
      0.49875850746000194,
      0.7391321762891259,
      0.11773616147946253,
      0.21784520317561937,
      0.3628766782077,
      0.2173267064564218,
      -0.3843260538907016,
      -0.1926986470316092,
      0.08877396052402406,
      0.1699138327966963,
      2.2396023284969364,
      -0.01171195477027537,
      -1.427075708122466,
      0.0801760072852462,
      -0.020138547021282708,
      0.2248224632649275,
      0.12404176763789283,
      -0.05541351453676315,
      -0.26080353850169796,
      0.023803299650336257,
      -0.022432366311023376,
      -0.6577744451540382,
      -0.6473697070127854,
      0.4340647941668278,
      -0.389397148672894,
      1.122574608141812,
      -0.5268617787859368,
      -0.5518574061066993,
      -0.41316038382853637
    ],
    [
      -0.8243180102936409,
      0.06609771106163753,
      1.6583279930390444,
      -0.3354190701262934,
      -1.7174804302862454,
      0.14739901068861114,
      1.7528837015455416,
      0.9347387064080177,
      0.5269692092225308,
      0.05581537920424712,
      -0.9184855811492874,
      1.5236871784306494,
      -1.2567046820191836,
      1.101707917982769,
      -1.0021316683643053,
      -0.6028432389606548,
      -1.1641727697577178,
      1.3916791272109286,
      -1.3198327947983537,
      1.1788385339931575,
      -0.6806074428328965,
      0.3978211800459751,
      -0.6257307287031132,
      -1.2037053003959046,
      0.6128131028901986,
      0.003178061909328783,
      0.9180435609221307,
      0.9680745548391683,
      1.2999708684174365,
      -0.1500567480071076,
      0.26397985940263075,
      -1.4657190219493985
    ],
    [
      1.617326230386433,
      -0.32016449313641404,
      -1.1052891254808725,
      0.4649825425700805,
      0.7601392139230261,
      -0.17420153518228693,
      0.6114240247856504,
      -0.9016020303971002,
      -0.14376623089366694,
      -1.6731468815419144,
      -0.033490711655076486,
      -0.03653976772761664,
      -1.1241900691599875,
      0.39984987287744217,
      0.5463154345998078,
      1.9004635994265804,
      -0.057061023938897185,
      0.9113713978437077,
      -0.572531693221948,
      -2.2409587704735907,
      -1.8342674998670327,
      0.1864363453375824,
      -0.8444033721224614,
      -0.01804337893472091,
      -0.666692077600835,
      0.30746009893522347,
      -0.8435219628033785,
      -0.33517090860047,
      0.005022010916145525,
      -0.6244767157213038,
      -1.1194668827486425,
      1.4895051450275627
    ],
    [
      -0.3576846862724771,
      -0.571623796630657,
      -0.07213646642908013,
      0.5120234733553819,
      1.8078291030104836,
      -0.039745326836767084,
      0.09620262776294236,
      -0.6025884911081776,
      1.18106247959824,
      -2.3632187769640254,
      0.3187271834903223,
      0.5035911222477267,
      0.3927130126915184,
      0.2911194692174659,
      -0.9346770445465563,
      -0.2343235104061104,
      0.6637572552061417,
      1.5242576157705723,
      0.33847913823855436,
      0.26569539159202105,
      1.0736991811063388,
      -0.49806049410937114,
      0.7452752456756826,
      -1.3640344851850512,
      0.7072022251380482,
      -1.0506489775443792,
      0.04631843303928988,
      0.4976357829792226,
      -1.433504663910717,
      -0.47794548767807116,
      0.6622342272295914,
      1.4252860432132637
    ],
    [
      -0.5856434015690255,
      -0.021712178949628867,
      1.4529910924677807,
      2.241643727886743,
      -0.7571301586104114,
      -0.06820634355762378,
      0.2608409194410909,
      0.1164503098797856,
      0.9685757202662993,
      1.4971529454145913,
      1.534420662809523,
      -0.5808864970394879,
      0.5086886267460041,
      -0.023925593579543263,
      -0.034342213173189196,
      -0.7097130034788791,
      0.6124699186069424,
      2.2752984433668417,
      -0.5627950991525698,
      -0.6871328721322911,
      -1.2054023843001158,
      0.3504965318990635,
      0.3644756219333652,
      0.1633824508956277,
      1.2880410621749663,
      -1.9328337301876748,
      1.6288057747746831,
      0.3026920015989126,
      2.0526640205416093,
      1.4694272591157167,
      -0.3224987537424112,
      -0.3649812619096245
    ],
    [
      -0.400545516035069,
      -0.027230876807309304,
      1.0037548201229782,
      -0.7137079243808433,
      0.5646896145469995,
      0.7174971743298365,
      -0.7816645218607927,
      0.9752420477002616,
      -0.18694255562907167,
      0.7325422088666184,
      -1.7221924300774385,
      -0.40173564430632847,
      -0.9188440419111341,
      -1.6795861654692068,
      0.023902267974345755,
      -0.5876185555793623,
      0.17540477372966204,
      -0.2798635122574161,
      -0.28238991555179704,
      0.8477530113627566,
      1.1899943242134638,
      0.09892406018230762,
      0.3178930484815321,
      0.324519648709156,
      -0.8850642327586592,
      0.13674457552967717,
      -0.4249909040504117,
      -1.1333879789289638,
      -0.13565259885151032,
      -0.5045952582563404,
      1.0555404169700324,
      0.306982622076193
    ],
    [
      -0.4907990152637911,
      -0.9259978998934837,
      0.3034772327832969,
      0.5448181067926662,
      -0.4649215143111613,
      0.28450416816675234,
      -1.8295340815799144,
      -0.5621629570659353,
      0.5307586209357541,
      2.233743862468438,
      0.272058136488294,
      0.9418870527959531,
      0.8752041013519327,
      2.7777972055125937,
      2.165772919988621,
      1.4093551635000467,
      0.4402139377420285,
      0.20148257833415825,
      0.30494912683407044,
      -2.149265096017815,
      0.2720228867010049,
      0.9085792170074233,
      1.3866680772161089,
      -0.0714514797086784,
      0.6011783073120539,
      -0.7941378130964927,
      -0.15804984272390749,
      -0.08499059087557338,
      -0.27566433302858634,
      -0.003419366731452038,
      0.28949819487630163,
      0.6276330673520877
    ],
    [
      -0.16519399235778476,
      0.7714694914534679,
      -1.5836158356934107,
      -1.7135209205981348,
      1.3215650550644888,
      -1.1299532448030283,
      0.5408476641551754,
      0.2129188337316356,
      -0.20451972287194894,
      1.1546606980549483,
      -0.8612320571473993,
      0.06620756400996577,
      -1.6055559750193247,
      -1.205403207850687,
      -1.0695648893474892,
      -0.39791749746265515,
      -1.5019458053209762,
      -0.041850287960811104,
      -1.416941113273619,
      -0.44906346283019105,
      -0.7659829403274131,
      -0.3346567281242038,
      -0.21227278208826655,
      -0.6750121284877497,
      0.9809673937173735,
      -0.4333945324754906,
      0.5797453030858523,
      -0.8731844089084291,
      1.6961560712270416,
      0.6730727829250938,
      -0.11626296104912158,
      -1.2184801336636613
    ],
    [
      -0.6825700376163321,
      -0.3775693227799916,
      -1.7644092679331895,
      0.4007967438738489,
      -0.6278989930197741,
      0.10243346033438645,
      -1.1679212885693449,
      0.052912112714254486,
      1.330019437695654,
      0.6406496824139915,
      -0.6670325187258371,
      -0.9788306182157873,
      -0.8200983842345079,
      -0.31738810171706533,
      -3.002858736108099,
      0.3041168568644235,
      -0.2612995280505766,
      1.1889086967536093,
      0.5648995202853543,
      2.4455917919252843,
      -0.8234437500483354,
      -0.9970393046663996,
      -0.49880235022602937,
      -0.9467896948117006,
      0.18175177121121416,
      1.3052569945826946,
      -0.40682904962779926,
      -0.5593187973475658,
      -1.6487400842743591,
      0.826056207637793,
      -0.47818923186357004,
      -1.1743179914362116
    ],
    [
      -0.015642107631831267,
      -0.2639872842055598,
      -1.4725359459255576,
      1.6825326836585837,
      -1.3561291762755214,
      -1.0745184843877957,
      -0.35854723630883817,
      1.477285598720326,
      0.9046510825687168,
      -0.33079963450015193,
      1.3983204230163617,
      -0.2068917691658663,
      -0.6932941984688104,
      1.9170352343041102,
      -0.3687060768343684,
      0.4916120504898089,
      -0.12487518342338384,
      0.7161802800954659,
      1.4539467920163902,
      0.5721667591921804,
      0.9174332381816169,
      0.30375866832289805,
      1.4484708071387629,
      -0.0840745146259724,
      -0.10299559847088889,
      -0.8949784959752671,
      1.4268661014626278,
      -0.05225363953573846,
      -0.09340428098593445,
      -0.162524051878927,
      0.2942747787374707,
      1.3810743590072898
    ],
    [
      -0.8835851347626642,
      1.1336256526559234,
      -0.7441453020234751,
      0.32780571552296656,
      -1.3072293602811302,
      0.43995128550442486,
      -1.3373859431291868,
      -1.0741163097081314,
      -0.04162408420416669,
      0.7460057007406252,
      -0.15763728676070232,
      1.1855111672350669,
      1.5555337847585506,
      -0.8510756508613693,
      -0.5765977835787099,
      1.1644591119760113,
      -0.5645417586545575,
      0.4572741634665556,
      0.7314457316351309,
      0.591933914745062,
      -0.6889670960215593,
      0.21704454079225338,
      0.09062547408131721,
      -0.48177798493062957,
      -0.43403757612671096,
      1.372736339247453,
      -0.7867354056050834,
      -0.906474301443,
      -0.3675803513024337,
      -1.1134100201127715,
      -0.6328893743899918,
      0.06736301328084854
    ],
    [
      -1.321088742372823,
      -1.013853199327935,
      -0.8184119230539191,
      -0.2769471521459134,
      -0.1738428408977851,
      -0.6392755156944316,
      -1.1761011824747123,
      -0.9500312323909292,
      1.2882141686621744,
      1.0951150183222318,
      -0.14026637894583097,
      -0.6863207729283572,
      0.1641815803292715,
      0.7930201302568319,
      -0.5076420022526217,
      -2.0115814120251785,
      -1.05979619726995,
      -0.24664957703560259,
      0.5415233945983955,
      0.22678282329329208,
      -1.7655834201425766,
      -1.1019031358527085,
      -0.6696663330057991,
      1.9486808154715924,
      -0.20555940309366555,
      0.23946890008604566,
      0.2702861204380069,
      -1.035603283450526,
      -0.9496343045257825,
      0.11014391245548279,
      -1.1572490227258048,
      -0.9783656448848299
    ],
    [
      -0.35109884517757073,
      0.7650759940042039,
      1.6767810088056667,
      0.9405000438897901,
      -0.902850036902037,
      0.22432968970749756,
      -0.623858650542953,
      0.026202216794980786,
      0.11060997545163143,
      -0.9001512534118461,
      -0.5436635487241518,
      -0.4463302139939989,
      -0.10596601664333231,
      -0.1517464915184562,
      -0.8376807545147815,
      0.21754753375164304,
      -0.20801300784544152,
      -1.8542099148178877,
      -0.3173017295663276,
      0.1032402382529933,
      -0.10070301645747023,
      -0.4437793853688285,
      0.034622417450930434,
      1.1919952969482808,
      0.7417546054549237,
      -0.9638173395603855,
      0.22712940927100173,
      0.27960820224671123,
      0.4582925754049703,
      -0.11364837036886406,
      -0.42635122497211503,
      0.27685402997082414
    ],
    [
      2.6973352689644936,
      -1.2760066538849462,
      1.191365324098785,
      -0.6746561155278354,
      0.27688537661363916,
      -0.4130769304089283,
      2.054790655198773,
      0.6392165756006244,
      0.4690525728497098,
      -1.3178702402731826,
      0.6892458779986363,
      -0.6085274699351647,
      -0.020041387611057636,
      -0.7375635376633533,
      1.0323697744934055,
      0.39890057884066454,
      -1.1069751479036942,
      0.940830831303608,
      0.914971391415313,
      -2.500790040865941,
      0.6351774489241332,
      -1.1018887096429728,
      0.8788290400096965,
      -0.5313594166448523,
      -0.3878729437410387,
      -1.1560106027452817,
      -0.7680267307659132,
      -0.018632662970875315,
      0.7886076330592522,
      1.0923511998582187,
      0.6123542511671052,
      -0.6133977982192896
    ],
    [
      -0.6659733700476786,
      0.5022579029248244,
      1.6571847419597672,
      -0.8056595038771387,
      -1.3021084124184912,
      -0.6085392648842725,
      0.1622902345694431,
      -0.9996719284260192,
      0.186132521317008,
      3.162718459851964,
      0.2950516972408575,
      -0.3976360850652697,
      0.7401185125213278,
      0.37502973585251986,
      0.5988832638586091,
      -1.1623834518587925,
      0.5028634885987344,
      0.08399827825021816,
      0.40456914127654,
      0.7032629525382003,
      -1.0601437888414276,
      -0.7328846890396615,
      0.12767010997468867,
      -0.9685750341819407,
      0.3179820683996205,
      1.5670622307543338,
      -0.3239676177388935,
      -0.5615449691833374,
      2.0520214652281226,
      -0.8997348920142761,
      0.49093458862980094,
      0.9778296766868573
    ],
    [
      -1.5071911527799395,
      0.15986045902571117,
      0.8339185401692694,
      -0.4509916769808758,
      -0.9299447890074105,
      0.19404610109109247,
      1.1172900446445844,
      -0.5504707945942106,
      -0.5001328607077842,
      -2.1734290176466287,
      0.02677407894384218,
      1.2591764998086532,
      -1.2438063174261722,
      -0.16078627666532447,
      1.3036167035398798,
      0.3120908216265631,
      0.427858610928651,
      -1.320509545309357,
      0.6557111633580606,
      0.0756211288635305,
      -1.3078971933946246,
      -0.05498484577874149,
      0.3132275619970471,
      0.6050881115354881,
      -0.005944967200058065,
      -0.26580160547972037,
      0.5108325066679252,
      1.0429844228963299,
      0.46646701253442635,
      0.3920182737676339,
      -0.19329606652066397,
      0.45558103964723445
    ],
    [
      0.9359762547790967,
      -1.3864651573765125,
      0.7582547305045431,
      -1.3463199370571581,
      -0.23827608977619769,
      -0.7634781623189746,
      -0.5066908741146321,
      -0.5179807092855481,
      1.9806489781471748,
      -1.570321682357051,
      1.4048914363895786,
      -1.2936214791670977,
      -0.8443527982459916,
      1.5993976730403894,
      0.541960734754968,
      1.0008781745442428,
      -0.22177494456212782,
      -0.5625450174783636,
      -0.2472092244615494,
      0.30485275633203984,
      0.9694867566306336,
      -0.712650939712933,
      0.10028695075313107,
      -1.370731457050889,
      0.15546717552207168,
      -0.9015178905691993,
      0.9163939837474128,
      -0.06101485391466771,
      0.31267558828900327,
      -3.172549071556375,
      0.18398656002152503,
      1.157233365711434
    ],
    [
      0.9545497617883569,
      0.14504646228330975,
      1.3090610613274982,
      -0.5745146218629708,
      0.4869526259902687,
      -0.2831323071304122,
      0.07794991433329897,
      -0.4610624846475962,
      -1.0939141187733756,
      0.5605445535307879,
      -0.11829222277092481,
      0.09009459601221205,
      0.0890507891656965,
      0.4910176238266268,
      1.1696009736939896,
      -0.017965008518273824,
      0.038071999337573395,
      -0.10843455548330273,
      -1.3619647694564228,
      0.03992577000815544,
      -1.1261402522077923,
      0.8948876067622655,
      -0.19508376077203873,
      -0.17695975827611357,
      0.3349819072080044,
      0.5638793281103142,
      0.19280996597587818,
      -1.6522071970441796,
      -1.0932087826592016,
      0.3440081252246458,
      0.32573233045671124,
      -0.7226627861727543
    ],
    [
      -3.0875400303574008,
      -1.516144054218007,
      -0.9741129456612215,
      0.11933815766594486,
      1.0353011620804644,
      -2.209191626425175,
      1.7760973755450447,
      -0.6181579746953271,
      1.264595822808554,
      -0.09305513620119028,
      -1.5129805589777374,
      0.0261987646121289,
      -0.24901948550846242,
      -0.4336485346358179,
      0.4362825569197443,
      0.23349672340477903,
      0.49112661333133684,
      -0.3286488736491898,
      1.2231931217930476,
      0.934250434364051,
      -0.5564181485652913,
      0.9169125642523429,
      0.4073631888452592,
      2.113661779022867,
      -0.2634211044798904,
      -0.3751349522401021,
      1.2068171293202863,
      0.9578479859259182,
      1.56510771194936,
      1.7099021551580253,
      -0.6902266630941042,
      -0.44886920182379864
    ],
    [
      -0.012909734154402606,
      0.3501535696998416,
      0.892818404473477,
      -0.38924877391470647,
      0.1265467898571857,
      -0.18175858704383602,
      0.8740175579080637,
      1.574102885931358,
      0.7740524929804684,
      2.676263836500055,
      -1.426909482824029,
      -0.36997588064033,
      0.32253417761091013,
      0.49509397683147127,
      1.9732183724955736,
      -0.6567795733192094,
      0.8506805810247614,
      0.4728459530801163,
      2.020114151481389,
      1.4316236334812675,
      -0.23865547473463042,
      0.6963997717329762,
      -0.30850271594996603,
      0.731345212008278,
      -1.3032509372543102,
      1.128061481699711,
      1.2898059489430094,
      -0.06769860039377855,
      0.015112274633912274,
      -0.17664633588077056,
      0.6244325937148488,
      0.7256586589963122
    ],
    [
      -0.5877178946312089,
      -0.17268372786970476,
      -0.3725859539661428,
      -0.8570033526926764,
      -0.3055973746331506,
      -0.4942560320384543,
      -0.6537000440297661,
      1.8316504802136646,
      0.3134849589498835,
      0.9234384721090115,
      0.7086231899776796,
      1.6451291115965694,
      -0.5076440694761085,
      0.3036906650313061,
      0.5530588743707917,
      -2.2089074373990027,
      0.11345787018584588,
      0.4548464051196866,
      0.18901694569179714,
      -0.6285509919658031,
      -0.24808619382023428,
      0.14875637466769911,
      0.856595893681494,
      -0.5060700295501872,
      1.2264112386696187,
      -1.6161860617420918,
      1.7193743373845503,
      0.8794106748131681,
      2.3034366420315755,
      0.6933486388095641,
      0.5608703805540748,
      0.42785180579754223
    ],
    [
      1.8436150739851875,
      1.5687504942329797,
      -1.769518076500757,
      -0.03149053941807339,
      0.9463549731386537,
      -0.6073837490597839,
      -1.582146264908412,
      -0.35189645759219224,
      -0.517297676844023,
      -0.21523834168209677,
      0.5878603047366238,
      1.2505873342699305,
      0.6977949837378875,
      0.21848509331238453,
      0.9232735938290753,
      -0.14591381573697154,
      0.1882228313631081,
      -0.07044775291364297,
      -1.0738286917388213,
      0.3314064114411583,
      -0.09187051532085738,
      0.6035846319601036,
      0.8486461305702072,
      2.5262228304930368,
      -1.204307399530909,
      -0.5720392426552078,
      0.04299139754942855,
      -0.289464962580327,
      -1.0551464622367484,
      -0.7487797030708253,
      1.2455784343233698,
      1.076872576869904
    ],
    [
      -0.10742975502875107,
      0.05234038228356989,
      -0.9410044457061235,
      -0.050130143494430145,
      -0.1468906716065964,
      -0.008227390164408922,
      0.4300677103537687,
      0.5977578628689727,
      -0.17757556581840298,
      -1.517023310882827,
      0.3766319603165534,
      1.9115654008809342,
      0.5194535596203844,
      -0.6998580334131381,
      -1.1679413654969408,
      -0.7512737490420036,
      -0.7093602493963928,
      0.8607720968809509,
      -0.4873156943959451,
      -0.34436274642221887,
      0.2400013935773271,
      0.688853928252399,
      0.7722184650694248,
      -2.0329746768313344,
      1.9060383208216403,
      1.3665812547542455,
      -0.28922422038169826,
      0.8709285455538989,
      -1.6907381972210365,
      -1.2302414731803737,
      0.038453441029687875,
      1.6799565125724076
    ],
    [
      -0.48673355028119364,
      -0.1321014628451789,
      0.16768810492224104,
      -0.497503452378028,
      -0.6238934985759668,
      -1.1065735372393608,
      -0.2748075396421837,
      -0.14968098099396107,
      1.0049340146862635,
      0.24711425248806468,
      0.04420102634082362,
      -0.20759667819389957,
      0.2717539180783148,
      -0.8588795062979897,
      -0.3159230869477379,
      -0.32065788615482677,
      -1.9823451596843706,
      -2.225667741122714,
      -0.02333758041544456,
      1.0325649851542165,
      0.14099738698312494,
      0.8551596903387654,
      -2.0058572456154593,
      0.9462513152511655,
      0.0403822699236555,
      0.24548038754362506,
      0.21064406860707036,
      1.049719619373667,
      1.013468621309735,
      -1.585397926224049,
      0.6073914026148525,
      0.7684119185105505
    ],
    [
      -0.3392856937402364,
      0.06267465065223246,
      0.9153084664917347,
      -1.1708508807396212,
      -1.5917991717122553,
      -0.2416075277563144,
      1.3222279030613093,
      0.9106703429647126,
      -2.362115505678839,
      0.37521683560446617,
      -0.28697594187574565,
      0.10331765367919184,
      -0.06513691922808099,
      1.7721827789144307,
      0.8922768767996322,
      -0.5158299911430699,
      0.39095961716701144,
      -0.6633834548556985,
      -1.1378795751096278,
      0.9056062071643299,
      -1.4008048630545817,
      0.9538543124856592,
      -0.9414016366546946,
      -0.5428685367037945,
      0.03780245580900077,
      0.4213196898674651,
      -0.15003776212425007,
      -0.273367564609129,
      -0.8333315226497491,
      -0.9186543530175878,
      -1.0227804882647,
      -0.6289090346599573
    ]
  ],
  "output_transform": [
    [
      -0.8154684751432328,
      -0.5547148605448874,
      -0.8486422513641564,
      1.7436122940735967,
      1.4049974005341024,
      0.6553198622895262
    ],
    [
      -1.0955925281216543,
      -1.1120218168087186,
      0.6385966522438978,
      -0.13883419941524552,
      1.360991689829372,
      0.007713116596414791
    ],
    [
      -1.0804930859221618,
      -0.45312551498379927,
      -0.9229764395785618,
      -0.16079221240208563,
      0.3344342063305681,
      1.0167828271467716
    ],
    [
      -0.38155190439252573,
      -0.7031452700168679,
      -1.3974028434450745,
      0.21508514205751814,
      0.995200712598946,
      0.4091907470323771
    ],
    [
      -2.2196231062136924,
      -1.15634273911752,
      -1.000100521012997,
      0.11691129484961148,
      -0.3005840421010773,
      0.839681714258617
    ],
    [
      0.10652176444275212,
      -0.04468701705422806,
      -0.745052138120575,
      -2.430423723077794,
      -1.1054394479578593,
      0.5630500461882867
    ],
    [
      0.5166030913844623,
      -0.9771515750306545,
      0.5349180561805396,
      1.6295733236325887,
      -0.3117531903991216,
      -2.2731861186162123
    ],
    [
      0.3142689441524555,
      0.8992098556756147,
      -0.7693241951428812,
      -0.9145774505226959,
      1.3201001149233882,
      0.5716531247133396
    ],
    [
      -0.10759688820837103,
      1.268973917246955,
      0.5489073545978601,
      -0.10084977312918517,
      -0.41461999401828825,
      -0.14522985013753628
    ],
    [
      -0.9894139594472195,
      1.1486080734179023,
      1.0584969784605713,
      -0.5551455438258152,
      0.8127654013656412,
      -1.0870813733414664
    ],
    [
      -1.595611977581059,
      1.124372091833003,
      -0.7908316746650603,
      0.3425525853069919,
      0.17024937998193998,
      1.5285344428049712
    ],
    [
      -1.6748528593604457,
      0.7671789695447683,
      -2.228714463242595,
      -1.8374865561606724,
      -1.4902846817797988,
      -0.6430536066327575
    ],
    [
      0.18427666033058962,
      1.2301226152183378,
      -1.5009340191094989,
      -1.7816864801263521,
      -0.1225866597726006,
      0.2273867277571436
    ],
    [
      -0.35800897572624657,
      -0.34251515582073394,
      0.2865613949633192,
      0.870889463932383,
      0.7412975334191497,
      0.47331032933288725
    ],
    [
      1.9883832279310516,
      1.547785049569364,
      0.21689337897831623,
      -1.4268059063096836,
      0.23226924806403612,
      -1.201564474553884
    ],
    [
      0.08276654661844882,
      -0.5534056485982913,
      -0.6242283773606224,
      -0.8002272079723599,
      0.06841777260669973,
      0.5823843631127877
    ],
    [
      -0.8812721842960605,
      1.4982849608185729,
      -0.47396283046164484,
      -1.5002670448847113,
      1.8806156969853935,
      -0.06759003998717364
    ],
    [
      0.09588182088966771,
      0.9968035081853531,
      0.24053242288678447,
      -1.035573597673427,
      -0.6590175891899064,
      0.10636388415611449
    ],
    [
      0.6845596435821966,
      -0.8537390595288746,
      -0.07498352879767176,
      -0.7502577392936619,
      -1.5200495598696102,
      -0.9187825353922389
    ],
    [
      -0.4230401083091711,
      -0.3922808691855077,
      -0.3103853487907913,
      -0.5018257014908241,
      -0.47016267423200414,
      -1.5048633035363952
    ],
    [
      0.1060900292602979,
      0.21213023136003548,
      0.17974176536794864,
      -0.6200213543981793,
      0.4456125656246751,
      -0.775548695594037
    ],
    [
      0.25207723146499866,
      0.4524775041996224,
      -0.18925358817550478,
      -0.8268823320499739,
      0.3026276165608257,
      0.4216518329548637
    ],
    [
      -0.34075927115649324,
      -0.40820926639403404,
      -2.8697148198810534,
      -0.6159966750445658,
      -1.2729337964843772,
      -0.22709631171166153
    ],
    [
      1.6715566914497682,
      -0.22279598632374728,
      -0.1235465652474388,
      1.0344376495058571,
      -1.7462791432078306,
      0.6476370245549135
    ],
    [
      -0.6499091067491264,
      -0.5925395812684543,
      -0.8204507957478774,
      -0.7216484053351295,
      2.477526348319627,
      0.7527346457872263
    ],
    [
      -1.3726457094051736,
      3.0249912926895375,
      -0.4992822005779127,
      -0.2618861092296188,
      -1.6756030591327469,
      -0.17305561794386926
    ],
    [
      1.9617858093626763,
      0.9539792461931808,
      -1.7403771264725418,
      -1.6508882630359825,
      -0.38496656446998184,
      -0.5942822156591029
    ],
    [
      0.5127322622637679,
      2.689995435754275,
      -1.5244442056612542,
      -0.4401148783606405,
      -1.2093464794186017,
      -0.27162342631855396
    ],
    [
      1.2898984675824083,
      0.47643249829560463,
      -0.5040546584426142,
      0.9986113979978917,
      1.4921207526904543,
      -0.8917981222288102
    ],
    [
      0.39484183832478287,
      -0.5608915507150747,
      0.003653681245390147,
      -0.22574347105155992,
      -0.46848751892601365,
      0.20284367347370985
    ],
    [
      0.3869003487288425,
      -0.18196263744973387,
      -0.7147476150465415,
      -0.8981283789693308,
      -0.028153074694457214,
      -0.7814484817443892
    ],
    [
      0.07539316650873727,
      -0.09516117123392782,
      0.6778164657979143,
      1.9922839336095501,
      0.2290625765928969,
      -2.6743490999222006
    ]
  ],
  "bias": [
    0.9515098580075184,
    1.7024081835764513,
    -1.0455425484198833,
    -1.628703616397051,
    0.5807451949882253,
    -0.32872551102072256
  ]
}