{
  "input_transform": [
    [
      -0.2040729967229054,
      -2.0615728662671646,
      -1.866347618313368,
      -1.1817301448460276,
      0.127227919408079,
      0.04152282744969674,
      0.34900539161620475,
      0.800210168208516,
      -1.7747661625295357,
      0.33065890080180416,
      0.4011304476768438,
      -1.2570516445801727,
      -0.9278566654837956,
      -0.5374476889443324,
      0.27029335259655035,
      0.13622688369444075,
      0.9295935067429512,
      3.0165445983671524,
      1.1990644360845337,
      -2.294718669403515,
      1.6617564860518765,
      0.48040647319707996,
      -0.8265296484814209,
      -0.5287582157453219,
      0.15532634661356548,
      -0.574345800239808,
      0.6897129396709181,
      -0.45510791834775843,
      -0.48493713449371106,
      -2.055272767948748,
      0.8890065634193411,
      -1.1330285148468402
    ],
    [
      0.8440266986949011,
      0.3402930824445687,
      1.3611126326103515,
      0.9406847255801397,
      -0.43650434020305534,
      0.858898909677296,
      -0.37069406321184023,
      0.3266150722367797,
      1.8642985928017792,
      0.2747447519100334,
      -1.0864288882523987,
      -1.7146374472329262,
      0.10284499240956609,
      -0.30728204706393025,
      0.10557374683573126,
      -0.9024449275748805,
      0.8230255073951533,
      0.79807520427509,
      0.9970186771328184,
      -1.1522766421412491,
      -1.6133952873362707,
      -0.36696315911395105,
      1.3737278582595516,
      -1.3513422298819653,
      0.15675670476167677,
      -0.7902751925615701,
      0.2218504280280132,
      -0.8128087821320304,
      0.6034085385652448,
      -0.38129507280451835,
      -2.396465116094625,
      -0.27859939204210604
    ],
    [
      -0.3023622705882541,
      -1.5667425818465712,
      -0.568318871928101,
      -0.5810200770764685,
      0.6431954616318175,
      -0.737272860957224,
      0.1782416920195748,
      -0.10664665953666232,
      0.2122896375535935,
      -1.1679216807674693,
      -0.554598619555024,
      1.1712075243770164,
      -0.09483592676906111,
      0.9008055502872779,
      -0.5689716792056103,
      -0.029821186614398726,
      -0.45140092315546393,
      -0.2128112556469626,
      1.0109060533956213,
      -0.2513211219638671,
      -0.7482218737165552,
      0.6904977017221497,
      0.7362786089654826,
      0.35633420724512543,
      0.4528073613702582,
      -0.7455145953973749,
      2.2028661171871278,
      0.25209479636235926,
      -1.4505809334290798,
      -0.4158409299435376,
      -0.951755865153482,
      -0.4915034990499295
    ],
    [
      0.7226831480219162,
      -0.4065681062876644,
      -0.4111883295361328,
      1.4791524040747417,
      -0.17419114412154416,
      0.014055440801549092,
      1.7193180951615343,
      -1.4827287893243022,
      -0.601870591429956,
      -1.4083956460007436,
      1.0154012065367384,
      0.17804285268695427,
      1.866143000998436,
      0.09558602603020018,
      -0.3180860017594016,
      -0.9323044609051239,
      0.6523759068964138,
      0.44687938522296455,
      0.15240760012895835,
      -0.717300747911693,
      -2.171496623575531,
      -0.6639051295670053,
      -0.8988818216712224,
      -1.323681110780815,
      -0.0518187457819775,
      -0.6276105399392694,
      1.4074365226540109,
      1.905320585591443,
      0.17724856032309416,
      -1.2136578047727569,
      0.6785742832346889,
      0.5613501335386757
    ],
    [
      0.6546664205739156,
      1.133847755880253,
      1.270572874652442,
      -0.110062635577102,
      -0.8313312085694504,
      2.504123573845125,
      -1.2812309324855173,
      0.8333240845577893,
      -0.8179790965332492,
      -0.3786851167212163,
      2.069918696080331,
      -2.1365965114479963,
      -1.4108777848002445,
      -1.2652279197602647,
      1.5659906644075574,
      -0.6219073358041828,
      1.8209490016604952,
      -0.23075130326794246,
      0.10038147525633014,
      -0.05916868329231967,
      -0.3507981488403243,
      0.795259602438409,
      0.19009979645300992,
      -0.4815354054867772,
      -0.24609238898390196,
      -0.5846670755600869,
      0.027641920679890294,
      0.729700159314813,
      0.6553186417155594,
      0.44488698611493344,
      -2.1051617614757556,
      -1.471444244490943
    ],
    [
      2.0275093647175066,
      0.06559443683728337,
      0.12714190325098185,
      0.25003295847475643,
      0.6146504669789876,
      -0.8198090157332967,
      -0.8632562604160886,
      0.8962151940642096,
      2.6496403221062943,
      1.1324061367109077,
      -0.8779741528666316,
      -0.17033274168305093,
      -0.19912771623157224,
      0.5710936834913412,
      -0.8409216439948609,
      0.5181953078381281,
      0.27443918568458353,
      1.029350059038375,
      -0.6391278944650824,
      -0.03836037247934235,
      -0.45029222830321225,
      -0.40438765346361216,
      -0.6564780772348109,
      -0.29750244764675254,
      -1.6482669020655782,
      0.9683666694148936,
      -0.2705917062459195,
      1.4717707196178114,
      -0.9554056829323307,
      -0.7223023708658082,
      -1.8120468148539908,
      0.6906916541877959
    ],
    [
      0.008139283686111833,
      -0.15174643298017515,
      0.6755105361026218,
      0.041882492970005146,
      -2.801902340711748,
      -2.1587074554830763,
      0.12794479109645665,
      2.025828458083158,
      1.0476030123524143,
      1.157064135040922,
      1.5803205193479646,
      -0.37639701467673775,
      0.3321096013383303,
      -0.6310418352516236,
      -0.2851593516199492,
      1.091659059354059,
      -1.0781224887285867,
      -1.358175032287105,
      1.313245878865881,
      -1.0620424861733906,
      1.9056792051774165,
      -0.9604043498920449,
      -0.9881020023554575,
      -0.33762591808208386,
      0.4296800204492243,
      0.5476815719320424,
      -0.01977725040232337,
      -0.01876492130075169,
      2.794919264733335,
      0.5043856899204419,
      0.6835278474087951,
      0.0654499212295692
    ],
    [
      2.413569733946545,
      -0.8986541410177826,
      -0.27350155712207835,
      -3.0368972912804844,
      0.9892143220341348,
      -1.0473944324586695,
      0.18857638964118928,
      -0.4766200860532776,
      1.429344385899123,
      -0.6397076285168201,
      -0.22322563274597615,
      0.30563817399069476,
      -0.49985161902242864,
      -0.05449803812326759,
      -1.6476241781245289,
      -1.9389856924030853,
      -0.013113341453602038,
      0.5995734806780219,
      -1.624331979814589,
      0.8588883378249748,
      0.5069877255776067,
      1.310048006257913,
      -0.6133709203818936,
      -0.5769379704746156,
      0.6422389141940243,
      -0.6471636194489623,
      -0.914131172799922,
      0.7228446908349926,
      0.1624277180381868,
      -0.07431807094264738,
      -1.5548453295953393,
      0.8135751983610061
    ],
    [
      -0.9764341001624895,
      0.9433171561647931,
      0.30721576554164265,
      -1.256298698907541,
      -1.2072885829431572,
      -1.448475523389405,
      -0.4793140023052401,
      -0.07612494734919963,
      1.5133152980218425,
      -0.23147339654056126,
      -1.4638821511991578,
      -1.4693119457279844,
      0.001156942162764107,
      0.6288028961523743,
      0.5705605023265262,
      -1.7095828057691087,
      -1.23768228316977,
      0.4155580045039793,
      0.9609139082797367,
      -0.7644873579177472,
      -0.714334380199732,
      -0.07748787354820048,
      -0.8489594825574357,
      -0.5258281888498539,
      0.16893310863011327,
      0.5533961342041807,
      -0.15305364381842582,
      -0.7538561106620432,
      -2.2931311076084255,
      1.9403450425924271,
      -2.867508127584655,
      -1.3463459924470973
    ]
  ],
  "hidden_weights": [
    [
      -0.5126974710243803,
      -1.1981617207318365,
      -0.5183992400566934,
      1.736721372828401,
      0.8674014133558242,
      -0.9072046382926658,
      1.5369017449160296,
      1.1283401206982318,
      -0.20293050964139572,
      -0.955826375414586,
      0.7715104104800063,
      0.8713078520375697,
      0.5612798266689624,
      3.3723794694371425,
      0.41250149067327285,
      -0.39884513587528836,
      -0.3030279278027115,
      -0.26498178443170334,
      0.6050452162278062,
      -0.3439343046937294,
      -1.1544867707422954,
      -0.9395584971127281,
      0.049687599181185135,
      0.009998393677403216,
      -0.2241279414418914,
      1.120230101889566,
      0.6625265742752768,
      -1.7541686317993948,
      -1.9609760307332162,
      -0.04970311534161731,
      -2.307047249497308,
      -1.1856755346584475
    ],
    [
      0.9871794840193918,
      -1.2251360448424202,
      0.16822726750151806,
      -0.4853592733696704,
      1.1266626443444998,
      1.1208474191226405,
      1.7536907196240337,
      -0.7502628869889387,
      0.14096196056930782,
      0.22280582280140496,
      0.4876365252236891,
      -1.7787987525952733,
      -0.9217630142790562,
      -0.2547342579792251,
      -1.429344131549422,
      -0.48207795698420264,
      -0.21977505031671324,
      0.2895900644691847,
      1.5198481488426805,
      -0.38487716330070193,
      -1.2537362688399478,
      -1.0691041116190245,
      0.6169088423621952,
      -0.6676011341752215,
      -1.0743808099935241,
      -1.2478247704597,
      -0.3470257858608719,
      3.3238934852649598,
      0.4410389046920216,
      -0.18096347632987222,
      0.42411105399052396,
      -0.3407802308263222
    ],
    [
      -0.11065217433112498,
      -1.2634457421609373,
      -1.6792329645787436,
      -0.14284423785717693,
      0.08069659526362734,
      -0.7457744081980084,
      0.05934291256819934,
      0.03525463599959676,
      -0.43347812373527284,
      0.6324256911928181,
      1.0511424882965896,
      1.6544005740419225,
      1.2480612619024103,
      0.18733304126251035,
      0.4563367679746232,
      -0.1339521613328217,
      -0.6105871236121663,
      0.6502477340741889,
      1.641434854647132,
      -0.10034954974898533,
      -0.6838922069612102,
      -1.5466767005054052,
      1.248247053546453,
      0.40980453431046204,
      -0.1456284024130052,
      2.2575267107588175,
      2.3068413221138906,
      1.3099351669131045,
      -2.20111330281355,
      -0.4643005534599553,
      -0.515482049910991,
      0.7285838129149727
    ],
    [
      -0.9229305442145798,
      0.3742660204844136,
      0.32105136300735454,
      -0.19071447435391195,
      2.271770259833097,
      -1.23488610657551,
      0.3947597807125519,
      0.725185973400969,
      1.2798699597671275,
      1.385101811518469,
      -0.31462007888114596,
      0.6501067385880896,
      1.166757784150868,
      0.35229831817068236,
      -0.7363582188588941,
      -0.2972766942328333,
      1.7740340694505465,
      -0.8778627455344001,
      0.09615490690716218,
      2.164629530512542,
      -0.45967360293052933,
      -1.3038994539858013,
      1.1000753350283001,
      0.13330910019429787,
      1.1378283562938454,
      -0.7781881776293856,
      -1.0363694561774157,
      -0.03907697788094708,
      -0.3740521213460732,
      -0.5845488220250625,
      -2.215919027924552,
      -0.6457264016468193
    ],
    [
      0.5348145153665606,
      -0.6735401009873911,
      0.22109129192178126,
      0.43545444189165206,
      0.3239164647373298,
      0.2515069993014699,
      -2.1901054069985046,
      -0.29724120070439003,
      0.4306598265449519,
      1.984295062422158,
      -0.3820620762559147,
      -1.5918115031894053,
      -0.5186122639872847,
      0.33971381673511547,
      -0.05486568122480912,
      -0.13629956118015582,
      0.9792185705429235,
      -1.0600293301995058,
      -0.3632160320220232,
      -0.026206608384281963,
      -1.1954404951161657,
      0.7432572010351948,
      -0.020230249282979656,
      -1.0950472729068494,
      -0.31972405071517596,
      -0.9798167988512357,
      -0.008232557175903153,
      0.8492769504507127,
      -1.0320129973938361,
      -0.549849719613901,
      -1.69569363744266,
      -1.9013491520976629
    ],
    [
      1.1592824517766092,
      0.8880306655967752,
      -0.2647483410074437,
      -0.9046750468273003,
      2.5104533078161353,
      -1.4689186658645474,
      0.46145508147742115,
      0.027596033850487006,
      -0.011332411809528821,
      -0.29415478222268043,
      0.390621017473387,
      -0.23019127146261387,
      -0.6019660030967731,
      -0.3043392727767373,
      -1.3377734031673243,
      -0.35732093476005294,
      -0.6443832890254815,
      -1.068873435091492,
      0.8400134083517711,
      0.06487121524189793,
      0.4886088538322084,
      0.8792425105055074,
      0.9440483933239624,
      -0.8844233759834358,
      1.0655116956489659,
      0.5114313940648126,
      -0.16485802143332492,
      -0.5202817604590785,
      -0.01103265068094095,
      -1.9034669202747054,
      1.0371763527563047,
      -2.1672016585936755
    ],
    [
      -1.2220870264765304,
      1.0742139054408277,
      1.8280442073533276,
      -0.7403221146957123,
      -0.49248376554777074,
      -0.4020161369908774,
      0.684633792451995,
      -0.938722473967231,
      -1.4449436528702762,
      -0.4568727069559465,
      -0.3908822560227651,
      -0.35154469830365404,
      -0.25471210147491463,
      0.26343439595262647,
      -0.7725448663884698,
      -1.295224758252414,
      1.0947459855301507,
      -0.8518497623180217,
      0.668180716324687,
      -0.9180658096014918,
      0.049025482739572274,
      0.9718024939191345,
      -0.6846747702203617,
      -0.3431097100387666,
      0.17947764875551306,
      0.056348093857308275,
      -1.5667893372961574,
      0.00456777966809038,
      1.1761546872635051,
      -0.5846340757456943,
      0.786956670760546,
      -2.1799157921214967
    ],
    [
      0.3676455164640512,
      2.108320480141528,
      1.2081765654673948,
      -0.013270108328031754,
      1.5725940565368661,
      -0.7669813962772948,
      0.22690347811416567,
      -0.9300576240720106,
      -0.9219433550930568,
      -0.42680825696394536,
      -0.10480323461467801,
      0.7264691301175404,
      -0.7398066554220825,
      -1.2898218182752397,
      0.6138812113546571,
      0.0507329831208754,
      0.5655516747678131,
      0.8686625505813113,
      0.8148875450977761,
      0.04691359797012903,
      0.8843962878952487,
      -0.196099193234084,
      0.8755650034065938,
      0.19296398524533917,
      0.6054978853836989,
      -1.2680933192353556,
      1.1088527947376747,
      -0.5989770032247769,
      0.6070742075382117,
      0.9461640371679849,
      1.5630472471996257,
      0.1553385226444212
    ],
    [
      0.6412063703963207,
      1.5908086031138406,
      -1.7930506257274208,
      1.4542796087921377,
      -2.175001387199974,
      -0.22965725481903898,
      -0.5038605983307075,
      0.24647027285356957,
      0.861349551956488,
      -1.6360105924885182,
      1.1048189200465246,
      0.7430110356116657,
      -1.9611248014467624,
      0.040725420617709125,
      -0.42102445194592497,
      -1.629786906682328,
      -2.1689048261015427,
      1.5109477501253525,
      0.7799823628122312,
      -1.1356270091748482,
      -0.8350334516669246,
      -1.1707767717246054,
      0.2228405110628974,
      0.19856611802198498,
      -1.1130301023401035,
      -2.0291602665048365,
      -0.48037527375567635,
      0.8007912385730659,
      -1.0389015227914042,
      -0.14601840507487454,
      0.48910612924820984,
      0.9126347820215351
    ],
    [
      -0.2146385042413167,
      1.8208792237301916,
      -0.7747644201851973,
      0.6782597578046686,
      3.139140930962614,
      -0.5621614436976705,
      -0.26233650289472454,
      0.9485952218304966,
      2.6977873132337886,
      0.40023971000670777,
      -0.27005816336131033,
      1.6288643973144878,
      0.04929296156586469,
      0.6539659819316449,
      1.7781775231663866,
      -0.316974848219257,
      -0.8074303230874329,
      0.23265452352140503,
      1.9220051783968093,
      -0.025033967047364897,
      1.9884224435075768,
      1.4536934740311036,
      0.4317460277771172,
      0.4563004141301564,
      0.5369967294524173,
      -0.22688965574681702,
      -0.09544519458212779,
      0.6752837681759921,
      -0.05601229719936907,
      -2.1544730983426255,
      -0.7891123052024386,
      1.2656270802451013
    ],
    [
      -0.685830800374095,
      1.5535677712714833,
      -1.1604685465379678,
      1.0429365052728414,
      1.2070876037147449,
      0.5133688131456178,
      -0.32741283223072154,
      -0.2945066495781756,
      -0.8581736744394242,
      0.4813149647845373,
      -1.95212659847813,
      1.4716488117610491,
      -1.0091065776442403,
      -0.17272362536789687,
      1.4651461527985785,
      -1.767059452684135,
      1.1711593078757179,
      1.1099665066256565,
      -0.843973580125928,
      0.346576082822375,
      -0.7579658371860686,
      0.5396081583467753,
      -0.32295147508310257,
      -0.022442917286133603,
      -0.3405298215841118,
      1.4011614223098052,
      0.6134662280905732,
      0.8191787993956576,
      2.206263823302769,
      -1.3386949528289236,
      -2.8854898910242346,
      1.7435322853281139
    ],
    [
      -1.3697315927020963,
      -0.3985801233706554,
      0.23989530449073404,
      0.24913416431282234,
      0.10962901761721984,
      -0.6925908024657169,
      -0.0732843580316196,
      1.4094951618090756,
      0.04330222838596553,
      2.8620414771055223,
      -0.3030006596989642,
      -0.4100968034552396,
      0.4527510319829435,
      -0.6076289861349695,
      -0.1840682496243326,
      -0.18159004358151803,
      -1.0092427853502124,
      0.12675426244957114,
      1.4275869744637188,
      0.9597742300033619,
      -1.339398992325243,
      -0.7728154634682294,
      -1.3774556049926623,
      -0.11751581876623486,
      -0.04597944533817744,
      -1.1235004857337558,
      1.1531189313349968,
      -0.4270672054767294,
      0.11801587848875073,
      0.4991590598606998,
      1.2136420729787376,
      0.7468618664258986
    ],
    [
      -1.9756358800157425,
      0.09575662338426967,
      -0.15277400234738187,
      0.5989436154685837,
      -0.35249788885425054,
      1.2140783379867188,
      -0.06933723430962663,
      0.7895740402213545,
      -0.3401509965125371,
      0.07640347298437997,
      0.521251424374244,
      -0.13265795747266154,
      -0.39404006759101257,
      0.8034470850674125,
      -0.6043561457385535,
      0.19736932192656104,
      0.21968400260929338,
      -1.6542272886313336,
      0.3428049242113333,
      0.3011241365059063,
      -0.11806772873482625,
      0.3914380122501989,
      0.5106951232114639,
      -0.5452690459827633,
      -1.2958009924762783,
      0.023540121275554726,
      -1.046947727184185,
      -1.0252994688254964,
      0.6807220033921372,
      0.3556161731622901,
      -0.9532258911255345,
      1.169412405584223
    ],
    [
      2.2737176090022726,
      -0.9708813644128654,
      -0.8584718546303759,
      1.1656799312934245,
      1.8915792739278967,
      -0.07292299518283991,
      1.3217971710346756,
      0.3077319576329462,
      0.11905372568129903,
      0.37871921491114946,
      -1.5914815364376573,
      0.38848489026812405,
      -1.7945675248281743,
      -1.0457165146297906,
      0.6165668649692257,
      0.9011056357741738,
      0.03292779645549465,
      -0.16732345836036427,
      0.9615829130382775,
      -0.8214414373922316,
      -1.6646328154818326,
      0.5337556121721763,
      -1.5932951809734406,
      0.9570452130726199,
      -1.258542680591592,
      1.8757960122748762,
      1.584564058044083,
      0.7227376631097163,
      0.5769460218517615,
      0.7364310692732444,
      -0.1154898460071597,
      -0.7158838947488264
    ],
    [
      0.49016799298849184,
      -0.5472213330713063,
      1.1396825006962932,
      -1.5250572615665186,
      1.5003666210338606,
      -0.19314386658970645,
      0.737302244946246,
      0.7197865512646983,
      1.2863325356335902,
      -1.1905139395392312,
      -1.561309135093931,
      0.6306005177363968,
      0.07748040098831395,
      -0.5362539094159514,
      0.025613499011904597,
      -1.2729662230878056,
      1.2579266392645476,
      -1.3954425401308401,
      0.1244446381289892,
      -1.851520824949931,
      0.14438670651343108,
      0.21261699823252714,
      2.2481065757679204,
      0.8528945659748771,
      -0.37427251408683154,
      0.3893031983116392,
      0.24265649934958888,
      -0.4210033271983236,
      0.20248610081405527,
      -0.37499105522584325,
      0.12373135187874897,
      -0.9790530642396883
    ],
    [
      0.06209627316824818,
      1.311271982903948,
      -0.2562015362028167,
      -0.12706971115118001,
      0.5678768661003558,
      2.053125816643575,
      1.0075317086860367,
      -0.0382729447807746,
      1.149008048712642,
      -1.2992403277473608,
      -0.16493234269172752,
      2.147017749165682,
      0.5615342663765922,
      -0.13953567524338895,
      0.45438907811462487,
      -0.26891896304832535,
      0.7485273012506158,
      -1.303122056452955,
      0.41079420086320934,
      -1.5434909988100438,
      0.7441244079763102,
      -2.000310862999286,
      -0.8076196505157062,
      1.5722066608747147,
      -0.7919326315424032,
      0.4303403756318286,
      0.7585626656262732,
      -1.5674553253600223,
      0.18788725134851372,
      -0.13892911414534653,
      0.7848294531242993,
      -0.42582139828049975
    ],
    [
      -1.021179605085222,
      -1.275749181617946,
      -0.1934766688050156,
      -0.7352073050254357,
      0.07954712902075922,
      -1.2756766877225765,
      0.09303640874596383,
      -0.7413119899484435,
      1.9941613510124487,
      0.6771263551825237,
      -1.6154371074637235,
      0.1573828393663645,
      1.537585971500139,
      0.14783713362357645,
      1.9971678652159919,
      -1.5811575054978004,
      -0.4122928198052944,
      -0.2703340281712308,
      0.8506648743522152,
      -1.5555621456115079,
      -0.348909480658649,
      -1.2300843092151705,
      0.1007303199767715,
      -0.595847633806752,
      -1.3696747633492903,
      0.713133206167783,
      -1.5061967239631318,
      0.2722833432656969,
      -1.9036894790261727,
      2.046098910403153,
      1.0145695641574886,
      -1.031838766973283
    ],
    [
      -0.13561589434896018,
      -0.037863139841237944,
      1.9457244601826877,
      1.8997695557531986,
      1.2015896306609055,
      -0.8582480506525537,
      0.6435961770679959,
      -0.17722008368578365,
      0.3277938816053379,
      -1.634133666325356,
      -1.02824126533136,
      -0.7321428944717756,
      0.7134145231921944,
      2.0895370486005906,
      -1.49942483564386,
      0.7852738902560172,
      1.3015442434873075,
      0.3063290102874228,
      -0.033936763290380874,
      1.0794051457575302,
      0.29178462121459564,
      -1.3261242775436826,
      -0.4440597726731547,
      0.21680690829527713,
      -0.28362098281293413,
      0.4299208480859717,
      -0.41825292097778827,
      -0.9592145062270987,
      -0.19580811894455336,
      0.1963152008459823,
      0.24680149136234816,
      -0.6591208403336366
    ],
    [
      2.437569339649708,
      -0.5634972181414095,
      -0.9333528841687218,
      -0.4677011112503835,
      2.0096937890757034,
      -0.7886943619750802,
      -2.4643526311340906,
      0.6862096603061028,
      -0.3982746456333639,
      0.5990617611674572,
      -0.9280771947373568,
      -0.9781266813086154,
      -0.2355017199740896,
      -1.640582611335378,
      0.16793515649175592,
      0.8681406613361143,
      -0.8037790204007113,
      1.001333043114405,
      0.6887594716403996,
      -0.6228955754781096,
      1.5588681212181124,
      0.296051936139574,
      0.6673092123710919,
      0.39972634502353294,
      -1.6867950171643071,
      0.3426281445856459,
      0.17294868475553882,
      0.3410387697139904,
      1.448186834890667,
      0.5960953821233086,
      0.9863170973470103,
      0.7242294758806818
    ],
    [
      -0.4651861302227368,
      0.056809712728505504,
      0.41062714243096704,
      -0.8499466416618965,
      2.1383646269511356,
      -1.6384026411746164,
      -0.8562363305135262,
      0.33213080176613313,
      -0.8952846848001488,
      2.2895419988196,
      0.1946349746016709,
      0.1327260948215258,
      0.44804926825647157,
      -0.2090427477491428,
      -0.3299601496776014,
      -0.6017479078114084,
      -0.6137681520311109,
      -0.08577252460728628,
      1.2645441912661692,
      1.096351631606854,
      -0.34821888340419915,
      -0.8620438244981072,
      -1.3546990516005262,
      0.1443167193504644,
      -0.22607972250696753,
      1.2055582953471466,
      0.4543176280399428,
      -0.134294684881106,
      -0.41759646022888963,
      1.0934595931462545,
      -0.8620830575464155,
      -0.7126534365272911
    ],
    [
      0.42304813997846347,
      0.4138246110343282,
      -0.0761742595432934,
      -0.7353227189606342,
      1.9248288227372587,
      -0.8821001227349523,
      0.7927496530975757,
      0.13708259520155072,
      -0.17497631777335718,
      0.48827914884513385,
      -1.0686376707293617,
      0.780054796077885,
      -0.162781667302965,
      -0.4763467313114985,
      -0.7389817551574566,
      0.1583804491992475,
      -0.4353670069530143,
      -0.587985869752942,
      0.984968812885975,
      -1.4356119627015385,
      -0.9063169020867854,
      0.7838088475055905,
      -0.8564946403010334,
      0.4760341674461165,
      -0.3470179035294942,
      -0.18053850668055996,
      -0.7809341461507459,
      -0.46758826887087884,
      -0.5133378103209741,
      2.1879832350137427,
      -0.13583279583760285,
      -0.09329335431504013
    ],
    [
      -0.5024405151792428,
      2.007150364153431,
      0.26907550597385244,
      -0.9695769948058618,
      1.4081284953796591,
      0.42287597996253656,
      -1.7173341250508558,
      1.1338752589712904,
      0.5556864363407421,
      0.6359225027447669,
      0.7648701076341397,
      -0.18499026598080076,
      0.28765137105355737,
      1.1333472189075113,
      0.04633253099983843,
      -1.7482405726263086,
      -2.1610772764583595,
      1.3726399805394738,
      -0.17365607576512157,
      0.26856321273263645,
      0.2757268925839851,
      0.5697828435124286,
      -1.1717980689191425,
      -2.266903741700693,
      0.18253528450813494,
      -1.0611767719337093,
      0.2725845875990649,
      0.4193872769184958,
      -1.4232202059548082,
      -1.0591182279994404,
      0.4327580931911133,
      -0.8113452981196683
    ],
    [
      1.056304399498562,
      0.48840723581709544,
      0.5029684016838448,
      0.6562529187578707,
      0.6985935232358154,
      -0.06003290456743693,
      1.7723231784341913,
      -0.967328760927235,
      -0.39783617368362767,
      -1.2128220638369505,
      -0.7438774526506267,
      -0.18562495376393434,
      1.723293520964663,
      -0.44905220801159124,
      -0.373667132516252,
      0.4221074949852815,
      -0.5210032702143693,
      -0.23407250416705813,
      1.7381506132941569,
      -2.6132762552935014,
      -0.21306901253096816,
      -1.3605484772394691,
      0.8713356491688087,
      0.7562471382636593,
      0.19183978528824433,
      -0.6633047112711233,
      0.042068325141921374,
      0.8870931299964748,
      -0.9773328899172854,
      -0.17056100399438756,
      -0.6961280339707883,
      -0.7869903135370132
    ],
    [
      -1.0696316802581467,
      0.026892419979552697,
      0.15076325033791024,
      1.2724602701371774,
      -0.7498741380757222,
      0.7275559373927607,
      0.5011237732311051,
      0.3507502486060339,
      -0.14998822599779346,
      0.4074538926151889,
      0.0925852920727163,
      0.9220593077542647,
      -0.6021764401900894,
      0.15129976795513708,
      1.7527247107077342,
      0.18128836845356402,
      -0.34055405810538447,
      -0.1941122465707034,
      0.1285785744550688,
      -0.5988949871778843,
      1.0164759549335713,
      -0.095639589884006,
      -1.8260474768127257,
      -0.3461953474386125,
      0.19648880785998102,
      1.4783090573946343,
      1.1603037569230266,
      -0.04061029755879919,
      -0.1712150481023364,
      0.7815820305856713,
      0.44143504964011127,
      1.3352229223880303
    ],
    [
      1.2133570110345497,
      1.4824280135483368,
      0.378230042082763,
      -0.5448137734771514,
      1.1176395509806787,
      -0.5537685706688342,
      0.6966922066744066,
      0.3641202967642397,
      0.6777063986544348,
      -0.7057314221263207,
      -1.0949889826177592,
      0.029466922164966047,
      -0.41646138534405763,
      -0.4562714886164826,
      0.4427506666560913,
      0.28732306720926604,
      -0.42347527375742944,
      1.8048212481691903,
      -0.12182440471627727,
      0.37254654014611327,
      -1.198792157544459,
      -0.4263915509500163,
      0.9870905153035612,
      1.0890783698971915,
      -0.01579888507594218,
      1.7877511040868155,
      -0.11348894483444673,
      -0.0847012873035952,
      2.557767236950071,
      -0.8366882049467408,
      -1.1437448845476197,
      1.7084821764604128
    ],
    [
      -1.190442650289558,
      -0.2156222244968629,
      -0.8012257185173707,
      1.0145864354592613,
      -3.0836651513509175,
      0.013579915003576973,
      -1.9385336388134282,
      1.0200309513490444,
      -0.3033392157669901,
      0.14025621208119637,
      0.3440352897015656,
      -0.42435954522956515,
      0.3534392451634121,
      -0.4768300294120554,
      -0.629892682925063,
      1.267569665682455,
      0.5531753383574021,
      0.5506797227722787,
      0.12098128126694845,
      0.007258438362852615,
      -0.2694995571565502,
      -0.12780543844207087,
      -0.22910379862623798,
      0.8277549388247759,
      2.8507594031478023,
      2.0249338795244074,
      -0.5223363926767683,
      1.0951296807845599,
      -1.4155281553441608,
      -0.28366642377905127,
      -0.4920554174582975,
      0.5186194043489302
    ],
    [
      0.8907802508820805,
      0.1259118242263347,
      0.5376050644132971,
      -0.5496175924496481,
      1.4962128908384853,
      0.5104050212740238,
      -0.01295162135849097,
      0.06807428917540334,
      -0.2973602443694496,
      0.13057853953824394,
      1.7499779433610119,
      -1.529531776916446,
      0.5539872001309576,
      -0.8626938959072129,
      -0.8044612094514783,
      -0.09928394746071269,
      -2.5015157776790873,
      -0.35154084933999574,
      0.34577566978702934,
      -1.3055835526967607,
      1.3193552371410062,
      -0.4975727985199516,
      0.4327410526506819,
      -2.381377942283358,
      0.44657598235966994,
      -0.7491214262995317,
      -1.14639115467834,
      -0.33514832534525413,
      1.5842575744644496,
      -0.25761203409936245,
      -0.3252577525334052,
      1.2160000368877124
    ],
    [
      0.702718902609902,
      -0.7835085242727785,
      0.9712292803509648,
      -0.06340870922481251,
      -0.6277593377239847,
      0.4984989257924412,
      -0.627669665217419,
      -0.5927950888149419,
      -0.1938098794788139,
      -0.6945126746669146,
      -1.6064674385339537,
      0.9187535136795728,
      1.3069729781829404,
      0.5999122644610841,
      -0.21521180850246452,
      -0.8582913416147159,
      0.7460922904884997,
      1.79993518419713,
      0.6494221699444541,
      0.9879278065747765,
      1.4918375117213738,
      -0.08397649579754912,
      2.366903492603759,
      0.10778256955370727,
      0.3933352748567197,
      0.7666313095774515,
      0.7249281404455452,
      0.12861636579204846,
      1.4078289660725176,
      -0.5228219352833344,
      0.7572132953102199,
      1.9880871407225669
    ],
    [
      -1.7316577022556523,
      1.336046738283745,
      -0.9593974543760436,
      -1.6361773640793682,
      1.2246339843618725,
      -0.7270624004280146,
      0.45453743764632426,
      -1.6464794126796403,
      -0.923206524258596,
      0.02677916178882073,
      -0.6278912469816268,
      0.3557401975797572,
      -0.49986212934428864,
      0.4606285495713788,
      -1.498991701773308,
      -1.0593045053164099,
      1.1266895265888415,
      -0.4662413610468173,
      -0.36540025013392285,
      -0.21889587236336497,
      -2.306009210564352,
      0.145035162923587,
      -0.9782725396140108,
      -0.20690203316147107,
      -0.5261856615618545,
      -0.155312442469849,
      -1.6751504477521337,
      2.0212751465858796,
      2.5625949177046916,
      2.9728826893570357,
      1.266052514971311,
      -0.05195577858878363
    ],
    [
      0.6355644950533068,
      -0.8923304532323842,
      0.38489923057586833,
      0.12789344899627408,
      1.074452362435721,
      1.6276095713731924,
      2.2682413379788544,
      1.1763216416513729,
      0.162877713971666,
      1.3646581487155025,
      0.9941271528270511,
      -0.9239189654525779,
      -1.365026641951043,
      1.2440971428514958,
      1.2882027101818256,
      -0.012658859535289273,
      0.8577172464167214,
      -1.934183062255107,
      -0.8445264368336391,
      1.0901284806491547,
      1.209451221850167,
      -1.9232714084795073,
      -0.22972894719898942,
      0.005940390677778889,
      0.3195230020036541,
      -1.3723154991426085,
      -0.16150498917810496,
      -1.1722672456475687,
      0.7321108061687905,
      0.34701692659416755,
      2.0907110814550993,
      -0.1708573159523658
    ],
    [
      1.2113817620096872,
      0.29931260148795596,
      1.2833703896834705,
      -1.5157926932456718,
      -0.018696160608713906,
      -1.0791125657499536,
      0.0020549530488839516,
      0.45496454202255454,
      -0.2624129709196959,
      1.189512359919819,
      0.9694900362425933,
      -0.0759506471203983,
      -0.36916096244435614,
      0.3677380643188139,
      -1.3103518977694792,
      0.766745107780693,
      1.8569515198950948,
      0.7280048751713878,
      0.19367971763746833,
      0.9190078503799226,
      0.5357938803169103,
      -0.6214654460623554,
      -0.2923478996813078,
      0.9440094475944848,
      0.39992469427452787,
      1.3397626674967689,
      -0.7461664719479854,
      -0.9528877570815252,
      0.5418212334866704,
      0.9051361294964128,
      1.9458180121310216,
      -0.6354745789682991
    ],
    [
      -0.22163353656296073,
      1.322205288266817,
      -0.6629641270661302,
      -0.3239424711539812,
      1.4231028812653561,
      -0.41635570901830093,
      -0.18319687612062055,
      -0.6777907940738221,
      0.8244918819597016,
      0.7352903178813147,
      -2.309030385352965,
      2.0516673566950985,
      0.1180625328712336,
      1.9636668277116958,
      -0.1573555747596131,
      -0.4652904286409437,
      0.1515170126273598,
      -0.7147586237083439,
      0.7078465412543233,
      0.5248099199447818,
      -0.5643376189735277,
      -0.2180358614089887,
      0.15076099444492488,
      0.3654948412852773,
      -0.13504456476201077,
      0.40312501946858736,
      -0.07911175686623569,
      2.7006822189388853,
      -0.41147051241238947,
      -0.09614767759589185,
      0.13876901189474336,
      -0.13831678716591417
    ]
  ],
  "output_transform": [
    [
      -0.24591544543019112,
      1.326220625654628,
      0.04909719177454177,
      0.43962143131346576,
      -0.4273253360701125,
      -0.7885782977858993
    ],
    [
      0.6940912789608473,
      -0.06432180051638887,
      -3.2521611725098296,
      -0.7123896320575879,
      -0.9286167214751462,
      0.7024259591397658
    ],
    [
      0.8979465276412324,
      -0.20392446764339936,
      -0.10493882626514739,
      0.6027533575869506,
      0.046371116808535714,
      0.9037855187009947
    ],
    [
      1.1824913428534711,
      0.24753653312328514,
      0.026209794619460602,
      0.22655129575275748,
      -0.1602501061008187,
      0.2770142613499491
    ],
    [
      -0.5875911639103744,
      -0.9998631713001145,
      -0.49147340420801905,
      -1.2056216771190118,
      -0.31086001724739204,
      -0.44945601961142284
    ],
    [
      -0.059972759120795735,
      1.1070829620240707,
      0.44247497852047984,
      -0.6371555093243478,
      -0.8782730099178808,
      -0.5515373781156778
    ],
    [
      -0.09337511063663484,
      0.40272854825358273,
      2.162128876720932,
      -0.3080887386903838,
      0.6515205033632545,
      -0.15748340865379187
    ],
    [
      0.28969734045100964,
      0.4540836953338334,
      0.5711831003486781,
      0.25647293542487953,
      -0.00953901981283967,
      1.1351837044090465
    ],
    [
      1.0467250962271226,
      0.9568181000857425,
      0.8438587123908234,
      0.7349043205125444,
      1.7251334067235882,
      0.25429063370451466
    ],
    [
      2.1710547811175394,
      -1.0067939246472717,
      -0.7577731194924822,
      0.7351403753407182,
      -0.5702565110481888,
      1.1744813433164032
    ],
    [
      -0.42511191182235764,
      -2.2390426456196737,
      -1.6816390207310674,
      0.2527877762937168,
      -0.3984192575636022,
      -2.1818582554094346
    ],
    [
      -1.02664816540086,
      -0.17222116401131776,
      -1.316891073004534,
      -0.9480651082847042,
      -1.278229695831672,
      -0.35787095507169864
    ],
    [
      0.8143132189449152,
      -0.047797965238145355,
      -2.1872567038885142,
      1.5092024847062087,
      -0.7022323116661907,
      -0.32827135779058086
    ],
    [
      -0.49340516155929837,
      -0.6657493966286464,
      -0.03315357536762155,
      -0.3359967144076414,
      1.160834328271426,
      -0.2208799101391765
    ],
    [
      -2.0396613946529003,
      -0.0019983846041258624,
      0.4017147262900397,
      -0.12912774379661004,
      0.41298324186945345,
      0.6613859970560652
    ],
    [
      -0.7321669296310215,
      1.3905695315922237,
      -0.7890077468436809,
      1.795530481597213,
      1.0785851406933022,
      1.1845796155920427
    ],
    [
      -0.12798015385533087,
      -0.5797026690239848,
      -0.16086176487496937,
      0.986976514228134,
      -1.426526960862098,
      1.380866814725755
    ],
    [
      -1.1835855591123194,
      -1.0950631196332268,
      -1.2456681299767491,
      1.0279550145924117,
      0.07303425759821346,
      0.40309203039034297
    ],
    [
      0.44102596046468506,
      0.8789687528486774,
      -0.6091641731572907,
      0.9984558825833424,
      -2.080641050500523,
      2.0744367452081636
    ],
    [
      -1.0076408127693695,
      -2.142101645756184,
      -0.8059172115280789,
      -0.45111930474798795,
      -0.9327601645839886,
      -0.2599679049132708
    ],
    [
      0.17853170860762224,
      -0.2080289782118654,
      -0.3694083877752439,
      -0.0068424061884907236,
      -0.8428791206370393,
      -0.08822064469532
    ],
    [
      1.0441227543188594,
      -0.4779727554134713,
      0.9013752843911095,
      -1.5485277833398252,
      0.6510596233378175,
      0.2798314439562723
    ],
    [
      0.19312225471353747,
      0.941024069140478,
      -1.5742575411339357,
      0.07264796567744722,
      -0.09646619009155172,
      0.8646783003530294
    ],
    [
      0.7104743511165766,
      -0.978762241452043,
      -1.256441909767283,
      -0.43202262380528633,
      -0.8586353199578083,
      -0.9223620365561924
    ],
    [
      1.2897098126528,
      1.9085467402920335,
      0.20612551889331585,
      -1.0536608654306543,
      0.6899006725688991,
      0.9623288768788189
    ],
    [
      0.5699581112469416,
      2.110891933384199,
      0.9547784106455701,
      2.0968848202850974,
      0.9817884715095941,
      0.26616991568738707
    ],
    [
      0.39181685524379384,
      0.9998551581548804,
      -0.5818098822910892,
      0.1281330993090813,
      -0.25574760385994105,
      0.12088303403010528
    ],
    [
      -0.5908044688574118,
      -0.9372427569398918,
      -0.6189638983336371,
      -0.22397420521342934,
      -1.4463986229891577,
      0.03767188629446468
    ],
    [
      -0.765541681528493,
      -1.2738318949319634,
      -0.628468907184601,
      0.39057873574283986,
      0.3738180039321081,
      -1.2143459102228662
    ],
    [
      -0.06767085844950835,
      -0.13127456960997883,
      1.051202431349172,
      -0.9480495845436981,
      0.23727036453483544,
      -1.5429717750180103
    ],
    [
      -0.17363251426771642,
      0.7418872936183764,
      0.6746051570687076,
      -0.6376920889696012,
      1.091017344700276,
      0.27353466279027555
    ],
    [
      -0.2190490124194084,
      -0.924463444328585,
      -1.015202936886999,
      -0.5233575010921246,
      -0.2777482850079672,
      1.3668132701211877
    ]
  ],
  "bias": [
    -0.6694561243396271,
    -0.6760275229417558,
    -0.10299485214551737,
    1.7129671524594918,
    0.8167499396981187,
    -0.9508418595033844
  ]
}