{
  "input_transform": [
    [
      1.1005905547815755,
      0.7327663551317081,
      0.8088555790612617,
      -0.3270247789710046,
      -0.3908788999622984,
      0.33861823936477836,
      -0.24064226591676197,
      0.9831303450026287,
      -0.6984021673426251,
      1.3041669510249159,
      1.0136472944000638,
      0.8513887662031198,
      0.2904127655578075,
      1.174270571601807,
      0.7072177601911944,
      0.770845576576443,
      0.3985701193955132,
      -0.7820923018983638,
      -0.2648812094842294,
      1.6322610287062866,
      -1.0909253244062098,
      0.810214367211759,
      -1.3396998519554046,
      0.5910045479019985,
      -0.5962224170491884,
      -1.1707441736331676,
      -0.45500016023399403,
      0.19690750212123936,
      0.3952003493254762,
      1.582255168734897,
      -0.35889405229089066,
      0.49637407310886866
    ],
    [
      -0.551219660747345,
      0.517541687687605,
      0.2932183001356962,
      0.8675275316692502,
      0.9505751083523828,
      1.0807361904291166,
      0.38245096397030953,
      -2.29622912280526,
      0.4085009181398094,
      -2.166581285575637,
      1.2946874991010722,
      0.3421415406791438,
      -1.1555417185694763,
      -0.3032001401919944,
      0.6635030918785814,
      -0.09629159759602812,
      1.519162701313587,
      0.7169953653720784,
      -0.5124677754449586,
      -1.8693553295752092,
      -0.07984456524350401,
      1.092026489520375,
      -0.612174705920162,
      0.6860235422587665,
      -0.35127437599734623,
      0.15597410396166939,
      1.1957704690824136,
      -0.08032862773645531,
      0.9193668522932985,
      -1.7087619402272252,
      -2.09208498083178,
      -0.34212903747979273
    ],
    [
      0.011090957907498212,
      0.7771576398533476,
      -0.18222833441535038,
      0.021932251095426077,
      0.1545265717435034,
      0.5346751469465816,
      -1.19701474843252,
      -0.7199841080909967,
      0.5003113074596158,
      0.965417606354926,
      -0.1870394547033328,
      2.1098528805263403,
      -0.33093411660427485,
      0.37364901344057067,
      -1.1100913608625953,
      -0.056541696336142346,
      0.04247095966852358,
      1.4582067974086605,
      -1.1780436598685637,
      -1.4373065118078654,
      0.29225735280313103,
      0.02772573761556629,
      -0.4602620730445759,
      0.9466567904666914,
      0.055253790790671685,
      -0.40517850892325197,
      1.8312764928505443,
      -0.4084527567228312,
      0.27490871138311995,
      -0.9070870604915309,
      0.1950174945902419,
      -1.9405849735724365
    ],
    [
      2.054764976224879,
      -0.09864433402142928,
      -0.7273467121608413,
      -0.28389231140543236,
      0.21700465696948013,
      0.11706058688962989,
      0.029836199368789094,
      0.32525722685436553,
      0.7742336937212917,
      0.08064524022998683,
      0.7959244862358317,
      0.9396736035747143,
      0.2781257643620487,
      1.346881609559049,
      0.9091342316372336,
      0.6878868233455844,
      1.0138031826055787,
      -0.8691428702195707,
      1.3040564679181517,
      0.13469190997555472,
      -0.7228030565617731,
      0.10528593974089911,
      1.166670606597603,
      -0.8420493991754813,
      -1.1664123761137122,
      0.973973873982115,
      0.5721585524389267,
      -0.06871451468263717,
      -0.8323034121950259,
      1.9752131156055748,
      -1.37924186000869,
      0.7734413017213886
    ],
    [
      -0.33246722576583665,
      -0.2868565521702572,
      -0.4662696712565597,
      -0.29428874145148026,
      -0.6781437787654241,
      0.2520719968573567,
      -0.555434181621205,
      -0.20608642520726692,
      -0.1509039264256405,
      -0.8436153774025046,
      1.5507592468713698,
      -1.2483031880233746,
      -0.712899241457983,
      -0.45958278608233566,
      -0.3393191811355892,
      0.3099082838679809,
      0.3644085120271662,
      -0.030027893938158138,
      0.3769784885245185,
      -0.9090471737185386,
      1.7527351548088186,
      -1.1792367988824215,
      -1.651791420512344,
      0.7958446032667372,
      -1.361651292484254,
      -0.3593421663731149,
      -0.3042472876500934,
      -0.23306802524796985,
      -0.6779172362419229,
      0.2907785205043093,
      0.7037578184455803,
      -1.559527278459736
    ],
    [
      -0.49375484383337026,
      -0.4331896443051684,
      0.2957730572885741,
      -0.4857764277330352,
      -0.36739308189301195,
      0.4363381364394915,
      1.1418676059330533,
      -2.0692586966113944,
      -0.07406171347180214,
      -0.3236962121092431,
      -0.6030013391698044,
      -1.3841743206132295,
      -1.2279022464262177,
      0.7042048001914155,
      0.6330139644214273,
      -1.2036753707543009,
      -0.07776093711299417,
      -1.016567966812797,
      -0.36297050596354846,
      -2.110344374773834,
      1.254024241080686,
      0.4393440430960487,
      1.0724818151278417,
      -0.46866330464307543,
      1.359849561949391,
      -0.7186167235078422,
      -0.22641061275253294,
      -0.7820317400729461,
      -0.1312197535656658,
      -1.4760968250429372,
      0.12697304360434888,
      1.3599586412366766
    ],
    [
      -2.115189272207358,
      0.3044435905201596,
      -1.3734746653671834,
      1.283261973887951,
      0.28179809833607183,
      1.2501661234826231,
      0.6873983215394363,
      -1.843849373710194,
      -0.6308475271670317,
      -0.09922651523166405,
      -0.16147884857880968,
      0.9630604206040929,
      -1.6003977719366456,
      -0.941173188901078,
      0.2857035737162157,
      0.0034392836771294116,
      0.11339564972341117,
      0.057431122906869345,
      0.03150177275191753,
      -0.8215105455157299,
      0.8620097432800669,
      -0.17859876655977747,
      0.03957495117209225,
      0.3522225126976284,
      -0.9697206448559366,
      -0.06509173505686944,
      0.2852321518720345,
      -2.3868613361648885,
      0.09430563837165024,
      -1.286282152671291,
      1.7264720024220086,
      -1.0019996592351874
    ],
    [
      1.8148656342663894,
      0.06640822137339789,
      -0.5332111682190864,
      -0.05903640775976186,
      -0.9547837971984823,
      -0.10442602147466469,
      -1.1556083931223713,
      -0.36122099193035695,
      0.24332357731164703,
      -0.3708046692359749,
      -0.21091142048087233,
      2.1251485975411897,
      0.4992512329315541,
      0.18826944685688207,
      1.6221874178493771,
      -1.9643301959979809,
      -0.5448614604367321,
      1.5131970494389648,
      0.12082298855439236,
      0.07348885447886239,
      0.6640171799623739,
      -0.5124796722675433,
      -0.5732887995923327,
      -0.12911562311317676,
      0.05262905049991207,
      -2.087509566231532,
      1.3049565236582457,
      -1.745557776088164,
      -1.257566975552261,
      -0.0021883345957119916,
      -0.6594817922318906,
      0.5741446274225244
    ],
    [
      -0.6907557055906706,
      0.27550298211399754,
      -0.3412129616736686,
      -1.047564840710269,
      0.18987336654753334,
      0.9966218843782867,
      -0.650118919490196,
      0.08384956269763547,
      0.9959910678247954,
      -1.262007042931743,
      -2.2963532779181417,
      0.241874252370821,
      1.0230010547250288,
      0.4042734538830932,
      -0.6868894744330655,
      1.3917247987541983,
      0.012131382883408664,
      1.1871147073039443,
      0.314539152058603,
      -0.8039784313060883,
      -0.039919709999557504,
      2.491791024769832,
      0.42094135794156945,
      -0.9187218112197427,
      -1.0963100990245684,
      -0.05175043875811687,
      0.2574984130903878,
      -0.25350772993706683,
      -0.5793173323429629,
      -0.3970745445749017,
      -0.6512367682404278,
      -1.2547940913644668
    ]
  ],
  "hidden_weights": [
    [
      1.6622374557193629,
      -0.9479253835301933,
      0.3426090001989456,
      0.9873316405326052,
      0.22033213922437506,
      1.1890223420798596,
      -1.1086396845740056,
      -1.0263377494330779,
      -0.20697711158596854,
      -1.584160516256332,
      1.9405616147017308,
      1.6682001605427654,
      -0.4893986304747901,
      0.604577919442179,
      0.5017582208409226,
      0.9787439562543657,
      0.245140958551676,
      0.47547188823395975,
      -0.7676158461350822,
      0.2836966579826407,
      -0.7261938731410313,
      -0.8053222767397324,
      -0.49705174632415156,
      0.7011093864048307,
      0.9526870784403143,
      -0.2522948151111155,
      -0.5663191763576841,
      1.913969757312252,
      0.9203720580625082,
      -0.15374317957166997,
      -0.28763217185967593,
      1.9015198507060702
    ],
    [
      0.7019065299035089,
      -2.0031057748670107,
      0.0241826127555944,
      0.7795569156439869,
      -0.24949804081099602,
      0.5866641474667245,
      1.275738080009849,
      0.683291438196704,
      1.347149139685101,
      0.5686101000861494,
      1.6652228728797653,
      -0.06083172194604857,
      0.32793178478104024,
      0.11551833522881057,
      -1.15958797191504,
      -1.2169975202044403,
      -0.7611002988157124,
      0.704606142668457,
      0.6944291873811209,
      1.3636283992790739,
      -0.7685294383721523,
      -0.3199838956859946,
      -1.4872997292708503,
      1.1312288252792773,
      -0.161883541571957,
      -0.032508669878836764,
      0.762569630088025,
      0.8516578586700756,
      1.91395485351579,
      0.480200407411152,
      0.014893298257429228,
      -0.30990953290251866
    ],
    [
      -0.7830161269733298,
      1.0208052356003723,
      0.011425708854142097,
      1.1329780662028406,
      0.3076035601073245,
      0.04529284311185036,
      0.06720382581369108,
      0.3830905948370307,
      0.42626002653616885,
      0.23850486208560787,
      0.21159658811937926,
      0.6930071407362159,
      -0.17226074180937892,
      1.1974793118549554,
      0.9646876577524325,
      0.5557053274599049,
      -2.060827096166527,
      -0.13703077171433817,
      -0.15311637881512608,
      -0.3068421820612474,
      1.4493095651151464,
      -1.175726469644479,
      -0.0038151295727846383,
      -0.030506297707985533,
      0.3779606042807672,
      -0.5359621680214144,
      1.592942263754449,
      0.2905647985755804,
      -2.2378249056775514,
      -0.5110359316566502,
      0.29778099778813666,
      1.4531520360389194
    ],
    [
      -2.003445500762474,
      -0.17695824443161307,
      -1.9504310968757654,
      -0.3021245328514817,
      0.45127098231642787,
      -0.12278207205183432,
      0.26365873407550466,
      0.6000359880159131,
      -1.390730445862655,
      -0.143459947253603,
      -0.2346856395637988,
      0.7398564806209453,
      0.3146482512408,
      0.4822293696756044,
      -0.6337808207255163,
      -0.4770593208980898,
      0.09533089225243015,
      1.1029005046257192,
      -1.2611484091720466,
      1.7011448400011013,
      1.9005181838973795,
      -0.5581317707817965,
      1.0717314175375412,
      0.8866106190903921,
      -0.3627877583931242,
      1.5420306148206102,
      1.2276888469900975,
      -0.584050351035927,
      -1.1058031287022183,
      -1.6158581693704703,
      -1.357237125058491,
      0.45518557061078474
    ],
    [
      -0.3175456327765199,
      -1.918616624302388,
      -1.2603860532993236,
      -0.6797292186227571,
      0.2919122278423881,
      0.46587018251967427,
      1.3617546748013718,
      -3.739572543311576,
      0.22946574516492715,
      0.7451791128156476,
      -1.4928078253017723,
      -0.5514656331399894,
      -0.8937973463947464,
      -1.3381624937079761,
      -0.5494549918636955,
      -1.115766199859199,
      0.47850080462816186,
      0.4027270901764479,
      0.08726917175395449,
      0.5539706073895199,
      0.9684968649173148,
      1.8357092276737355,
      -0.3725339949020542,
      -0.8602883272491935,
      -0.8118390334226713,
      0.5905893854466103,
      -0.2711485851275386,
      0.19270211623207836,
      1.176335593156529,
      -0.2699113056823172,
      -1.4587921361917566,
      -0.9300180337843594
    ],
    [
      -1.8127694264923346,
      -0.2455040870622743,
      -0.33606068660297583,
      -0.3269222736126347,
      0.665233698713283,
      0.1956173073750146,
      -2.1713479772823643,
      0.2058747538712314,
      0.36402968475137976,
      -1.280973467879366,
      1.2859892759571436,
      -1.1083604003556842,
      -0.10166207962663937,
      1.5217179087000152,
      -0.5891518553255956,
      -0.415970099952803,
      0.26711809868422454,
      -0.2443860557630323,
      -1.3313590294369224,
      -0.6326627477812404,
      2.0212811854800017,
      -0.0060910800108795625,
      1.0248098277380258,
      0.03802435906181862,
      1.4029166495824825,
      0.8200474204248372,
      0.5636229688712306,
      0.9379195858731758,
      -0.32640673866503317,
      0.804151844602128,
      0.07990735943745166,
      -1.108517767770037
    ],
    [
      0.25665439737328644,
      0.6110906611006746,
      0.15723661711616202,
      0.15527283717935783,
      -0.029669371485514226,
      0.1640531505053523,
      1.063518610837018,
      -0.40605754487742396,
      0.8732374099832835,
      0.42332387244258757,
      0.417717330883151,
      -0.30685401692145964,
      0.09943864786538498,
      -0.4153264090835026,
      -1.5541771735638297,
      0.6232053427942109,
      0.1713853456787045,
      0.15272441615158922,
      1.2771902923858711,
      -1.1623885799387275,
      0.5260584914447561,
      -1.386141113750573,
      -0.6796038362110579,
      0.7986129796658902,
      0.95210795774608,
      -0.1490488289940038,
      -0.5414187198848976,
      1.6207156961088955,
      -0.2179930032365377,
      -0.20490631406699067,
      0.3878740979009049,
      -0.3219220900044424
    ],
    [
      0.20920341358262065,
      0.7995016253613982,
      -0.33543120480940497,
      0.28753972238649644,
      -0.39906958613119864,
      0.0003283676877080161,
      -2.0812802950654246,
      0.5656955195876819,
      1.2941945670469353,
      1.2012240253974247,
      -1.7858244656738371,
      0.8208023123038691,
      0.8709771712772917,
      -1.526846675630975,
      0.03534971747323711,
      0.12824124308971144,
      0.8274727658504132,
      -1.3872127699300725,
      -0.22955891644485663,
      -0.28347382698229445,
      1.481064734531974,
      1.6428345274033476,
      1.446370977046129,
      -0.5246815381736226,
      -0.4315248141741079,
      -0.4366941747963331,
      0.07218237076059408,
      0.3263416993725601,
      0.4775752449983556,
      -0.41592920380304066,
      -0.1605209374381507,
      0.2922666095686665
    ],
    [
      -1.5016257304352834,
      -1.2600796539163541,
      1.250140208369526,
      -0.5342445072284173,
      -0.1354595023661381,
      0.8398236725816344,
      -0.2567806497121874,
      0.876167104391272,
      0.8589740493927623,
      0.18462204322427878,
      -0.3403347023499655,
      0.8291079789178376,
      -0.22258473811187804,
      -0.510373319014794,
      0.9337812638778614,
      -0.46346207588507776,
      0.32749585426891514,
      -0.5106146408611947,
      0.22830350446408051,
      0.018545757206493735,
      -1.0601278080027001,
      -0.2230439306862297,
      1.8989068105375788,
      2.2064059854733684,
      0.657449184134671,
      -1.9099056486744166,
      -1.321656750202639,
      -0.6717950980160994,
      0.9868137060043218,
      1.8268059314761926,
      -0.7140033529535732,
      -0.36513075983534254
    ],
    [
      -0.9305339214354195,
      0.01994500877276086,
      -0.6549048824226668,
      1.4021023657663407,
      -1.1386413344896942,
      0.21660809626261154,
      -1.7684561878066252,
      -0.12139648124155286,
      0.7355882688988178,
      1.2808337914863648,
      0.5789456383823994,
      0.6645313482020779,
      0.3269270583462388,
      -0.2594697563970496,
      0.28760243883615505,
      -2.3613942701299258,
      -0.7593109457451745,
      -0.8958863306091849,
      -1.6433435831989076,
      0.177337103762141,
      2.437443888612609,
      -1.1959807820351067,
      1.1491278682123705,
      -0.2752449510859113,
      1.1293031278088337,
      -0.018781895803155747,
      0.5029694982772192,
      0.24676974236454652,
      0.5967333433190317,
      1.7106354281385925,
      0.8480495033181094,
      -0.16934397088093223
    ],
    [
      -0.5664443239932663,
      -0.22354006921840305,
      0.16834237001539773,
      -0.21324159771638213,
      0.8168421522935037,
      1.0685859106146172,
      0.5208766422067465,
      0.7414432550162342,
      -1.282531664827833,
      0.7290008499464474,
      -0.36911730485708444,
      0.9163084640665888,
      -0.7175717695672698,
      0.38756102328504305,
      0.11532018784723115,
      0.3733276051517957,
      -0.33475501097683563,
      -0.7664067051223032,
      -0.31538051714286097,
      -1.3889201127810287,
      1.88089308843141,
      1.4840903161845551,
      1.134243081403133,
      0.7349768009395942,
      -1.4042180868926526,
      -0.5070035897869049,
      1.847591849301216,
      -0.3025737717301096,
      -0.2521549841482897,
      -1.251424715563671,
      1.8470768247796703,
      0.43880435506733234
    ],
    [
      0.19532846775663815,
      0.4682138171203409,
      0.11754465236699253,
      0.18897331769837203,
      -0.8111037735609519,
      1.3414083911332924,
      0.40563017056102646,
      -0.6056908512139753,
      1.3251003925701632,
      -0.6516662820463172,
      -0.2829614630273869,
      -1.4824468222767668,
      0.7674976957243382,
      0.5096291683595715,
      -1.0802465493313007,
      0.3935672136282788,
      -1.2919502663164544,
      0.4135516741115512,
      0.30511172471969017,
      0.1881893729203885,
      -1.7721164846458715,
      1.770430071974125,
      -0.3393217857668284,
      -0.40063549101225676,
      0.670185259020891,
      -0.9967567764888713,
      -1.5179989338468782,
      1.2155250825094206,
      -0.31931454981894425,
      -1.886504388793468,
      0.7647843119614786,
      -0.6876437710012725
    ],
    [
      -0.16099354208014893,
      -1.3320537135652726,
      -0.5861321811217526,
      0.3923467467933448,
      -0.9957344244915671,
      -0.20318975285819105,
      1.2736231403592635,
      0.6890325267779535,
      1.1678880084567367,
      -0.3603586893632595,
      0.8067221418487159,
      -0.11112572268551683,
      -0.34858104770609094,
      -0.39028424958673963,
      -0.949603246933382,
      1.0165562147425813,
      2.059296372005662,
      0.35710345173216873,
      -0.9076697873350255,
      -0.5449253095760788,
      0.09918554607811027,
      -0.4884087647706674,
      -0.3815669606201186,
      -0.8626314632104648,
      0.7736154690040563,
      -1.3826314674861007,
      0.366893616240706,
      1.9946004215968933,
      1.2477083824994855,
      1.8064126864396286,
      -0.4431890226228839,
      -0.4405531936015466
    ],
    [
      -0.41594711773189924,
      2.1155032319702665,
      2.3738764059618105,
      -1.1534123143366144,
      0.5831754018355276,
      0.08474550692688049,
      -0.6353809615755435,
      -0.1969576230445598,
      -0.275465346784422,
      1.3880722693731598,
      0.9156804926660376,
      0.2203620062525262,
      0.11430211052035624,
      -0.5367077695198369,
      0.6022783861039214,
      0.7691407998383498,
      0.928862727168148,
      -1.8642485150948487,
      -1.0031309993675839,
      -0.8075549858192881,
      -0.2718815677111137,
      0.22495142270190088,
      1.5494931513818657,
      0.3163347166564854,
      -0.6390223418818624,
      1.1538197993934836,
      0.8070005324081604,
      2.4565085671428277,
      -0.0186031048131653,
      -1.2963031840950245,
      2.709046085672846,
      -0.7648906777086424
    ],
    [
      1.2245281489519686,
      0.6545391826583521,
      0.24784360612345974,
      0.6903232898251661,
      -0.7211068459295474,
      -0.8271832361743979,
      0.6693369084852352,
      -0.6418338399412898,
      0.6121795996587657,
      -1.562821125171659,
      -0.6496430361082188,
      0.2424889430776846,
      -0.020186479276936505,
      -1.184808449497439,
      0.3638263265708285,
      1.5054226132330908,
      0.15513570097223014,
      -1.9583712768989308,
      -1.0258199430989219,
      -0.1284487119740214,
      -0.3251618925444793,
      -0.6226851949272735,
      -0.4020226600088573,
      -1.4854652239406372,
      0.5300507739079258,
      1.7727549328261072,
      -0.5662037831423125,
      -0.7252557526548842,
      0.47968050518195837,
      -0.23131644263463141,
      -0.38481371717147134,
      0.29381393175690745
    ],
    [
      0.15980100676770045,
      -0.6760199811703023,
      -0.33617347929327096,
      -2.172729163194562,
      -0.8751789688915206,
      -0.4514465977152652,
      1.2594051512384408,
      0.0633160331768097,
      -0.8017753873861001,
      -0.8173216476249654,
      -0.7821472956135305,
      -0.10263409751207243,
      1.0503298871623288,
      0.2662677482140775,
      -0.05856116618134657,
      1.9010175555597828,
      1.6897473005216341,
      -2.9799199804663825,
      1.0727757283814972,
      -0.22827250654156378,
      -0.22328090218108368,
      1.8122366461991766,
      -0.3426034497448415,
      -0.48108130435933305,
      -0.007365949984639185,
      -0.07127071246222931,
      2.2968139565972314,
      0.12434734175866423,
      -0.7488852811426552,
      2.7227626047946707,
      -0.013783960892024131,
      -1.9483753890774917
    ],
    [
      0.8475948624289185,
      1.6146957915094589,
      0.07496627429388708,
      0.014474369373347283,
      -0.5567140744159862,
      0.19724992671281236,
      1.2212664606481272,
      0.4603919664335402,
      -0.9816736798405377,
      -0.5337925762996135,
      -0.9783849083167018,
      -0.12524611992594223,
      1.10039547444301,
      -0.10732422292500196,
      0.4180804399694838,
      0.8623321537672022,
      -0.4246337820845011,
      0.5531728238874449,
      -0.5975287725797612,
      0.7700264413981425,
      1.229307711590693,
      0.8972679817308656,
      0.36647218572583895,
      0.42097434641519516,
      1.244429322299482,
      -1.2103024155176296,
      -0.07809517227629262,
      -0.06702589092360021,
      -0.038225879480272076,
      0.8926069433032108,
      0.4226158346996853,
      -0.7389700901257729
    ],
    [
      0.4648638050391469,
      1.822135863357881,
      -1.3755619303822109,
      0.8020571316271088,
      0.9442073526684857,
      0.21994742756030117,
      0.11603907461175976,
      1.7178077668623233,
      -0.2819734722720885,
      -0.7592690203397127,
      1.9947264725778902,
      -0.4183729627870053,
      -1.1302607267163283,
      -0.689987687807666,
      -0.38147846092825216,
      0.27699147897225795,
      0.04450365451074057,
      1.3970466219411712,
      0.5008166240653413,
      0.20329080372617903,
      -0.7851832117546359,
      -0.42581525364996997,
      -0.863740372493712,
      -0.2260432105402619,
      0.14822147342384506,
      -1.479532783733075,
      -0.19190784395607344,
      -0.4714538883148529,
      -0.315190528924188,
      0.5228258152777066,
      -1.8213603879425042,
      -0.03699695026234908
    ],
    [
      -1.739556075373765,
      1.60844181811414,
      -0.8836151119941278,
      -0.3518708121025232,
      0.014632430768977656,
      0.28576214962073837,
      0.472593334684507,
      1.0005862212261887,
      0.31253453630306527,
      0.4280592674835799,
      0.895794050649828,
      -0.1081509590921709,
      0.5474469722152369,
      -2.1245967141877826,
      0.5471297751286197,
      0.5340850139089829,
      0.3551111034953193,
      -1.2609632316506916,
      -0.9210321976267065,
      -0.30665854915057283,
      1.1547712214304475,
      -0.03856076430145188,
      0.5178358791433076,
      -0.12009201239453535,
      -1.1315703874356966,
      -2.0070647516343327,
      1.0825219041820318,
      -0.011872640845831438,
      -3.031077258446846,
      -1.0607744625406628,
      -0.011461071419322044,
      1.1520962706365734
    ],
    [
      0.9670440703833594,
      -0.8427837682831585,
      1.1513422745677995,
      -0.818078653367984,
      -1.037405762825343,
      -0.9149467606454086,
      -0.6011475040606823,
      -0.6119239287749481,
      0.45613330705377036,
      -0.8301043606699844,
      0.9573163815641315,
      -0.3416764726059705,
      0.3706447775034469,
      -0.7230660938877096,
      -1.8212755400108918,
      1.2369597652383408,
      -2.7132239962779434,
      1.6260855619923478,
      0.8109915876828802,
      -1.8302648448776608,
      1.9627421837162413,
      0.8392280170276915,
      -0.06439631252139359,
      -0.6462300194428698,
      0.48041679345468874,
      -0.8309185784121242,
      -0.37347176768606116,
      -2.6126377283077455,
      1.1276999694852474,
      0.18018843857990935,
      1.1013890687969863,
      -0.4600999917342448
    ],
    [
      -0.15724847632369723,
      1.3391660598762154,
      2.172470976042501,
      -0.36151690701616995,
      -1.7091169200764302,
      2.1330039136581496,
      -0.41060035702058795,
      1.0091624405596273,
      0.8411549956566726,
      1.3410839578543778,
      0.8541354392251599,
      1.1422940133127892,
      -0.8738924358836311,
      0.0762521188328368,
      -1.3835582813894127,
      0.14626617186155452,
      -1.533460202561749,
      -0.44818536043611656,
      0.02038242118421362,
      0.2299443843790564,
      0.3297558715675942,
      1.3698348404657614,
      1.076131902562373,
      -1.0210136016723916,
      0.1516100851644972,
      0.7009879595492322,
      -0.1526583045125365,
      -0.7688298953996192,
      -0.13413555897704688,
      1.684589400438921,
      -0.7175481561050421,
      -0.4649386453769769
    ],
    [
      1.9834666601964064,
      0.24528772781669986,
      0.3931920109004333,
      0.5250576688792261,
      0.31406864576823534,
      -0.2825776836287146,
      -0.5484737306534947,
      -0.4278881512897263,
      -0.0038580374817804926,
      -0.5365123078859372,
      -0.2856917984749165,
      0.9637108767421607,
      -0.30398600501828016,
      0.46909353589176106,
      -0.6072415189053878,
      0.1191601079161171,
      -0.6140055485134458,
      0.6090972725598988,
      -0.9763241012302522,
      -0.5248862034848132,
      1.245660406653307,
      -0.21721983787330282,
      2.17445392582165,
      -0.7777379574142481,
      -0.3608447855553943,
      0.10874052146822222,
      -0.5974090898246793,
      0.35888859704190873,
      1.9070253374133979,
      -0.34512230563033613,
      -1.2083732095300759,
      0.5160428660560158
    ],
    [
      -0.22634116643466778,
      -0.7149628080956543,
      0.1683240886263688,
      0.19036429905357502,
      -0.7142629801228743,
      -0.7779431673400157,
      -1.813597980037096,
      0.8404092269064196,
      -0.6811089652441499,
      0.27436323766581144,
      0.9774918152763751,
      -1.054720319645717,
      -1.7494934231968546,
      -0.995079291360201,
      1.1844173731590548,
      0.4602420731154664,
      1.3346649607626049,
      0.09809673837887022,
      0.8231731280656086,
      0.012325432873080622,
      -0.5826141541392209,
      -0.27516620958179183,
      -1.3949195222796555,
      -0.357858720639733,
      1.1379189695588434,
      -0.9408022613551753,
      -0.3948365714320048,
      -0.5202393226224661,
      -0.13717780809000185,
      -1.683676603136148,
      0.9404607096852192,
      0.12775114328979362
    ],
    [
      -0.2367794180166437,
      -1.128176914626073,
      0.0945501858836576,
      0.727755570604359,
      -0.26316572822838585,
      -0.4634198799503351,
      0.8369585253201481,
      0.35128061989802417,
      -0.8942196425480979,
      1.4928141448261352,
      -0.3892835513564493,
      -1.2126307881904643,
      0.9248382154724225,
      0.34845944555858854,
      0.3232366676698466,
      -0.2996103849241739,
      0.5473468722520216,
      0.14624787541891857,
      -1.3991906938121585,
      0.01614173511794064,
      -1.50752484991008,
      -1.1495475945424571,
      -1.6899707732167977,
      -1.2013390352726967,
      -0.2889045859675386,
      0.7338753484235649,
      -0.42457804883903233,
      0.9018331011630971,
      -1.5293133647098476,
      -0.5094744508199526,
      -1.2596580325484135,
      0.06895318248123238
    ],
    [
      -0.11094026627395538,
      0.5647636231319075,
      1.7984148378617266,
      0.8544121930178554,
      1.2236383236221082,
      0.40902134269075185,
      -0.2910848263654346,
      0.23070219388043556,
      0.4341014888057051,
      -1.25581280097928,
      1.4403951881789538,
      0.8014872739094124,
      -0.190446496951108,
      -1.4867100398576936,
      -2.162968340281172,
      -1.86607134570951,
      2.001406691603907,
      0.1570242993228977,
      -0.29947718087784936,
      -0.6817400050384822,
      -2.721826522828744,
      -0.9490904535330985,
      0.943465408003713,
      1.2342451345143035,
      -2.348858414452209,
      -2.0713408860252405,
      1.1020725843327035,
      -0.46208611543105466,
      -0.23570958328538288,
      -0.28040182009454184,
      -0.7461669238752451,
      0.9003302600660869
    ],
    [
      -0.07309106005310809,
      0.12522618792993442,
      -1.0657157238662984,
      -1.4797174264196082,
      -1.5566526862245669,
      0.06773697419979544,
      0.26883218989688595,
      -1.67964598528897,
      0.1558608267343917,
      -0.994648560714641,
      0.9555603834214119,
      -1.5375465206824306,
      -0.20873319825097583,
      1.0501012391103837,
      -0.25111910950466704,
      -0.10846144072276565,
      0.761899352724188,
      -0.5457445909192897,
      0.5138063773665357,
      0.2829387169841837,
      -0.32452225115238775,
      0.39577137720353844,
      -0.5655128937502442,
      0.8370209431015851,
      -0.7880897190033895,
      -0.1982731831028005,
      0.2804673842193544,
      0.40228542833017406,
      1.442157396779797,
      0.43401501001032267,
      1.5594276790621582,
      -0.0680960872369149
    ],
    [
      -0.20378653252643963,
      0.1330276850224338,
      -0.29327918960906413,
      0.3719287687412999,
      -0.4366228038643313,
      -1.2615114154401044,
      -0.44090180289966824,
      -0.2608275250129462,
      0.7329779517730398,
      -1.7280229965118468,
      -0.38016580523989885,
      -0.29233296036202844,
      -0.4006921078818876,
      -1.1705512256674386,
      0.16534912701649462,
      0.6956004801018898,
      -0.3820247576339096,
      0.3381390821022673,
      -0.18220279207564205,
      -0.9428819288736975,
      0.3373253635399944,
      -0.3086062838145616,
      -0.06262390868340727,
      2.136790064706675,
      -0.3121726894095782,
      -0.5354284947976342,
      -1.3117416513613835,
      -0.8686171623219189,
      1.166668090946419,
      -0.9201687710592589,
      -1.3735866921624664,
      0.5549519179416799
    ],
    [
      -0.5801199748150075,
      0.16843098849499163,
      -0.9154166728514124,
      -0.29489488663110147,
      -1.0274165228122845,
      -0.8437832809555393,
      -1.3876226645527492,
      0.1458372712359371,
      0.3242525276040658,
      0.33436238347246866,
      -1.3805756178230644,
      1.290976331110723,
      -0.5114605342339137,
      -0.5293547337811639,
      0.7571354059030664,
      0.1726024878135714,
      1.5326399545327836,
      -0.4856234019307906,
      1.368824462357439,
      0.4720953583160739,
      -0.4500569106069135,
      -2.105036655834275,
      -0.043032884528537776,
      -0.336900139191475,
      -0.3457983398295164,
      -1.9869783432572874,
      -1.1371217033730348,
      -0.47834054907383594,
      0.049396963810104486,
      -0.6318455820681135,
      -0.2013307772379368,
      0.3591682268119256
    ],
    [
      0.16033795250990038,
      -2.216665235990288,
      0.48001765590901846,
      -0.7270949621077156,
      -0.3461352863842366,
      -0.5757190577877404,
      1.8492958120720102,
      0.14701122812330839,
      -0.36761826477557763,
      -0.6997781614079814,
      1.7037444672496846,
      1.5758712262348302,
      0.7295216636449726,
      0.3026600749809192,
      -0.17736114659255675,
      -0.6848276436439983,
      -0.15269145578112409,
      -0.3575927740724777,
      0.279492757342044,
      1.4172143001287267,
      -1.0137819123271472,
      -1.5794287115774812,
      -0.44515182608254433,
      -1.0767199462676265,
      1.15777629029151,
      0.25570742887218123,
      2.131894997820893,
      -1.4072609450192024,
      0.04634593366101967,
      0.5886373949987659,
      -0.7532745337973547,
      0.23151320962058503
    ],
    [
      -0.2782841580130523,
      0.26115425949973375,
      -0.02549862820224161,
      -1.0618825310410107,
      -1.8475604950014655,
      0.30730178587520535,
      0.32848107319818437,
      0.5648896560630736,
      2.023655079988487,
      -0.2783488256075751,
      -0.12217313549765882,
      0.4560564994522051,
      -0.8522988880511433,
      -0.17499623156975902,
      -0.4721364565611884,
      -0.6084652923153722,
      -0.6090855592833735,
      -1.013871582913517,
      1.7727780091276746,
      0.98998758389206,
      -0.8069660917379562,
      0.4784714746154116,
      0.05712519584740659,
      0.8055145765258257,
      -1.4189064885321372,
      -0.9377220126485809,
      1.0186679742738824,
      1.1240284554325581,
      -0.2641089676842181,
      0.9108513397972975,
      1.4637343018184228,
      -0.14638008224661636
    ],
    [
      0.05763948858759002,
      0.9581829737870105,
      0.5993841779546009,
      0.32816646419509593,
      -1.1003019514696488,
      -0.4038387563096476,
      1.563140943967066,
      -0.8440654404971532,
      -1.0054946095343933,
      0.5605471532694246,
      -0.9076578987459994,
      0.7191754272574642,
      -0.4043887032763838,
      -1.4693847453352287,
      0.8066359502618429,
      -0.32006899183257503,
      -0.11609795187420806,
      -0.012818721560150882,
      -0.5390808211142304,
      0.1153244762505134,
      1.5524638182095511,
      0.3995180114644958,
      -0.6521816485837836,
      0.32886878181748747,
      -0.5383728549823444,
      -1.3582400973347253,
      -1.0581516143294885,
      -1.2214862206573598,
      0.9994426020470809,
      1.1447266421694822,
      0.3509850700791864,
      0.1981433361676982
    ],
    [
      1.4724247121708187,
      1.1582743280331937,
      -1.005944044059383,
      0.9504852783763776,
      -1.3011531031904287,
      -0.4667071713526665,
      0.21617796969104305,
      -0.01526372434050696,
      -3.911041339011453,
      0.14697169297955998,
      2.200680938308758,
      1.5454936560563164,
      0.9600610016559593,
      -0.3637456544938171,
      -1.225841586828128,
      0.3175341831848613,
      -0.4910359110306713,
      -0.500810815263277,
      1.3404820108414646,
      0.3226180853265364,
      -0.5955548109576516,
      1.2226541200615118,
      -1.3696371377628473,
      -0.176073378733739,
      1.5094341749418079,
      0.2933957368318811,
      0.794293061200542,
      -0.17307985819646482,
      -0.7635915828882288,
      0.39831553032439304,
      1.6245205534302947,
      -1.5884139977698821
    ]
  ],
  "output_transform": [
    [
      1.346584320260014,
      0.9892156001884019,
      -0.2777399364512742,
      1.4518109094671865,
      0.4474834785858133,
      0.5136330216770211
    ],
    [
      0.8593795524974066,
      0.2491691444555872,
      0.3979486486660111,
      -0.4200529246991565,
      0.4177200152342635,
      0.12855236052166874
    ],
    [
      1.1035398340739897,
      0.99634231101539,
      -1.127847479612227,
      -0.3174460622471046,
      -0.34568734082715497,
      -0.7736102123659397
    ],
    [
      0.50995742690453,
      1.0281851175404697,
      -1.2564967003072651,
      -2.0523309496746096,
      -0.5086588346880008,
      0.2965949866060501
    ],
    [
      -2.2280018481825583,
      1.2805179910833566,
      0.4146996149747512,
      1.6938275377650724,
      -0.3236156337130211,
      0.4649794782186524
    ],
    [
      0.19306570492211275,
      0.0095971301227536,
      -0.6914984481264511,
      0.4302811303718975,
      -1.0955903542746086,
      -1.7382280077444805
    ],
    [
      -0.6572813164154723,
      0.6245158123682046,
      0.30249386445302473,
      0.375211907478701,
      -0.2128197042956075,
      2.173482768497256
    ],
    [
      0.38311264737180434,
      1.1459119915165867,
      -0.8439197798920955,
      1.770627634670894,
      -0.055199917930691546,
      -1.0847482699013458
    ],
    [
      1.2926101938693402,
      0.3889076528953734,
      -0.33818410991283687,
      0.46909201333776074,
      0.9279236825865453,
      0.4983594459609227
    ],
    [
      0.015901328372987744,
      -0.011496174038499432,
      -0.4653264444512739,
      -0.5214935484470695,
      0.8203562880756781,
      -0.657967336637877
    ],
    [
      0.2752750365241343,
      0.6284625705378972,
      1.544364747206282,
      1.2212193852421185,
      -1.9783888554558602,
      -1.135986470383125
    ],
    [
      -0.4873949963610594,
      -0.3642604733239264,
      -0.7165247494892559,
      1.4181651776004671,
      -1.2056677114080216,
      1.1659105701631738
    ],
    [
      -0.45581447636697303,
      -1.1280623822091271,
      0.07765614955981039,
      -0.268091275808565,
      -0.8351322770546419,
      0.013712500437126218
    ],
    [
      1.285599813496948,
      0.3894004885850431,
      1.023431826064301,
      -0.8551386856070194,
      0.3012470664435464,
      -1.9492165526769947
    ],
    [
      -0.465513488830504,
      -0.6326992620725151,
      1.227908532740134,
      0.20993676091351712,
      0.1901765228113336,
      3.2150538656263583
    ],
    [
      1.5409051184286786,
      -0.19606068790696013,
      -0.5541186703568123,
      0.22910717900150945,
      0.15321102350177485,
      1.673985188517477
    ],
    [
      -0.18000662095023093,
      -0.19973426253435736,
      1.2321887642285665,
      -0.2886698003891727,
      0.6041999925128131,
      -0.1885839673193556
    ],
    [
      -1.3943439596084173,
      -1.7058859711803604,
      1.105881693712716,
      0.3883333320430232,
      0.01050428621277517,
      -2.2361393426738174
    ],
    [
      -0.1329516628488937,
      -0.18546898418451002,
      0.6848364842412691,
      0.5338206694334348,
      -0.4757605238821771,
      -0.536948750683418
    ],
    [
      -0.2449407337193346,
      -2.052758089613194,
      0.02209633845089494,
      0.39227633342003787,
      -0.14712354148845969,
      0.00995523062891723
    ],
    [
      0.2802849806088542,
      -0.04833001300548904,
      -0.930108267518299,
      -0.860900702822776,
      0.3108807217461779,
      0.09912793508740796
    ],
    [
      0.9928873323522968,
      -0.279947961249801,
      -0.8896353254853226,
      -2.709845351654808,
      -0.8364654393900299,
      0.3780315325334537
    ],
    [
      -1.1344665909210139,
      -0.09869826166954293,
      0.6162798718645673,
      -0.02688441651117658,
      0.9722164188607773,
      0.4247310212956355
    ],
    [
      1.482101537216706,
      -0.6019935413946207,
      -0.47758364718613233,
      2.472671558233656,
      -0.593526767922192,
      -0.5574186393471854
    ],
    [
      1.691337279041381,
      0.1725523766085827,
      0.3223067292043308,
      -1.681526753778879,
      1.4797001047562541,
      0.8641641991614623
    ],
    [
      0.8701641963020976,
      0.3266599480379528,
      0.6634581375742077,
      -1.0958207000081999,
      1.351042849526498,
      0.5464737206708545
    ],
    [
      0.4637615191962134,
      -0.5124477037978873,
      0.14935238530380915,
      1.3700855088972135,
      -0.6873905750044138,
      0.3008625736888396
    ],
    [
      1.5147391032851647,
      -1.0836939894553785,
      0.8155024786631976,
      0.46280765939698604,
      0.3434111320345745,
      0.3277673846706367
    ],
    [
      0.7528406309628584,
      2.370155493706945,
      1.0777559285436997,
      1.7338299097711707,
      1.0519596021604216,
      -0.2594637590386191
    ],
    [
      0.3356366723820908,
      -1.2076356539133963,
      1.0691068442507137,
      0.04358148242887418,
      1.1179274354324378,
      0.7051455763586735
    ],
    [
      -0.5141279206266577,
      1.0031450091303045,
      0.8078960687422502,
      1.5354579369862282,
      1.1463222576924639,
      1.2950990499710742
    ],
    [
      1.43406788387586,
      0.43097269299668056,
      1.2427965059672115,
      0.6849797518469463,
      -0.018316482810879817,
      0.8823510640959773
    ]
  ],
  "bias": [
    1.284425388703221,
    0.11055351050153873,
    -1.77599546364061,
    -0.17282955742088588,
    -2.403361758763826,
    -1.4821151787979137
  ]
}