{
  "input_transform": [
    [
      -0.8364477547722307,
      0.21269123270899112,
      0.006809684677811053,
      -1.8237835191138396,
      -0.7425008900607069,
      1.853849673736883,
      -0.3063603168604001,
      0.13416914967354587,
      -0.324523446399404,
      -1.849830230979854,
      -0.9492397622047328,
      0.18881892840232103,
      0.42209985633979274,
      -0.9980396097827993,
      -1.4282373146968463,
      -0.35207179482606615,
      -0.6749326575365339,
      1.429471650570025,
      -0.05883445934596674,
      0.24179794677440702,
      0.4931826495637102,
      0.7540930511777241,
      -0.4914128253582864,
      -0.05205628798933746,
      1.5995851233846152,
      1.0824854240425152,
      2.0903236871615136,
      0.1277663742526353,
      0.9845882230334263,
      -1.7072146180829868,
      -0.3437683385432428,
      0.6061218221468172
    ],
    [
      0.33829099930637896,
      1.3137574498852258,
      -0.6200111684176118,
      -2.6206082688248826,
      1.2605053238721662,
      -0.9662669751355577,
      -0.30709580974867773,
      -0.28533363523549915,
      1.3024785931183034,
      0.12245495209055207,
      0.3748152272731442,
      1.9410859256487691,
      -1.1786616779463446,
      -0.001082863915618326,
      -0.006394838897740828,
      -1.421342474861121,
      2.3973320945311687,
      0.5446714949679706,
      -1.5093783169607664,
      -0.1233998657443289,
      -0.7655366095972779,
      0.6072658545122204,
      1.2955630781146281,
      -1.2498412744992007,
      0.5672832209559142,
      -0.35340098029949285,
      2.0664507056943338,
      -1.0128666742763923,
      0.007073238703257879,
      -1.0273858624944268,
      0.09111634830517419,
      -0.8202186077761104
    ],
    [
      -0.3309500809067077,
      0.5566818682156809,
      -0.31085498979478327,
      -2.3197550627887407,
      -0.4533036848904258,
      0.8145620820685765,
      0.6192885128265261,
      0.12847210727533373,
      1.177115186780385,
      0.5812269405374216,
      0.8851533424912003,
      0.5159309568113457,
      -0.4710025100394802,
      0.42634607829674004,
      0.6043410032364844,
      1.2832693701222961,
      0.934029280545335,
      1.0634500238211533,
      0.3007247658203667,
      -1.1340301515065858,
      -1.6683149058918487,
      -1.0298001351948707,
      0.443757790159448,
      0.554609097286427,
      -1.2462496278652118,
      1.8278928647052728,
      0.6659692830298546,
      0.31435437779292735,
      0.34280599047767657,
      0.21883625828786316,
      0.5830150746130282,
      1.5124545066285644
    ],
    [
      -1.1841902102415818,
      -1.3597206543780396,
      0.7138390324063173,
      -0.5025983628823303,
      0.8925567225920932,
      -1.554022696795925,
      -1.1181795215715398,
      -1.5770849333471089,
      -0.7335597311376904,
      -0.041725238049376556,
      -1.6342003383105168,
      -0.14904634710067102,
      0.4142465091344489,
      0.362539309874283,
      -0.8037614287269536,
      -1.3988037693709698,
      -0.932288283076118,
      1.043601838997652,
      1.3189561771905713,
      -0.07927256277100139,
      0.7644301110014589,
      1.349336005162211,
      1.390524722932301,
      -3.383684797817797,
      0.31327961163140905,
      0.08983311933137146,
      -2.2289735838868223,
      0.35355434382778245,
      1.132655554619906,
      1.0453904884004115,
      1.1842844408484794,
      -1.9001343308901897
    ],
    [
      0.4780077850786621,
      3.161715946638086,
      0.2468509083949162,
      0.5253108128811038,
      1.6860615495783149,
      0.3728561028063139,
      -0.34130998169826027,
      0.2460615139859456,
      1.5703451430053386,
      -0.31335776527731757,
      0.48615797013803363,
      -0.0975715743260925,
      -2.147276891143589,
      -0.047216952228197946,
      -0.8511740522633698,
      -0.6967339191467832,
      0.15518463651172754,
      -0.685389160044823,
      -1.322728027447742,
      -0.9987895393736619,
      -0.6815924451622073,
      -0.6027324557635073,
      -1.2893936812480997,
      -1.8763737054792096,
      -0.9738688250276467,
      0.1939087307738398,
      -0.661684742057214,
      0.4415732855894912,
      0.34182905435668554,
      -0.2791052925073248,
      0.7440410524213417,
      1.0978192958461321
    ],
    [
      -0.1441751788771942,
      0.7048686326777721,
      -0.43087928926251795,
      0.3902762086122215,
      0.7566124021218154,
      -1.303678002653607,
      -0.4326866389579245,
      0.6917383063619585,
      -0.928438846549169,
      -0.9513123392126177,
      0.48643665079034215,
      3.1554788957631743,
      0.5975205571956274,
      0.7846858202920491,
      -0.44067322463260367,
      1.9449250222072645,
      -0.9077032383199378,
      1.1823218637625963,
      0.28969733133824127,
      0.007374911845660053,
      -0.0629190324925413,
      0.24880450111555813,
      -1.2675747279129197,
      0.018256475126287534,
      0.9285225243104173,
      1.3821406542778787,
      -0.5984229042824101,
      -0.18065874256148998,
      1.3012902740950016,
      -0.5794138075169234,
      1.098142130767796,
      -0.5937156790079358
    ],
    [
      0.6293876477727339,
      -0.8806408890740486,
      -0.2084587196101645,
      1.4944190144539988,
      0.6618955405014657,
      1.2060478938035073,
      1.2376314081193813,
      0.622154038524946,
      -0.42905433669517457,
      -0.45298402775624586,
      1.0801120551698309,
      -0.359301295778951,
      1.735342558096764,
      -0.2465648384706974,
      0.38327853083458685,
      -1.321173980735184,
      0.21227690588891954,
      -0.33004715290249687,
      0.6651628686755288,
      -1.002944202361116,
      0.33578315062862224,
      0.8327368410729731,
      0.44076971396106973,
      -0.12949751926352845,
      -0.6520116423610907,
      2.707746661041003,
      2.2955907471426964,
      -0.42260810737800747,
      2.0027678501821167,
      -0.9347861733574612,
      -0.5084199520876398,
      2.170367767080212
    ],
    [
      -0.4655998445724408,
      1.1476847657709561,
      0.9283216263427234,
      -1.5127147486112869,
      0.09500521152877921,
      -0.2819204623436561,
      -0.813996562083865,
      0.770590304355335,
      -0.5485594826731974,
      0.37509095819720173,
      -0.9632253048641997,
      -1.0587448579080296,
      -0.8529983213833972,
      0.6381798247150076,
      0.21074108486457932,
      -0.5182194487057148,
      -0.3848964046225207,
      0.38363656324255246,
      0.4079786052031028,
      0.7406733147283232,
      0.6634361069833308,
      -0.5846081069705563,
      0.4890015056672188,
      -0.5867335932587319,
      -0.20712166056798909,
      0.4387037600055651,
      -1.2063501278756583,
      0.8928427196639771,
      -0.5163203301825638,
      0.9204446594240699,
      -0.592292070103888,
      1.1907016068066651
    ],
    [
      0.04815102420196988,
      -0.6504210770234564,
      -0.5417239310751794,
      -1.3829399662160418,
      0.026395810173812248,
      -2.1356645747181444,
      -0.019299062597487534,
      -1.4196145147067638,
      0.5733988511068576,
      1.8658261028377379,
      -1.424730440083731,
      0.6941842614656955,
      -1.65572461073225,
      -0.10777964229982995,
      -0.9233986826499863,
      -2.3595267642547655,
      -1.4202666485377518,
      -0.49906870840342177,
      -0.15206026926681385,
      0.37211740024679407,
      -0.14321110737057977,
      0.36839160260952275,
      0.7980941721113888,
      -0.24953268441288537,
      -1.0716608304524478,
      1.4567501509652203,
      -1.5607529095652148,
      0.5154098849395936,
      1.4704100291562112,
      0.7347839390183545,
      -0.47390458345259734,
      1.0990628459020002
    ]
  ],
  "hidden_weights": [
    [
      -0.44970587345125257,
      0.9008699454920067,
      -1.178021587207404,
      -1.7132375075167376,
      2.0386732054553636,
      0.7450076233327163,
      1.0394465488884963,
      1.500523134065929,
      -0.798436952512184,
      0.2800330323415649,
      -0.0776912645766134,
      0.03930165830246529,
      1.163338740664639,
      -0.21749455637497808,
      -0.15468800208242459,
      -0.49598952916126204,
      1.2175588428332274,
      -0.8639859238796196,
      -2.2985408084620347,
      -1.1594853810506376,
      0.04446660260329617,
      -0.9493725944502068,
      0.7694695140495674,
      0.040304225991478246,
      -0.0042287226538996895,
      -0.09151693587343283,
      -0.29390352854374197,
      1.8562463883237366,
      1.05261645660482,
      0.9168474113052109,
      -2.2351560532074988,
      -0.31915831016960083
    ],
    [
      1.9871307795049638,
      -0.82100502930367,
      -1.3690320504595197,
      -0.6563896527383438,
      0.5624706268821746,
      -0.42203345158064604,
      1.1110979446150022,
      0.821534524632469,
      -2.1827888794735326,
      -0.33502923479743024,
      -0.8748851526018567,
      1.1780850973108,
      -0.03029071365427553,
      -0.21469409066313114,
      -0.5590988727073333,
      -0.21731226623347355,
      -1.1839915764911986,
      0.2696825565717564,
      0.4475369282172601,
      1.4266109346274862,
      0.4776015216142452,
      -1.0113492637108101,
      0.42957615019960554,
      0.9650132710318227,
      -0.7710169638675148,
      0.006076743798759341,
      -0.21804104173501684,
      0.43129177937758467,
      0.31598856194215424,
      -0.9419320086939653,
      -0.5646119693631246,
      1.663903243974063
    ],
    [
      -0.6799562874872394,
      3.3497557715719704,
      1.6833548194559271,
      1.3569445073754494,
      0.15109843857513575,
      -0.9625452264474461,
      2.188308534798051,
      0.3772275235082719,
      0.5526920249030952,
      1.545913498568146,
      1.2960201694313729,
      0.6673619508012385,
      0.3767863336999575,
      -1.7749233588977416,
      0.20300174213647626,
      -0.7616661962362863,
      -1.8711802724827227,
      -0.44549843688412477,
      -1.4386406503833886,
      0.26777193613984474,
      0.0086427675961622,
      1.3469615465929194,
      -0.531001176315435,
      1.2166127115413345,
      0.05008819119363293,
      2.500241303432741,
      2.0042424674909785,
      -1.1996172930351632,
      -0.32591349899952143,
      -0.7710006821898056,
      -2.07877335239856,
      1.3457616432184658
    ],
    [
      -0.7596755748582201,
      0.8143866182465205,
      1.3489529645375682,
      1.6850921303220334,
      -1.5810978328156227,
      0.4065981975060962,
      0.5937899299547289,
      -1.1735567900412605,
      0.7307224429521492,
      0.8210978514936198,
      -1.1164097063810043,
      -0.7929424027653589,
      -0.869109346906817,
      -1.5529248740577852,
      -1.184693492915272,
      -0.09037776083176835,
      0.3276526288148022,
      1.4027783507896705,
      -1.3624894058744372,
      -1.324360717416987,
      0.13916375872455702,
      0.7648266598127312,
      -0.08847973785070458,
      0.17955400738778918,
      0.33855284254456036,
      -0.341875596391883,
      1.491411982929984,
      -0.43552971991338496,
      -0.3429077634705284,
      0.8113761847395118,
      -0.5139057973799653,
      1.3785534625588638
    ],
    [
      1.7267124705458494,
      0.4259136157340003,
      1.0246839484293777,
      0.1584156320104704,
      0.8568954407865993,
      -1.319202525471694,
      0.08199927215917416,
      -1.9227309569749529,
      -1.171839776971714,
      1.0494280476853364,
      1.1920425951310543,
      -0.07521025021917781,
      1.5728099129812132,
      2.0030309846238534,
      -1.6112842037937127,
      2.8484422411723855,
      0.23113459361230157,
      0.29046567915164373,
      0.0904824640412004,
      -0.910197514365514,
      -0.010340077947163588,
      0.9139050972914312,
      1.838916973350143,
      -1.3145850391065064,
      -1.273598120984455,
      0.8857349330952056,
      -0.7210631720829721,
      1.3476712124518857,
      -0.8523819867655816,
      0.627576442159589,
      -1.4946774035157184,
      0.4337167210306968
    ],
    [
      -0.480204169183443,
      0.1695615734879743,
      1.3732943894989695,
      -1.6243056365993371,
      -0.4278476511262873,
      2.0538052728272085,
      0.9514945160316468,
      0.7864762658366315,
      0.40739878392281936,
      -2.1053490756037276,
      1.1937526186330878,
      -0.24121720901877514,
      -1.32342796776752,
      0.20259243702108123,
      0.998275545137829,
      1.0399610494361282,
      0.4078858730888752,
      -0.499104736134979,
      -1.5406439634339144,
      0.9226102193260067,
      0.2485089536049715,
      0.7858689874481504,
      -0.4655649342324233,
      -0.5685000851998726,
      0.1525946127319213,
      -0.4995987446421414,
      -0.8984513729832212,
      0.7951913835671022,
      2.297164844526859,
      -0.4525696049645956,
      -1.2287201975539086,
      -0.2691637221538009
    ],
    [
      0.1920924527843478,
      0.9934526780316065,
      -0.4844972701439523,
      1.2149476987404004,
      -0.1709930799567331,
      0.713942644677938,
      0.35329285736510585,
      -0.3130130733598096,
      1.6644018737923592,
      -0.8223945127907546,
      -0.31187982858250524,
      -0.40928777568107205,
      1.8543963318150505,
      -0.9214225083935412,
      -0.027788552958066915,
      -0.3537897759474623,
      0.10558578472676626,
      -0.8678506006981735,
      1.0129557419602089,
      0.3108166036541236,
      -0.140171153180689,
      -0.24591103125914054,
      0.7271575504738556,
      -1.2326363734697712,
      0.6306826419420327,
      0.9190550379235535,
      -0.3881000429800311,
      -1.099674541836607,
      -0.7462635986180128,
      -0.5376093061733621,
      2.2279894194146954,
      -0.8134996450831122
    ],
    [
      3.0590985672346833,
      0.04119355186476603,
      0.24773138842244408,
      0.32684918881932096,
      2.115177123784762,
      -0.033838104412777736,
      1.729021633259727,
      -1.3017934927618002,
      -0.06886248659724443,
      -0.2530507775130285,
      0.0819490819782268,
      -0.06938917471330393,
      0.2927846068557921,
      -1.044769279147534,
      0.24013618934128358,
      0.47548961474944296,
      0.2544646268600181,
      0.7667338767619059,
      -0.48267061286541946,
      -0.016556056882508774,
      0.2855193033780734,
      -0.42841419394441066,
      0.013650394305564036,
      -1.8420662012327966,
      1.5147533348303095,
      2.2978965183928977,
      -0.46581348648552323,
      0.8719205488661536,
      -1.0745423532064027,
      0.5883274578065552,
      0.2619324818320232,
      0.767511305775865
    ],
    [
      0.9708902561923879,
      0.8704539664164043,
      0.04551537735622353,
      -0.029733041850931525,
      -0.11393555409905748,
      -1.8208435178862017,
      0.282527684215947,
      0.11913323431270888,
      0.43952354505494934,
      0.1370976541762266,
      -0.9379576562488541,
      -0.017364311278784683,
      2.709119346909009,
      -1.6225735539451394,
      -0.6978381686621609,
      0.5157890905085212,
      0.1228520311967718,
      -2.0105761507800004,
      0.7268065387129065,
      -0.9865885058546723,
      -1.962836597809442,
      -0.115627042431316,
      0.9503079481784931,
      -0.5017414084387793,
      0.37283071406621904,
      0.059468151394578415,
      1.0259770764122687,
      -0.05939715228681435,
      0.809387167368178,
      -0.7824567219929203,
      2.521980046076021,
      -1.2225747338207231
    ],
    [
      0.43395083301752607,
      0.6941793046477344,
      1.4527163230126847,
      -0.6146435443699991,
      -0.2049954101263068,
      0.9215154529071449,
      -0.7693208730671461,
      -0.5139751334748002,
      -0.3200786899095448,
      -0.8246068999643107,
      0.8921362189435621,
      0.12322080981453491,
      0.8542905628730342,
      -1.4350879172361999,
      -0.9282482038420181,
      1.5801626527852417,
      -0.31700669146227384,
      -0.18410627674868363,
      0.3953165615460954,
      0.7466702399293002,
      -0.0688866217375171,
      1.2427310791626753,
      -0.059402762487767255,
      0.8372122563203518,
      1.7227221203062153,
      -1.0469971770719309,
      -1.821846171779778,
      -0.26834752276674645,
      0.5656950071339637,
      0.6771702400253548,
      0.08013199213766722,
      -0.1684427137056605
    ],
    [
      -0.37795712817946764,
      -0.23393039875544097,
      0.009614028783665069,
      -0.5133761216664761,
      -0.4172345022376433,
      1.1013145527204296,
      -0.19401191323897596,
      -0.5809245953677765,
      -0.6583998652391277,
      -0.36625075862749584,
      -0.13794161411967387,
      0.18094423517954022,
      0.044834928169353805,
      -0.41186021212961293,
      0.8775215429576808,
      0.21338083330544821,
      1.0780722958163558,
      0.011397397664495715,
      -0.8018810902311655,
      -1.2201215284611977,
      -0.3366935191595764,
      0.20001670800431579,
      -0.005023169377317719,
      0.2422508135497767,
      0.9464794765133423,
      -0.23980916202468158,
      0.616287553694453,
      -1.512434339298061,
      -0.7736343888524286,
      0.8429910842190431,
      -0.7163492595266958,
      -0.325339127361452
    ],
    [
      -0.6045380714291331,
      -0.562251593390145,
      -0.7862760205896023,
      -1.0631953584033322,
      -0.18225194161226504,
      -0.16421964675917392,
      1.8363255587517722,
      0.4896454835449799,
      1.6934793966933666,
      1.2955354986260892,
      0.2954874030564456,
      -0.3709463107648728,
      1.0197787826095752,
      -1.0736122863765458,
      1.6251645500459422,
      -2.591444778162562,
      1.4998225756470427,
      -0.3620745400474404,
      1.259548482822811,
      1.1726424149085795,
      -0.7350472574671708,
      -1.4051206975768238,
      -0.5043297305025909,
      0.5727003617221875,
      -0.6320854865220628,
      1.0247869517771935,
      0.2969184376147048,
      -0.5744980454595195,
      0.69586108391822,
      0.9519376397743388,
      -0.03160097986620352,
      -0.054258931584729775
    ],
    [
      0.12487328317304203,
      -0.45388953157394807,
      -0.15018401950752427,
      1.402618217774723,
      0.3533717542452123,
      2.6980152395579986,
      0.020299289377371986,
      0.5956452884477965,
      0.5563487381663914,
      -1.8818107669758017,
      0.5252567402725086,
      -0.6834608825446942,
      -0.03727089660966172,
      -0.4428741456277694,
      1.0386002174937496,
      -0.526149854124033,
      0.006564809385590968,
      -0.6823494090802515,
      -1.7313811859225947,
      -2.228280824718834,
      -1.2487601974831155,
      -0.8775241401903429,
      0.6376675822270009,
      1.6381137714788505,
      -0.12391208169775074,
      0.774557792429084,
      -2.1590376166867356,
      0.9872114226246709,
      1.484893813975843,
      2.1044826290245076,
      0.24961413227086862,
      2.468374792002282
    ],
    [
      -1.31702467689521,
      0.11158237515479746,
      0.8702982160948164,
      -1.687631203019462,
      0.08369498834101237,
      0.28119820612978175,
      -0.2788158649260138,
      0.08903608245966188,
      -0.6694037490737982,
      -0.42065770466809016,
      -0.666994545837978,
      -0.21585571752579485,
      -0.028815246776067508,
      -0.4002497887613144,
      -0.3521267248378966,
      -1.6884151726586039,
      1.0493597122036102,
      -0.3075266126633385,
      -0.9690512512000882,
      -0.9626442650973017,
      1.6178099131576709,
      1.853878869938287,
      -1.5500123974232558,
      0.8410346416159774,
      0.07857967770479567,
      1.2228769620383841,
      -0.26106849718494846,
      -1.3134559634205167,
      0.6829812184080477,
      -1.155160767133228,
      0.6778138747383294,
      1.0969959358663322
    ],
    [
      0.19020301292589997,
      -0.339294110882916,
      0.19885368733682876,
      -0.6020644381069482,
      -0.5832210328047,
      -1.4648164640887629,
      -0.3124200808229582,
      -1.4793797854885806,
      0.9001852549036292,
      -0.42623468884179383,
      -0.7503625098970017,
      0.8115456235010768,
      0.2846727868463221,
      -0.15957048265051726,
      -0.2240408462705981,
      -0.7886110759317475,
      -0.5126088877717944,
      0.47280788482096847,
      0.9954630947165843,
      -1.2575048244490743,
      0.18148342881928073,
      -0.1611605438440191,
      1.1853361700212015,
      0.04671618285461153,
      0.9075344143709696,
      1.9646029898674184,
      -1.0367182056167443,
      -0.3390717447798266,
      0.724050194387929,
      1.6395437068297614,
      -1.534741334392307,
      -0.74126009389816
    ],
    [
      1.7274299279517187,
      -0.4076174842999559,
      1.1510617019145932,
      0.9920358227581388,
      -1.1469828080552413,
      1.3608292942308653,
      -1.0840022100313473,
      -1.1406321502111305,
      2.9933111994882884,
      -0.9389050219576942,
      1.2256163687284396,
      0.05367249651982958,
      1.1954466924385974,
      -0.20183338862840855,
      1.0361353145732746,
      -0.7492691947541029,
      0.4254401637528004,
      -0.5427169751664098,
      -0.6473422629982916,
      0.2858536705911068,
      0.0621157880454505,
      1.6030314366790561,
      0.5309073560190695,
      0.3962078323415818,
      1.2814041745047422,
      -1.396628584363171,
      -0.32924041377143637,
      0.12094971148287512,
      0.13254405089830826,
      2.069336298753207,
      -1.228163356875663,
      -0.5023318608898139
    ],
    [
      1.1405878953884296,
      0.4074289754221976,
      1.0987438543538668,
      2.3390824832112425,
      -0.9551548690457708,
      -0.6068005436274104,
      -0.5647522912757642,
      0.4799079901047121,
      -0.5509559206382222,
      -0.5829593990884852,
      1.5780625044930592,
      -0.27769816200195085,
      -0.5076618347521304,
      -0.4824400635580775,
      -0.27323922091439895,
      -0.5518765193862237,
      -0.48046498233242496,
      0.822854968525186,
      -1.3093381445917216,
      1.141372356477672,
      -0.461575681008407,
      0.0047327342356728195,
      -1.3815254728427953,
      0.39301267962769587,
      0.02126513244017125,
      1.759173276057693,
      -0.6024695682316407,
      -0.17946188750161915,
      -0.8907745702237515,
      -0.40136757823136815,
      0.6077153824610495,
      1.556488300484628
    ],
    [
      2.4565382936997384,
      -1.822887566702921,
      -0.6717193413254202,
      0.7991098165755267,
      0.885771837243327,
      -1.111042413790474,
      0.24798695534431814,
      -0.23759675663564145,
      0.01240029127132818,
      -1.1418288439545725,
      0.09584447734057397,
      -1.138267286926391,
      -0.6664411943773599,
      1.0991936617623965,
      0.8228555211920788,
      -1.3644466308892003,
      0.3960742176719595,
      0.8851173915779262,
      0.2044059302312015,
      -2.3767143029950164,
      1.593047359459901,
      0.6567030472955165,
      0.5458238625054926,
      -1.7652676491148709,
      0.02161313367301523,
      0.0028364981328840226,
      0.4004519601759859,
      -0.44773740926773287,
      0.46782749720537425,
      0.35920365095364415,
      0.35272628207390044,
      -0.04161656598689548
    ],
    [
      -0.38378816762966356,
      -0.8894582134457839,
      -0.2767679120485846,
      -1.152504308268434,
      1.325974347574183,
      1.7471053426394216,
      -0.10877748955774418,
      1.3723492469655472,
      -0.2772983686932041,
      0.4831535761229193,
      -0.39586634742273247,
      -0.37149702687467506,
      -0.6940186432978894,
      0.46570130943232646,
      1.0110661611395346,
      0.5860730586963866,
      1.159780051943636,
      -1.0131927606324176,
      0.11914530139831864,
      0.8525887396039445,
      -0.37750789955592107,
      -0.4231731459764237,
      0.27450812974326777,
      1.6344663000963464,
      -0.06598594846105185,
      0.22213882233202148,
      -0.07624398256515433,
      1.3751697895077126,
      -0.5444144722529985,
      -0.7310477276901416,
      0.03940516243327515,
      -0.7722293231211378
    ],
    [
      -0.8906661566554175,
      2.2384957253486153,
      -2.287450406642337,
      -0.16735144801563634,
      1.8783055875404842,
      -0.7860332076538514,
      -0.29475328403217216,
      0.5036882050778484,
      -0.8584704592888244,
      -0.655482754060018,
      -0.330011103568555,
      -1.3125737092606773,
      0.8032217063677329,
      -0.0676763688455939,
      -0.07194403987359727,
      0.5032944114440848,
      -0.4088493202854546,
      -1.5599363464696905,
      -0.8193740524963009,
      -0.8118764475799966,
      -1.7810542617348868,
      -0.37795597826429517,
      -1.492758505719935,
      1.3957243859009902,
      -0.2827761437441937,
      -0.26763202705175126,
      1.1409274015327524,
      0.05926384618830429,
      1.5333015858371637,
      0.09173390435959536,
      0.6629022722296577,
      0.5021787069511485
    ],
    [
      1.983284282645723,
      -0.31046842375310313,
      -0.037075821791930245,
      0.2666299985012419,
      -0.490026447863621,
      -0.2620332913390435,
      -0.1252446082607245,
      -0.485986686404674,
      -0.20303260514271268,
      0.29456391986843067,
      -0.1871663127298518,
      0.6311361266381659,
      1.8133760626391968,
      -0.2311363297362529,
      -1.172353292216901,
      0.19730215578710894,
      2.17293009219605,
      -0.8703768361387241,
      0.6004853781418182,
      -1.6040528347396406,
      1.0188993080177953,
      1.3833476480909386,
      -0.4996823668859778,
      -0.3219910518113764,
      0.5543161190859902,
      1.6305392286368283,
      0.07310640196320244,
      -0.4309042495951663,
      2.556196262520746,
      2.2056594056175487,
      -0.25118416371637375,
      -1.1759359557959534
    ],
    [
      1.191994752664932,
      1.0233580841700973,
      -0.8849932749057129,
      0.9668795257249292,
      0.6941842072623552,
      1.8380062281746319,
      -1.2621555097897994,
      0.6184961677224516,
      -0.15744797966350974,
      -1.5871750015040442,
      -0.001668202765416717,
      0.20510166015894873,
      0.07564637407509417,
      0.6959654220453011,
      0.49640795460321274,
      0.30207854604508777,
      -0.23765087935596893,
      -0.3796755317109581,
      -0.3319759830666279,
      0.12002066833712903,
      0.6929048629408979,
      -0.41780237576043405,
      2.117423563975208,
      -0.24657873901592872,
      -0.43910155824509084,
      -0.6797865279072922,
      -1.716445377176334,
      -0.3082640779981444,
      -1.7356299094954557,
      -1.5921930627897063,
      -1.2479860102996319,
      -1.018825324122951
    ],
    [
      0.1117929890601501,
      -0.6258765205867803,
      0.3018407450325003,
      -0.3898277578421677,
      -0.4859549376265479,
      -1.5917993705071105,
      -1.3875378473115065,
      1.2129380887311332,
      -1.9791029969895386,
      -0.4333366321713322,
      -2.04173157202756,
      2.125194461804994,
      -0.6110185205776825,
      -1.9826003434777717,
      -1.2340649657900338,
      -0.6902512762715787,
      -0.06635655857764809,
      -1.4280136215132808,
      0.7217516915712646,
      -0.7834798124947229,
      1.6715363706419806,
      -0.5405639341295405,
      -0.25790441335489744,
      -0.9737194587800955,
      0.6975419477305423,
      1.8261465304257993,
      -0.44167470394288016,
      -0.5648567507402892,
      1.5901181121299723,
      0.055417276737840186,
      2.4203760915017885,
      -0.45767188771578293
    ],
    [
      1.4394828409588452,
      1.1208582666150295,
      1.5566575448583677,
      -0.5307722704702718,
      1.6506800335939347,
      0.050849423135996545,
      0.057616990203917015,
      -2.140616562230904,
      0.2309618151175603,
      -0.2074356778981838,
      -0.3749737497449967,
      -0.46232634831695635,
      -0.8800091049272304,
      1.118356828127482,
      -0.02854992041971055,
      -0.24580310588409732,
      0.4117075390372669,
      -0.35295389345106226,
      1.3437809564661605,
      0.4126943770974926,
      -0.575786589786065,
      0.4987867312480257,
      -1.1894452608651223,
      -0.7837381213236349,
      -0.04733623787323522,
      0.8120498343860137,
      -0.6213692019262727,
      0.5782078614048066,
      -0.9899438291697116,
      -1.1266065986480087,
      -0.9213579215638074,
      0.606967923986278
    ],
    [
      -1.7431095736570772,
      -0.6291716276942245,
      0.9994712438874406,
      -2.0779569848409163,
      0.15780966949616987,
      -0.8376247388512217,
      0.38308783903786225,
      0.2604890549270949,
      0.6719000671026857,
      -1.230413294311727,
      -0.7848712658957241,
      -1.1876636624873818,
      -0.12168823413029417,
      -0.9616423065637631,
      0.8847460474086546,
      -1.7443068072549055,
      0.9431767113600964,
      1.1602987479715232,
      -0.7726458921474435,
      1.528402290810284,
      -0.3072128866412306,
      -0.6178048058454634,
      0.9101812136921672,
      0.5832733531253002,
      -1.1642396957584475,
      0.9339658553436718,
      0.18623070835876004,
      0.4644359374755591,
      -1.1394279437743646,
      1.356712759867698,
      1.466896361129866,
      2.648444000357963
    ],
    [
      -0.6097327011675853,
      -0.3484828515193717,
      -0.07039558123110132,
      0.5841190021082142,
      0.5083332727279429,
      1.2797745024987723,
      -0.028411527640862362,
      -1.5222784937289378,
      -1.699295334878498,
      -1.0054243635768036,
      -0.6991358492583173,
      -0.5486142060294168,
      1.0308353580989695,
      1.5447308981059222,
      0.40461083433149303,
      -2.747961378349679,
      -0.08669858107274814,
      0.029492706093466003,
      -0.41757579566986924,
      -1.150897731705368,
      1.2629028202517885,
      -1.0201894700956884,
      0.048933661165671494,
      -0.8921263628877845,
      0.47214099690672234,
      1.1515340069627047,
      0.9495121239303085,
      -1.3275115495833507,
      0.8893732946737329,
      -1.0678060406910266,
      -0.11862322617555916,
      -0.12265936520808866
    ],
    [
      -0.5141624605747678,
      2.4756794224009635,
      1.8855537084767173,
      -1.223269789980657,
      0.1399879256728613,
      0.8316937434475797,
      0.39068012651375367,
      0.33255230624702997,
      -0.7849793083622048,
      -0.8644195368942049,
      -0.504014993212231,
      0.7271456913293869,
      -0.20742691553674472,
      -0.35015596367236973,
      -0.18099525220024007,
      -1.8541826880811265,
      -0.16794330756967768,
      0.06312533099495178,
      1.4925465867857193,
      -0.5400912568842484,
      1.0519182392438218,
      0.39680703199967327,
      -0.17155686351902832,
      1.6896907836239077,
      -0.41752215366498263,
      1.3421103037299111,
      -0.18853342796905048,
      -0.3504311830960534,
      1.9500933822313875,
      1.1097919012065354,
      0.6395093426839967,
      0.17167980134520053
    ],
    [
      -0.09760018413442796,
      -0.6128329514412248,
      -1.8251209691908457,
      0.7791349269191636,
      -0.6380257638449846,
      1.24642304755018,
      0.157146756589832,
      -0.5116039167336334,
      -0.3945341578020923,
      -0.8741724291955086,
      -0.0006926939214884641,
      2.199734569271014,
      0.16989057271572666,
      -1.1943730679002649,
      1.0955412132258193,
      0.2447056351809036,
      0.42529376816410674,
      -0.35741522003319043,
      0.4629081824291344,
      -0.8641723810537723,
      0.8627144332162446,
      -1.4842697644841274,
      -0.11264990074273203,
      -1.1567144565756755,
      -0.3849675564977633,
      0.15559499324997386,
      1.2155438892634132,
      0.564447689044786,
      0.9256482519767614,
      -2.092974542728374,
      1.3493721392886557,
      0.3892742630276253
    ],
    [
      -0.061292978848843924,
      0.14354567110258093,
      0.3437428380260728,
      -0.8317188235198826,
      0.6234410445198275,
      0.9776471977510593,
      -0.7364087329757077,
      -0.21769381335841745,
      -1.5292113650065131,
      0.6235856855827744,
      2.30990063812056,
      0.7363536539166585,
      0.3796862941816181,
      0.8306204794095541,
      -1.107950322634315,
      0.3888499442009166,
      -1.3207629387035504,
      0.6526721866469734,
      1.6008278375714042,
      -0.8508313210261507,
      -1.037936454193597,
      1.4156522976191555,
      -1.7857566972430927,
      1.6554691844339318,
      0.6487088769888478,
      -1.292520145829852,
      -0.7010101070049923,
      -0.9498754137391457,
      0.3050203406220825,
      0.3855819353585467,
      -0.42306288386526925,
      0.07391805131376336
    ],
    [
      -1.5197536333257575,
      1.2810846271904146,
      -0.4228188413063556,
      0.716376378868042,
      -0.9844847442127211,
      -1.7823371457433246,
      -0.11028095960331649,
      0.15718284335173427,
      -1.1551655280338353,
      -0.09868222511710642,
      1.6549698315936643,
      -0.958521837149,
      -0.5330776472239787,
      0.9664829723063336,
      -1.4306945108084081,
      -0.0802748134906565,
      0.7317606789091364,
      -0.5031568964773796,
      0.1536528868983115,
      -1.9105816890769158,
      -0.18454884689210263,
      -0.4967994539939391,
      0.927336112170459,
      0.1363599093055361,
      0.3032535697707757,
      -0.6367858838364852,
      0.6691618923530923,
      1.7017632926899289,
      0.6951330116614826,
      0.7491311819762462,
      -0.2953929857142294,
      -0.6429253862142528
    ],
    [
      -0.03762929977695559,
      0.4831338070419362,
      0.7378456386812509,
      -0.32387789689641555,
      -0.33749148098837284,
      -0.7387536162439893,
      -1.227167530474179,
      0.028220511222308026,
      0.6953709052584517,
      0.6694545780137686,
      -0.4727196224107439,
      -0.05043922159924408,
      -1.9134003355534066,
      -0.2538347087325368,
      -1.1956505504842414,
      0.559282329461169,
      1.9645310595150265,
      -1.2010232330489754,
      -0.37528815530693876,
      -0.4508752983264915,
      -0.554696925916155,
      -0.18918950895637207,
      -0.7163395673358927,
      1.0030226644322677,
      -0.03332050489568987,
      0.3375456604153891,
      0.5918693573597998,
      -0.1759345253194525,
      -1.244245081173527,
      0.2763219964500739,
      -1.2638133672607346,
      1.4092637594496285
    ],
    [
      -1.8491643948261243,
      -1.8861179762436782,
      -1.6483392590436647,
      0.023007013690554065,
      1.046677377733343,
      -0.20520058879044356,
      -1.0321691584333212,
      0.03070832430387135,
      0.27491833806921173,
      -0.7375142756285777,
      -0.2614565560259755,
      1.763592981447967,
      -0.6146086477485996,
      0.06672525982792549,
      -0.5142527682254392,
      -0.6463980998195034,
      0.47313341927110913,
      1.6422080058410407,
      1.0836858225359889,
      1.346208358948433,
      -1.4693182521040493,
      1.2817529190810755,
      1.8728884745235048,
      0.3522197189276289,
      0.13401643600212043,
      1.221342921033751,
      0.3295665236239899,
      -0.20224377730356075,
      -0.23948914822866046,
      -0.5290822703263139,
      0.721364860568317,
      2.158473995656666
    ]
  ],
  "output_transform": [
    [
      -1.6960675383790178,
      0.858257854599263,
      -0.4005992435378049,
      -3.018171747490769,
      -1.4133696979397539,
      1.528791678853611
    ],
    [
      -0.3062056100052025,
      -0.23819601062402218,
      0.38922364386383396,
      0.08813203390201112,
      -2.229686432574268,
      -1.5308825563139026
    ],
    [
      -1.6993285241789287,
      -0.03101214465800313,
      2.236093675047805,
      0.6337265485192053,
      -1.744090601933794,
      -0.9319375273629795
    ],
    [
      0.6601227963023814,
      -0.82379705994465,
      -0.38913231054542946,
      1.783000455483002,
      0.3882259435468578,
      -0.9061984095230053
    ],
    [
      -0.48508802297863773,
      1.4815063179404184,
      0.22380931739273313,
      -0.4465624327977909,
      -3.260413844178384,
      -0.4874913742559066
    ],
    [
      -0.9584205746212493,
      1.3443325311550762,
      -0.7786452761280602,
      -0.5019673546459359,
      1.0624238136153932,
      -0.20801251909033025
    ],
    [
      -0.11241455278760085,
      0.6287546517622262,
      0.019992310481903305,
      1.6498536267030715,
      0.5453747617668433,
      3.4251863523476063
    ],
    [
      1.4361928853865973,
      0.6298130885717115,
      -0.14181741857845523,
      0.7425988877782043,
      -0.7700772238329181,
      0.36457585387898417
    ],
    [
      0.19611152000141255,
      1.0288825468136014,
      0.13632546310751043,
      -0.38676249051973305,
      0.006011375392270163,
      1.0895582529720549
    ],
    [
      -0.3397764817713036,
      -0.8143265669823608,
      0.8932293155943435,
      0.14820286011266154,
      0.6138500015508236,
      0.9425903198237587
    ],
    [
      1.6778928091506549,
      0.8469287744478279,
      1.2715072710565296,
      -0.48514130172390685,
      -1.6347274356855193,
      -0.7940188102930239
    ],
    [
      -0.6371925205931938,
      0.937238772489729,
      -1.0163853501121491,
      0.9688895469277722,
      -0.6494572465598034,
      1.799008215006606
    ],
    [
      -2.01405591586609,
      -1.5434658102533305,
      0.8922322979043084,
      -0.3782186416449646,
      -1.3940531481029155,
      -0.7400591520272374
    ],
    [
      1.091552139361299,
      -2.6908078038804573,
      0.3462965516221841,
      0.24688771803028084,
      -0.9628711147344939,
      1.3239672923928374
    ],
    [
      -1.215410258356478,
      0.3313200742062253,
      1.3481206391110578,
      -0.08809386676311738,
      1.0608839277562223,
      1.346204587204781
    ],
    [
      -1.155060571041266,
      -0.3452397219750091,
      0.24452835970230988,
      -0.9265058490826862,
      -2.328874162485468,
      -0.9483117400440757
    ],
    [
      0.35207869567915845,
      -1.2723587941872856,
      -2.286465851574307,
      -0.9966609650444541,
      1.3916310101477627,
      0.3093669574056752
    ],
    [
      -0.2514241988656784,
      0.6345503457059894,
      -2.4654640167601505,
      0.9073308585593811,
      -0.16563248120723134,
      -2.2434446975672997
    ],
    [
      0.9603209911579254,
      -0.6724290864664995,
      0.18738967942506524,
      -0.9185770719327527,
      -0.3267744834586151,
      0.1728074424833732
    ],
    [
      1.419585013857427,
      0.2818506219680643,
      -0.4103543087039291,
      -1.2225822054522435,
      -0.4550632103205477,
      -1.192687463893654
    ],
    [
      0.5565550383236562,
      -0.037488786759784565,
      0.09581601225742142,
      0.06674807312224816,
      -0.9878078217290703,
      1.1020686629510337
    ],
    [
      0.5120208479366587,
      0.9973924867554439,
      0.5940484859762842,
      -0.7885016088069401,
      -0.2792900885855292,
      1.3758842090901924
    ],
    [
      0.49897592489107295,
      1.1733068242153295,
      1.9842826551881354,
      -1.2997281563477108,
      -0.570731909525082,
      -1.134231133242238
    ],
    [
      0.44472216961354505,
      -0.9894549218783322,
      -0.047925226541058775,
      -1.2399904738511216,
      1.604276957573571,
      -0.7693127851378331
    ],
    [
      -0.8331212652142297,
      -0.6788347912045093,
      -0.12953247118843378,
      -1.0046746879277417,
      -0.4187216728411677,
      -0.8842611749962396
    ],
    [
      0.4107175755897244,
      1.7486864005603722,
      -0.9995480753427334,
      0.0784754293494754,
      0.7966033715793382,
      -0.38323635312896986
    ],
    [
      0.2460769961459158,
      0.80770968884771,
      -0.7823617396130881,
      0.633768428734204,
      0.6616819594168359,
      1.0472080953941276
    ],
    [
      -0.8109744348334911,
      -1.973519848365876,
      -0.4815871082645816,
      -0.233518409253362,
      -0.7512901497054038,
      -0.42636076106142917
    ],
    [
      -0.17333717060094356,
      0.7904728289178291,
      -0.44116906781884935,
      -0.4844790344959293,
      -1.1783880597035465,
      1.0068998467943733
    ],
    [
      -0.330672724463114,
      1.4076563178709287,
      0.40421897028515924,
      0.05259292795140736,
      -0.12196874024063685,
      -0.7398355172896893
    ],
    [
      0.7125492693208717,
      1.0997695709663384,
      0.46416983320943883,
      1.0389311470568703,
      0.5049758564889583,
      0.9239543442203603
    ],
    [
      0.8144951640327682,
      0.8027563341208492,
      -0.13670446360070368,
      0.07459820673215083,
      -1.167089301935248,
      -0.1672651060050573
    ]
  ],
  "bias": [
    -0.9033992533420879,
    -0.3844188911506693,
    -0.0937742619329622,
    -0.3444028735607205,
    -0.49481593948895636,
    -0.13080721021366673
  ]
}